svm_type c_svc
kernel_type polynomial
degree 3
gamma 0.5
coef0 0
nr_class 2
total_sv 12
rho 1.00037
label 1 -1
nr_sv 5 7
SV
8 43:0.48013166 177:0.76931941 
8 46:0.50557762 182:0.83759139 
8 177:0.86548433 
8 182:0.83759139 
8 177:0.53260574 
-2.435027604945835 43:0.61731214 
-4.682445756523239 46:0.28890149 
-0.8825266385309257 46:1.0111552 
-8 29:0.26202135 46:0.069734844 182:0.23105969 
-8 48:0.10195885 85:0.023014843 86:0.0011245307 182:0.23931183 
-8 46:0.057780299 48:0.081567083 86:0.0035984982 92:0.030680848 182:0.19144946 
-8 43:0.33239884 92:0.082602283 177:0.53260574 
