svm_type c_svc
kernel_type linear
nr_class 2
total_sv 54
rho 1.19938
label 1 -1
nr_sv 14 40
SV
35.84392672920168 50:0.17538208 97:0.19570429 98:0.17538208 100:0.35356994 167:0.27460407 
128 1:0.020205072 50:0.10183476 80:0.14907386 98:0.10183476 159:0.24582964 
128 1:0.03296617 50:0.16615144 56:0.16094187 98:0.16615144 
14.115309136322 5:0.56996998 50:0.52614624 97:0.58711288 98:0.52614624 99:0.56996998 
128 1:0.036844543 50:0.18569867 97:0.20721631 98:0.18569867 
128 1:0.021598525 50:0.10885784 85:0.022221227 86:0.0010857538 97:0.12147163 98:0.10885784 
128 81:0.39865071 
128 1:0.044739802 48:0.13594514 81:0.45560081 91:0.16774654 
128 31:0.10732263 50:0.090196498 54:0.062820048 97:0.10064792 98:0.090196498 
128 31:0.18781461 50:0.15784387 54:0.10993508 91:0.17613386 97:0.17613386 98:0.15784387 
128 50:0.30065499 85:0.030686457 86:0.0014993742 97:0.33549307 98:0.30065499 
128 46:0.059479719 50:0.18569867 85:0.0189534 86:0.00092608409 97:0.20721631 98:0.18569867 100:0.18718408 125:0.11782659 
128 50:0.35076416 98:0.35076416 
128 50:0.13725554 97:0.15315988 98:0.13725554 
-0.3086715932089525 1:0.056941567 22:0.20212675 36:0.45584838 56:0.27799051 105:0.20212675 
-12.12764464394934 50:0.22549124 84:0.19033729 85:0.046029685 98:0.22549124 
-3.586578937889485 2:0.12878094 31:0.087355631 39:0.078841584 85:0.014986409 86:0.00073225254 164:0.091940935 167:0.11495054 
-1.829541423552607 11:0.10946105 20:0.12090165 74:0.13460172 97:0.12147163 107:0.16495891 
-4.697194100082979 159:3.8103594 
-128 86:0.0016572031 92:0.056517352 97:0.37080813 
-4.976794397809179 50:0.31568774 83:0.36188211 98:0.31568774 
-0.1064618791280442 1:0.31317862 17:1.6174976 
-99.19889375961024 50:0.13725554 80:0.20092563 98:0.13725554 
-42.56599498030106 56:0.25482463 86:0.0026239049 159:0.31752995 
-2.984364742720378 85:0.04957043 86:0.0024220661 97:0.27097518 122:0.32429419 127:0.35173072 
-98.49633604328163 50:0.28698886 91:0.32024339 98:0.28698886 
-125.5617432984924 1:0.030307608 91:0.11363475 97:0.11363475 
-10.70041652960045 85:0.012158785 86:0.0023763667 167:0.093261758 
-30.50281852025911 1:0.016483085 5:0.17999052 12:0.12599826 49:0.12599826 50:0.33230289 97:0.18540407 98:0.33230289 99:0.17999052 
-128 50:0.13433521 56:0.065061608 98:0.13433521 
-0.2393023144629784 28:0.083459175 85:0.012392608 86:0.0018165496 128:0.10773305 167:0.095055254 
-16.47879061749041 1:0.028470783 50:0.14349443 97:0.16012169 98:0.14349443 100:0.28928449 123:0.19316936 124:0.18462154 
-59.26483235883492 1:0.082415425 54:0.11572114 
-25.42657159957069 31:0.17074055 46:0.091923203 
-128 1:0.052196436 50:0.26307312 81:0.79730142 97:0.29355644 98:0.26307312 
-7.623205458772772 50:0.16615144 56:0.080470937 85:0.016958305 86:0.00082860155 87:0.10472199 88:0.10437799 98:0.16615144 114:0.077233964 117:0.10240338 
-2.005639738616106 74:0.18587856 92:0.051134747 97:0.33549307 
-3.419322806504613 54:0.31410024 
-31.23095728332343 1:0.056941567 48:0.25953163 50:0.28698886 98:0.28698886 100:0.57856899 
-41.830102118214 5:0.083410241 50:0.30798804 73:0.11667826 86:0.0015359443 92:0.026190968 93:0.069630437 97:0.25775687 98:0.30798804 99:0.083410241 100:0.15522583 109:0.094044432 
-60.37132285195559 50:0.22549124 54:0.10470008 86:0.0044981227 92:0.025567373 97:0.16774654 98:0.22549124 125:0.28615028 
-26.72327858853965 48:0.21960369 50:0.24283673 97:0.27097518 98:0.24283673 
-22.83973096251962 50:0.13153656 85:0.02685065 86:0.0026239049 97:0.14677822 98:0.13153656 166:0.1663617 
-128 50:0.080945575 98:0.080945575 
-124.8660193885395 48:0.075127576 50:0.33230289 53:0.077478763 54:0.057860571 86:0.0016572031 92:0.028258676 97:0.2781061 98:0.33230289 
-0.04760181830379211 1:0.015277006 11:0.15484735 15:0.23099103 31:0.18323376 45:0.10407604 46:0.049324645 85:0.015717453 86:0.0030718887 
-3.861019043350256 46:0.14445075 85:0.046029685 86:0.0022490614 167:0.35306237 168:0.39121112 
-4.468774440564651 46:1.0111552 
-16.08391562647572 1:0.019573664 85:0.040275974 86:0.0019679287 148:0.17581255 167:0.30892957 
-39.9260904148707 50:0.14349443 81:0.21744584 86:0.0042936626 92:0.02440522 97:0.080060847 98:0.14349443 100:0.14464225 
-1.35969306191159 50:0.14349443 88:0.18028925 98:0.14349443 
-1.41884743551488 39:0.2607837 50:0.24283673 79:0.44809711 98:0.24283673 
-128 31:0.25041948 50:0.2104585 98:0.2104585 
-18.83076308730202 85:0.3222078 86:0.01574343 
