svm_type c_svc
kernel_type rbf
gamma 0.00195313
nr_class 2
total_sv 233
rho 76.5345
label 1 -1
nr_sv 100 133
SV
8192 86:0.01049562 
8192 85:0.1611039 86:0.0078717148 
8192 85:0.03391661 
8192 85:0.037906799 87:0.23408445 88:0.23331551 
8192 85:0.03222078 87:0.19897178 88:0.19831818 
8192 85:0.042961039 86:0.0020991239 88:0.26442424 89:0.22552401 
8192 91:0.88066932 
8192 85:0.053701299 86:0.0026239049 87:0.33161964 88:0.3305303 
8192 85:0.046029685 86:0.0022490614 
8192 92:0.063166452 93:0.16793223 
3013.087533737246 86:0.0039358574 95:0.6415144 
8192 85:0.1611039 86:0.0078717148 
8192 85:0.071601732 86:0.0069970798 108:0.44363121 
8192 85:0.037906799 86:0.0018521682 
8192 83:0.90470528 
8192 92:0.35794323 
8192 92:0.17897161 
8192 92:0.17897161 
8192 83:1.2062737 
8192 85:0.1074026 86:0.0052478098 
8192 86:0.0052478098 
8192 92:0.11931441 
8192 56:0.12231582 85:0.051553247 86:0.0012594744 92:0.042953187 132:0.17435701 
8192 83:0.36188211 85:0.064441559 86:0.0031486859 
8192 85:0.1074026 86:0.0052478098 
8192 92:0.21476594 
2676.684148738479 45:0.53338972 84:0.33309027 85:0.080551949 86:0.0039358574 
8192 85:0.028018069 86:0.0041069816 87:0.17301894 88:0.17245059 186:0.078456061 
8085.051417848172 92:0.15340424 93:0.40783542 94:0.9572473 
8192 85:0.1611039 86:0.0078717148 
8192 46:0.25278881 85:0.080551949 86:0.0039358574 
8192 85:0.12888312 86:0.0062973718 
8192 85:0.080551949 86:0.0039358574 
5.247515482714769 85:0.1074026 86:0.0052478098 95:0.85535253 96:0.8624458 
8192 85:0.12888312 86:0.0062973718 
8192 84:0.53294442 
8192 92:0.15340424 
8192 86:0.0019679287 92:0.067114355 93:0.17842799 
8192 85:0.12888312 86:0.0062973718 
8192 85:0.09205937 86:0.0044981227 
8192 92:0.13422871 
194.9828128470109 83:1.8094106 
8192 84:1.3323611 
8192 86:0.0034985399 89:0.093968335 92:0.059657204 
8192 85:0.1611039 86:0.0078717148 
8192 91:0.88066932 
8192 84:1.3323611 
8192 85:0.1611039 86:0.0078717148 
8192 86:0.0039358574 
2965.337406238173 84:0.88824071 92:0.35794323 
8192 92:0.26845742 
8192 83:0.30156843 85:0.053701299 86:0.0026239049 110:0.29566626 113:0.25224711 
8192 16:0.12814203 83:0.12062737 85:0.042961039 86:0.001049562 92:0.035794323 95:0.17107051 96:0.17248916 
8192 46:0.28890149 
8192 84:1.3323611 
8192 83:0.45235264 85:0.080551949 86:0.0039358574 
1480.423578238215 85:0.064441559 86:0.0031486859 87:0.39794357 88:0.39663636 101:0.38793522 
8192 85:0.1074026 86:0.0052478098 
8192 1:0.093953585 91:0.35226773 
8192 83:0.51697445 92:0.15340424 
8192 85:0.1611039 86:0.0078717148 
8192 85:0.12888312 86:0.0062973718 
8192 85:0.09205937 86:0.0044981227 
8192 1:0.016483085 83:0.19046427 85:0.03391661 86:0.0016572031 
8192 92:0.15340424 
8192 85:0.12888312 86:0.0062973718 
8192 92:0.13422871 
8192 92:0.10738297 
8192 85:0.12888312 86:0.0062973718 
8192 113:0.60539306 
8192 84:0.66618053 92:0.26845742 
8192 85:0.1074026 86:0.0052478098 
4143.499547179529 1:0.026098218 83:0.30156843 85:0.053701299 86:0.0026239049 87:0.33161964 88:0.3305303 
142.3300145745125 90:1.8256519 91:0.58711288 
8192 85:0.12888312 86:0.012594744 
8192 84:0.88824071 86:0.01049562 
8192 85:0.1074026 86:0.0052478098 
8192 85:0.12888312 86:0.0062973718 
1759.18711072644 92:0.53691484 
8192 83:0.51697445 92:0.15340424 
8192 92:0.53691484 
3831.277255207749 84:0.88824071 92:0.35794323 
8192 92:0.26845742 
8192 1:0.012045331 39:0.13039185 85:0.04957043 86:0.0036330991 95:0.19738905 96:0.19902595 
3720.053741752605 85:0.1074026 86:0.0052478098 95:0.85535253 96:0.8624458 
8192 85:0.1611039 86:0.0078717148 
8192 85:0.042961039 86:0.0041982479 95:0.34214101 96:0.34497832 
1120.418352758533 92:0.53691484 
8192 84:0.38067459 85:0.09205937 86:0.0044981227 
8192 84:0.88824071 92:0.35794323 
8192 85:0.1611039 86:0.0078717148 
2448.759481822851 84:0.53294442 85:0.12888312 86:0.0062973718 
8192 91:0.58711288 
8192 85:0.1074026 86:0.0052478098 
8192 85:0.080551949 86:0.0039358574 
8192 85:0.1611039 86:0.0078717148 
8192 85:0.09205937 86:0.0044981227 
8192 92:0.15340424 
8192 46:0.18384641 88:0.36057851 89:0.15376637 92:0.09762088 
8192 91:0.70453546 
-8192 85:0.023867244 86:0.0023323599 93:0.10573511 94:0.24817523 
-854.4434438140433 85:0.064441559 86:0.0062973718 148:0.28130008 
-558.2616332579446 85:0.080551949 86:0.0039358574 117:0.48641605 
-8192 92:0.17897161 
-8192 85:0.04957043 86:0.0048441322 
-8192 92:0.21476594 
-8192 85:0.064441559 86:0.0062973718 
-8192 85:0.080551949 86:0.011807572 95:0.6415144 96:0.64683435 
-8192 84:0.66618053 85:0.1611039 86:0.0078717148 
-1876.896362751898 16:0.14785619 74:0.15013268 85:0.04957043 86:0.0024220661 95:0.19738905 96:0.19902595 123:0.163451 124:0.15621822 
-8192 86:0.0020991239 92:0.071588645 93:0.19032319 
-8192 92:0.26845742 
-979.5572475977611 85:0.046029685 86:0.0022490614 113:0.21621181 129:0.34170061 132:0.31135181 
-269.985905638277 9:0.47838085 85:0.064441559 86:0.0031486859 
-627.7178072465224 10:0.30389416 86:0.0052478098 92:0.089485807 113:0.25224711 132:0.36324378 
-1048.430006899788 92:0.082602283 113:0.23284348 130:0.19315972 132:0.33530195 
-161.9796681377438 85:0.058583235 86:0.0028624417 169:0.47446605 
-492.8872557890962 85:0.071601732 86:0.0034985399 164:0.43927336 
-8192 85:0.064441559 86:0.0062973718 
-931.7514032340268 1:0.062635723 91:0.35226773 
-443.8851015530394 18:0.58850759 91:0.58711288 
-1449.531705216134 110:1.182665 113:1.0089884 
-181.9890023397751 32:1.4223726 45:1.4223726 
-239.575144253481 85:0.058583235 86:0.0028624417 170:0.40166807 
-63.2358154154992 113:1.5134826 159:1.9051797 
-101.0739081270073 44:1.2461455 45:0.85342355 46:0.40446209 
-451.3085958997613 17:0.21566635 19:0.28565449 85:0.042961039 86:0.0020991239 113:0.20179769 
-8192 85:0.09205937 86:0.0044981227 
-8192 85:0.037906799 86:0.0037043364 89:0.049747942 92:0.031583226 
-8192 85:0.053701299 86:0.0052478098 
-1397.043816685128 81:0.47838085 88:0.39663636 
-609.8170171236792 88:0.26442424 127:0.30483329 149:0.38301464 
-7567.316155898619 85:0.036823748 86:0.0035984982 89:0.048326573 92:0.030680848 
-1859.951105760913 85:0.080551949 86:0.0078717148 102:0.36120425 110:0.44349939 113:0.37837066 
-608.1689950035471 85:0.042961039 86:0.0020991239 113:0.20179769 114:0.19565937 
-8192 85:0.058583235 86:0.0028624417 
-3366.152795438087 108:0.99817023 
-8192 1:0.034797624 85:0.035800866 86:0.0017492699 88:0.22035353 89:0.093968335 
-155.4343182112553 29:0.5427585 79:0.83218034 85:0.09205937 86:0.0044981227 
-8192 85:0.1074026 86:0.0052478098 
-8192 85:0.071601732 86:0.0069970798 
-1529.885370681015 46:0.11235058 85:0.035800866 86:0.0017492699 87:0.22107976 88:0.22035353 142:0.34615153 
-8192 85:0.2148052 86:0.01049562 
-8192 92:0.17897161 
-566.47036396139 85:0.058583235 86:0.0028624417 112:0.26850752 
-6.599332837256106 15:0.28698886 54:0.19988197 85:0.058583235 86:0.0028624417 
-113.337386768882 15:0.28698886 54:0.19988197 85:0.058583235 86:0.0028624417 
-395.7416541759694 85:0.064441559 86:0.0031486859 166:0.39926809 
-8192 92:0.17897161 
-8192 85:0.041575199 86:0.0020314103 92:0.034639667 
-8192 91:0.88066932 
-8192 92:0.17897161 
-8192 85:0.041575199 86:0.0020314103 92:0.034639667 
-8192 85:0.041575199 86:0.0020314103 92:0.034639667 
-8192 85:0.12888312 86:0.0062973718 
-8192 92:0.53691484 
-398.3610622479963 53:0.32713256 56:0.33976618 92:0.11931441 
-8192 92:0.53691484 
-8192 85:0.2148052 86:0.01049562 
-1326.508148343537 52:0.25591294 56:0.21842111 85:0.046029685 86:0.0022490614 132:0.31135181 
-8192 85:0.2148052 86:0.01049562 
-8192 85:0.041575199 86:0.0020314103 92:0.034639667 
-7660.944130631921 1:0.078294654 85:0.053701299 86:0.0026239049 
-8192 91:0.29355644 113:0.25224711 
-8192 46:0.40446209 85:0.064441559 86:0.0031486859 
-72.90308090948615 85:0.037906799 86:0.0018521682 108:0.23486358 176:0.27969535 
-8192 85:0.058583235 86:0.0028624417 93:0.25953163 94:0.60915737 95:0.46655593 96:0.47042498 
-8192 85:0.071601732 86:0.0034985399 
-8192 85:0.1074026 86:0.0052478098 
-1223.486835699185 16:0.25628406 92:0.071588645 
-8192 92:0.17897161 
-8192 46:0.28890149 83:0.51697445 
-8192 84:0.88824071 
-8192 85:0.041575199 86:0.0020314103 92:0.034639667 
-8192 85:0.04957043 86:0.0036330991 92:0.041301142 
-1982.081916621608 85:0.040275974 86:0.0039358574 92:0.033557177 186:0.056390294 
-8192 85:0.071601732 86:0.0069970798 
-8192 85:0.041575199 86:0.0020314103 92:0.034639667 
-8192 85:0.042961039 86:0.0020991239 92:0.035794323 
-8192 85:0.080551949 86:0.0078717148 
-8192 83:0.90470528 92:0.26845742 
-8192 84:1.3323611 
-4338.2858311133 84:0.88824071 87:1.3264786 92:0.35794323 
-8192 91:0.50323961 
-8192 85:0.030686457 86:0.0014993742 87:0.18949694 88:0.18887446 
-8192 85:0.041575199 86:0.0020314103 92:0.034639667 
-8192 83:0.72376423 85:0.12888312 86:0.0062973718 
-8192 85:0.06783322 86:0.0033144062 92:0.056517352 
-8192 85:0.046029685 86:0.0022490614 87:0.28424541 88:0.28331169 
-936.0233535226656 48:0.71371198 85:0.1611039 86:0.0078717148 
-32.05269330954138 86:0.0047230289 92:0.053691484 93:0.1427424 104:0.22517533 108:0.19963405 176:0.23774105 
-8192 83:0.65796748 85:0.058583235 86:0.0028624417 
-7124.814511073241 39:0.28251567 88:0.3305303 89:0.1409525 
-8192 92:0.26845742 
-8192 85:0.041575199 86:0.0020314103 92:0.034639667 
-8192 91:0.35226773 
-8192 85:0.04715236 86:0.0030718887 92:0.052381936 
-8192 83:0.90470528 91:0.88066932 
-2838.553036153021 113:0.50449422 
-8192 84:0.24224747 85:0.058583235 86:0.0028624417 
-8192 85:0.071601732 86:0.0034985399 
-6060.793017755791 85:0.04957043 86:0.0024220661 92:0.041301142 93:0.10980184 109:0.14830084 186:0.034701719 
-8192 85:0.085922079 86:0.0062973718 88:0.26442424 89:0.112762 
-8192 84:1.3323611 
-3586.3703601286 1:0.011599208 11:0.11756928 22:0.082347937 28:0.16073619 45:0.1580414 85:0.023867244 86:0.00116618 88:0.14690236 89:0.062645557 101:0.14367971 105:0.082347937 
-8192 91:0.35226773 
-1004.401757807448 56:0.27799051 92:0.09762088 
-157.2812474367693 85:0.058583235 86:0.0028624417 155:0.47869514 
-8192 85:0.053701299 86:0.0026239049 
-8192 1:0.048181326 83:0.27837086 92:0.082602283 
-131.7634075043049 85:0.053701299 86:0.0026239049 156:0.35414383 
-8192 85:0.053701299 86:0.0026239049 
-6391.022673736463 84:2.6647221 
-8192 85:0.2148052 86:0.01049562 
-8192 85:0.041575199 86:0.0020314103 92:0.034639667 
-48.91998404539938 38:0.50141612 50:0.24283673 81:0.36798527 88:0.30510489 89:0.13011 92:0.082602283 98:0.24283673 
-8192 85:0.041575199 86:0.0020314103 92:0.034639667 
-1915.013455421951 88:0.26442424 122:0.28105496 
-799.2205528322082 50:0.14349443 88:0.18028925 98:0.14349443 
-8192 84:1.3323611 
-209.9508852378209 85:0.071601732 86:0.0034985399 139:0.45289584 141:0.45289584 
-8192 85:0.071601732 86:0.0069970798 
-8192 92:0.17897161 
-242.6080761308635 15:0.35076416 85:0.071601732 86:0.0034985399 125:0.44512266 
-8192 85:0.040275974 86:0.002951893 92:0.033557177 
-8192 92:0.35794323 
-8192 83:0.72376423 
-1523.534006502722 85:0.028018069 86:0.0013689939 93:0.12412382 94:0.29133614 95:0.22313544 96:0.22498586 114:0.12760394 115:0.19299861 116:0.18049069 
-8192 85:0.06783322 86:0.0033144062 92:0.056517352 
-8192 85:0.06783322 86:0.0033144062 92:0.056517352 
-8192 85:0.053701299 86:0.0026239049 
-8192 85:0.041575199 86:0.0030471154 92:0.034639667 186:0.058209335 
-5825.017573268844 88:0.15255245 
