svm_type c_svc
kernel_type linear
nr_class 2
total_sv 8
rho 1.00111
label 1 -1
nr_sv 2 6
SV
8.374632203887263 160:0.48883347 
23.33620638823222 85:0.04957043 86:0.0024220661 161:0.50141612 
-6.332933362656767 43:0.22743079 92:0.056517352 128:0.29484836 161:0.34307419 
-9.984670725635397 16:0.10116476 52:0.094283716 85:0.016958305 86:0.00082860155 128:0.14742418 161:0.17153709 
-11.14952788243061 86:0.0016572031 92:0.056517352 161:0.34307419 162:0.34307419 
-1.089685055904529 85:0.1611039 86:0.0078717148 
-1.952527929237862 85:0.2148052 86:0.01049562 
-1.201493636254318 85:0.3222078 86:0.01574343 
