svm_type c_svc
kernel_type linear
nr_class 2
total_sv 261
rho 1.03559
label 1 -1
nr_sv 101 160
SV
32 1:0.033554852 48:0.10195885 54:0.07852506 102:0.10320122 110:0.12671411 
32 1:0.034797624 112:0.16408793 
15.39078374532874 102:0.41280486 103:0.52368259 
32 24:0.21744584 158:0.21005862 
32 110:0.39422168 113:0.33632948 129:0.53153428 
32 112:0.42194039 
32 1:0.078294654 102:0.36120425 110:0.44349939 113:0.37837066 
32 11:0.13226544 110:0.29566626 
32 1:0.017895921 31:0.10732263 83:0.10339489 111:0.11118081 
32 112:0.1406468 158:0.22006141 
32 92:0.067114355 102:0.18060213 110:0.22174969 
32 89:0.28190501 110:0.59133251 113:0.50449422 
32 5:0.065765767 12:0.046037826 22:0.042757583 49:0.046037826 50:0.060709181 61:0.26957209 98:0.060709181 99:0.065765767 102:0.055569885 105:0.042757583 148:0.054096169 153:0.2027526 
32 5:0.041202649 12:0.028842975 46:0.097460745 49:0.028842975 50:0.038034668 89:0.04075735 98:0.038034668 99:0.041202649 114:0.10608038 122:0.050793066 127:0.11018071 
32 1:0.024090663 12:0.046037826 49:0.046037826 112:0.056799668 136:0.084579731 
32 1:0.023636122 12:0.045169188 49:0.045169188 92:0.020260937 112:0.055727976 136:0.082983887 
32 1:0.078294654 102:0.36120425 110:0.44349939 
32 102:0.18060213 106:0.11632998 
28.30506278906715 108:0.99817023 
32 1:0.044739802 22:0.15881388 102:0.20640243 105:0.15881388 164:0.28239001 
32 12:0.05204276 22:0.048334659 49:0.05204276 62:0.042860325 102:0.062818131 105:0.048334659 112:0.064208321 
32 62:0.093884521 
32 22:0.076668769 62:0.13597069 105:0.076668769 110:0.12234466 119:0.15306786 
32 45:0.074861715 62:0.069178068 110:0.12449106 
32 85:0.058583235 86:0.0028624417 112:0.26850752 
32 112:0.26850752 
32 12:0.053199266 46:0.044940232 49:0.053199266 85:0.014320346 86:0.00069970798 
32 1:0.08541235 54:0.19988197 92:0.09762088 103:0.33325256 111:0.35375713 
32 22:0.11702075 60:0.29145159 102:0.152086 105:0.11702075 153:0.18496729 
32 22:0.20212675 48:0.25953163 102:0.262694 105:0.20212675 107:0.43489168 176:0.43225645 
19.83648054898089 104:4.5035065 
32 22:1.1116971 104:2.2517533 105:1.1116971 
32 108:0.66544682 
24.17048566806722 22:0.18528286 92:0.089485807 102:0.24080284 105:0.18528286 108:0.33272341 158:0.38510746 
32 102:0.20640243 110:0.25342822 
32 112:0.13425376 158:0.21005862 
32 22:0.22233943 102:0.2889634 105:0.22233943 153:0.35143785 
32 153:0.43929731 
32 22:0.11116971 102:0.1444817 105:0.11116971 154:0.3003792 
32 102:0.11113977 107:0.18399263 119:0.17072954 
32 1:0.031317862 153:0.2342919 186:0.030074823 
32 22:0.15881388 102:0.20640243 105:0.15881388 
32 110:0.18673658 
32 1:0.020205072 12:0.077224741 22:0.071722397 49:0.077224741 105:0.071722397 112:0.095276863 
32 22:0.13896214 102:0.18060213 105:0.13896214 108:0.24954256 112:0.18459892 
32 22:0.11702075 101:0.20417643 105:0.11702075 130:0.13216191 158:0.24322577 186:0.047486563 
32 102:0.10320122 104:0.16083952 108:0.42778724 158:0.16504606 
32 86:0.0011245307 103:0.13092065 104:0.16083952 108:0.28519149 
32 102:0.11113977 110:0.13646135 
32 112:0.32817586 
32 22:0.20212675 102:0.262694 105:0.20212675 183:0.3165323 
32 1:0.062635723 
32 22:0.10758359 25:0.20099121 85:0.0103938 86:0.0015235577 89:0.054562259 102:0.046607 105:0.10758359 148:0.045370981 153:0.11336705 
32 12:0.11969835 49:0.11969835 92:0.053691484 103:0.18328891 111:0.38913284 
32 22:0.1270511 46:0.057780299 102:0.082560972 105:0.1270511 108:0.1140766 176:0.13585203 
32 10:0.081038443 45:0.094824839 56:0.067953235 89:0.037587334 103:0.081461736 111:0.086473965 
32 10:0.11956492 54:0.07208858 85:0.01056419 86:0.001032356 87:0.065236651 88:0.065022354 103:0.060094723 111:0.12758454 119:0.072769967 186:0.014790897 
32 111:0.22890167 
32 54:0.068709428 85:0.020137987 86:0.00098396434 111:0.12160401 
17.76176811976601 84:0.88824071 87:1.3264786 92:0.35794323 
32 112:0.26850752 
32 12:0.2393967 22:0.11116971 49:0.2393967 102:0.1444817 105:0.11116971 112:0.14767914 
21.15281734494667 103:0.33325256 111:0.35375713 
32 85:0.011933622 86:0.00116618 87:0.073693253 88:0.073451178 101:0.071839856 108:0.22181561 176:0.17610448 
32 46:0.087926542 85:0.028018069 86:0.0013689939 103:0.15938166 111:0.16918819 
32 22:0.059290515 39:0.045202508 54:0.029316022 56:0.081543883 85:0.0085922079 86:0.00041982479 89:0.067657202 103:0.048877042 105:0.059290515 111:0.10376876 
32 22:0.10587592 62:0.093884521 105:0.10587592 125:0.19076685 
32 48:0.10195885 54:0.07852506 85:0.023014843 86:0.0011245307 101:0.13854829 103:0.26184129 
32 1:0.044739802 85:0.030686457 86:0.0014993742 103:0.17456086 111:0.18530135 
32 111:0.43236982 
32 1:0.021353087 22:0.050531689 91:0.080060847 105:0.050531689 
32 1:0.052196436 22:0.074113143 105:0.074113143 
32 22:0.11116971 45:0.21335589 62:0.098578747 101:0.19396761 104:0.22517533 105:0.11116971 111:0.19456642 
32 54:0.13741886 103:0.22911113 111:0.24320803 
32 12:0.034695173 22:0.12889242 31:0.054439016 49:0.034695173 86:0.00045633129 92:0.015562749 101:0.056222496 105:0.12889242 108:0.057864941 110:0.051420219 113:0.043869062 176:0.1378209 
32 1:0.024090663 10:0.14025884 22:0.085515165 46:0.077781172 53:0.11323819 105:0.085515165 
32 1:0.062635723 54:0.14658011 92:0.071588645 103:0.24438521 111:0.25942189 
32 22:0.15881388 39:0.12107815 102:0.10320122 104:0.32167904 105:0.15881388 
16.76363093526243 110:0.59133251 
32 85:0.030686457 86:0.0014993742 103:0.17456086 111:0.18530135 
32 10:0.086826903 11:0.075580252 22:0.10587592 85:0.015343228 86:0.00074968712 88:0.094437229 89:0.080544288 101:0.092365529 103:0.087280431 105:0.10587592 112:0.070323399 183:0.082901316 186:0.042964033 
32 39:0.14125784 85:0.02685065 86:0.0013119525 119:0.184957 
32 22:0.076668769 105:0.076668769 111:0.13418374 183:0.12006398 
32 1:0.048181326 103:0.14099147 139:0.15677164 141:0.15677164 
32 103:0.45822227 
32 1:0.018155282 89:0.12256739 103:0.053127219 130:0.036392411 134:0.068105089 135:0.068502175 189:0.05459238 
32 89:0.093968335 112:0.16408793 113:0.16816474 
32 54:0.031865242 89:0.024513479 92:0.015562749 110:0.051420219 111:0.11279213 112:0.042805547 113:0.043869062 
32 22:0.11702075 29:0.049990915 102:0.0380215 104:0.11851333 105:0.11702075 
32 85:0.0207876 86:0.0020314103 111:0.25105345 
32 1:0.014454398 54:0.067652359 85:0.009914086 86:0.00048441322 111:0.11973318 112:0.090879469 
32 1:0.013616462 54:0.063730484 85:0.0093393564 86:0.00045633129 111:0.11279213 112:0.085611094 
32 85:0.0207876 86:0.0010157051 
32 1:0.044739802 111:0.55590406 
32 10:0.088944632 12:0.058389438 22:0.054229129 49:0.058389438 54:0.05362687 85:0.015717453 86:0.0015359443 105:0.054229129 111:0.094910449 119:0.10826751 
32 1:0.01391905 85:0.014320346 86:0.00069970798 111:0.086473965 112:0.065635172 
32 22:0.069481072 85:0.020137987 86:0.00098396434 105:0.069481072 112:0.18459892 
32 86:0.0024220661 101:0.29841171 
32 111:0.32427737 
32 48:0.20391771 101:0.27709659 103:0.26184129 166:0.28519149 
32 54:0.11572114 85:0.016958305 86:0.00082860155 103:0.096467845 111:0.10240338 
-23.12102563927853 11:0.35270784 103:0.40730868 
-32 22:0.37056572 105:0.37056572 
-0.3377772721807804 1:0.056941567 22:0.20212675 36:0.45584838 56:0.27799051 105:0.20212675 
-32 86:0.0030471154 102:0.093214001 110:0.22890291 111:0.12552672 
-3.226939747502202 1:0.03296617 50:0.16615144 56:0.16094187 98:0.16615144 
-1.877452009354383 122:0.84316489 
-32 1:0.022369901 31:0.13415329 39:0.12107815 86:0.0011245307 
-1.516859306137378 1:0.043197051 20:0.12090165 53:0.1015239 106:0.12836411 
-26.79671666899705 113:0.1441412 132:0.20756787 158:0.22006141 
-32 103:0.28198293 
-32 86:0.00062973718 87:0.079588714 89:0.033828601 
-0.1897642599059829 5:0.10058294 86:0.0027782523 92:0.031583226 99:0.10058294 148:0.24820595 152:0.1155336 157:0.30188913 158:0.27184056 167:0.14537862 
-32 86:0.0028624417 102:0.087564667 110:0.107515 112:0.089502507 113:0.091726221 
-32 22:0.1307879 86:0.0027782523 92:0.031583226 102:0.084989236 104:0.26491215 105:0.1307879 110:0.1043528 
-4.336126628551281 54:0.081433396 110:0.13140723 113:0.11210983 131:0.19683099 186:0.03341647 
-14.66496646809452 61:0.58407286 
-0.1668033367851204 32:1.4223726 45:1.4223726 
-4.825337488618638 1:0.0065245545 21:0.065889053 25:0.12980682 46:0.042131468 76:0.097901065 77:0.058098086 109:0.080329619 
-2.255871324192093 20:0.14024592 23:0.17755872 25:0.2492291 77:0.22309665 86:0.0012594744 
-32 22:0.13896214 46:0.063197202 74:0.12198281 86:0.002951893 105:0.13896214 158:0.1444153 
-0.0435945610898796 89:0.10571438 149:0.35907623 
-0.06480809723288979 47:0.42230527 89:0.12081643 
-0.1048166684652517 44:1.2461455 45:0.85342355 46:0.40446209 
-12.91516976448929 1:0.014235392 89:0.076883184 
-32 1:0.010799263 17:0.055775779 107:0.082479457 189:0.064946108 
-7.583514432693326 136:0.4398146 
-32 11:0.066132721 12:0.049874312 49:0.049874312 102:0.18060213 110:0.22174969 113:0.063061777 
-10.14246502667451 1:0.044739802 24:0.68340121 
-16.08437534678305 1:0.024090663 111:0.099777652 113:0.077614495 140:0.10203681 
-32 22:0.10587592 102:0.27520324 105:0.10587592 110:0.16895215 112:0.1406468 158:0.22006141 
-32 85:0.04957043 86:0.0072661982 102:0.22227954 110:0.2729227 113:0.23284348 
-32 85:0.080551949 86:0.0078717148 102:0.36120425 110:0.44349939 113:0.37837066 
-32 85:0.020137987 86:0.0039358574 102:0.090301063 110:0.11087485 113:0.094592665 
-32 86:0.0039358574 92:0.044742903 104:0.37529221 108:0.49908511 
-32 12:0.099748623 22:0.092641429 49:0.099748623 92:0.044742903 102:0.36120425 105:0.092641429 110:0.29566626 
-32 12:0.056999213 49:0.056999213 86:0.0022490614 92:0.025567373 102:0.27520324 108:0.095063831 110:0.16895215 112:0.070323399 176:0.11321002 
-19.25514225623348 22:0.37056572 105:0.37056572 108:0.66544682 183:0.58030921 
-32 158:0.17115887 
-32 85:0.071601732 86:0.0069970798 108:0.44363121 
-28.32259279098048 112:0.73839569 153:0.87859462 
-27.24962494812601 112:0.73839569 153:0.87859462 
-21.23705105928476 107:0.47838085 148:0.28130008 
-32 1:0.018422272 22:0.043595967 105:0.043595967 108:0.15657572 148:0.055156878 
-1.053011868525878 42:0.13164116 46:0.050557762 86:0.00078717148 108:0.19963405 185:0.14177779 
-5.598777978522055 39:0.33901881 119:0.4438968 
-4.769548915162601 1:0.0039642863 18:0.044696779 45:0.054014149 56:0.077415078 76:0.059484191 86:0.0011957035 87:0.050372604 92:0.013592781 
-26.11983924260918 101:1.1083863 
-1.873292141089783 1:0.004290118 18:0.048370487 45:0.058453668 56:0.083777961 76:0.064373303 86:0.0012939805 87:0.054512818 92:0.014709996 93:0.039107506 
-0.4152051267734084 54:0.12933539 89:0.099495885 119:0.26111577 152:0.2310672 
-32 40:0.13943449 111:0.25942189 
-21.87250234791063 85:0.019527745 86:0.0047707362 89:0.051255456 102:0.087564667 110:0.107515 112:0.089502507 170:0.13388936 
-4.547384242852306 1:0.039147327 19:0.53560217 25:0.77884094 
-0.05740449865162125 86:0.0022096041 89:0.029674211 92:0.018839117 102:0.152086 110:0.12449106 112:0.20726896 186:0.063315418 
-9.09125295459144 166:0.99817023 
-0.01581582019565306 164:0.98836505 165:1.2936687 166:0.99817023 
-6.824817973280046 164:1.3178201 
-32 86:0.0031486859 89:0.056381001 92:0.035794323 102:0.096321134 110:0.23653301 113:0.10089884 186:0.060149647 
-12.35853915831023 12:0.10881668 22:0.10106338 49:0.10881668 92:0.04881044 102:0.131347 105:0.10106338 108:0.1814855 110:0.1612725 176:0.21612823 
-0.6980143218766297 5:0.16284857 89:0.080544288 99:0.16284857 112:0.070323399 136:0.10471776 137:0.11688028 
-32 1:0.031317862 54:0.21987017 
-32 39:0.049855707 42:0.077435979 86:0.0018521682 92:0.015791613 102:0.084989236 104:0.13245607 108:0.23486358 
-0.305688665482961 1:0.0039642863 18:0.044696779 45:0.054014149 56:0.077415078 76:0.059484191 86:0.0011957035 87:0.050372604 92:0.013592781 
-32 86:0.001548534 92:0.017603765 103:0.12018945 119:0.072769967 
-22.29181549452972 46:0.059479719 106:0.054743518 114:0.086320312 119:0.13055788 
-4.346969433814497 1:0.022369901 41:0.18043116 85:0.023014843 86:0.0011245307 111:0.13897601 151:0.2025397 
-32 86:0.00092608409 87:0.11704223 92:0.031583226 
-32 86:0.00092608409 87:0.11704223 92:0.031583226 
-32 62:0.082148956 86:0.0039358574 92:0.022371452 102:0.060200709 104:0.093823053 108:0.24954256 
-28.511211557267 22:0.22233943 105:0.22233943 
-31.1473851501282 1:0.092111358 
-10.18609008148102 1:0.092111358 
-32 1:0.022369901 46:0.072225374 53:0.10514975 54:0.07852506 103:0.26184129 
-32 22:0.088935772 86:0.0025189487 92:0.042953187 102:0.11558536 104:0.36028052 105:0.088935772 110:0.1419198 112:0.11814331 
-32 89:0.42285751 
-1.079540756676705 114:0.19565937 129:0.31892057 191:0.35104311 
-32 86:0.0030471154 92:0.034639667 102:0.093214001 104:0.1452744 110:0.11445145 112:0.095276863 
-32 12:0.2393967 49:0.2393967 92:0.10738297 111:0.77826568 
-5.97047446963498 85:0.1611039 86:0.0078717148 87:0.99485892 88:0.9915909 
-32 92:0.033557177 102:0.27090319 104:0.14073458 108:0.24954256 176:0.14858816 
-0.921085430959548 135:2.363325 
-1.020697873178539 139:4.0760625 141:4.0760625 
-10.28515023299999 1:0.044739802 52:0.12795647 103:0.13092065 133:0.15116541 
-7.681296328945546 15:0.2104585 129:0.31892057 
-18.48459429599604 85:0.028018069 86:0.0013689939 129:0.20799167 186:0.03922803 
-32 48:0.71371198 103:0.91644453 
-0.02646532321249385 56:0.25482463 86:0.0026239049 159:0.31752995 
-32 22:0.20212675 102:0.262694 105:0.20212675 
-32 85:0.037906799 86:0.0018521682 108:0.23486358 176:0.27969535 
-12.79581151870261 54:0.27483771 154:0.75094799 
-18.3939089237167 22:0.040425351 86:0.0045799068 92:0.019524176 101:0.070533677 102:0.0525388 105:0.040425351 110:0.064509002 129:0.17395667 134:0.17088186 
-1.959048932603425 45:0.53338972 84:0.33309027 85:0.080551949 86:0.0039358574 
-0.07367884598644606 5:0.15544636 50:0.28698886 85:0.029291618 86:0.0014312209 89:0.23064955 98:0.28698886 99:0.15544636 123:0.19316936 124:0.18462154 
-32 92:0.089485807 111:0.64855474 
-32 22:0.047306262 46:0.043027882 86:0.0020097995 89:0.035987873 92:0.02284744 105:0.047306262 158:0.09832531 186:0.057590087 
-32 1:0.014566447 16:0.089401416 107:0.11125136 
-32 12:0.049874312 22:0.046320714 45:0.088898287 49:0.049874312 86:0.0032798811 89:0.035238126 92:0.022371452 103:0.076370378 105:0.046320714 111:0.24320803 186:0.056390294 
-12.70583654189566 112:0.98452758 
-0.2837521000592681 1:0.062635723 5:0.68396398 99:0.68396398 
-6.250316095910733 62:0.28165356 125:0.57230056 
-10.1569532415586 12:0.13299816 49:0.13299816 50:0.17538208 53:0.16356628 98:0.17538208 111:0.21618491 
-2.664675468112117 50:0.092849336 71:0.14748036 86:0.0018521682 92:0.031583226 98:0.092849336 111:0.22890167 114:0.086320312 
-32 39:0.075337513 86:0.00069970798 92:0.023862882 111:0.34589586 114:0.065219791 
-32 22:0.24704381 86:0.0034985399 102:0.32107045 105:0.24704381 
-32 10:0.081038443 12:0.053199266 22:0.049408762 49:0.053199266 86:0.0034985399 92:0.023862882 105:0.049408762 108:0.088726242 110:0.078844335 111:0.25942189 113:0.067265895 176:0.10566269 
-14.28570286225541 45:0.082059957 86:0.0030275826 92:0.020650571 101:0.074602927 103:0.2114872 186:0.086754298 
-32 1:0.034797624 108:0.22181561 
-32 1:0.082415425 54:0.11572114 
-17.94085423728012 56:0.19111847 
-32 62:0.39431499 
-32 1:0.10439287 
-32 111:0.17687856 
-32 22:0.22233943 86:0.0031486859 102:0.2889634 105:0.22233943 
-18.19736207066455 83:0.30156843 85:0.053701299 86:0.0026239049 110:0.29566626 113:0.25224711 
-12.20685109825592 46:0.091923203 86:0.0014312209 87:0.18088344 88:0.18028925 
-3.471635353051872 85:0.1611039 86:0.0078717148 87:0.99485892 88:0.9915909 
-32 5:0.092427565 48:0.077158052 86:0.0059569733 99:0.092427565 102:0.078098217 110:0.095891759 
-32 104:4.5035065 
-32 54:0.31410024 
-0.1540779172893673 31:0.62604869 50:0.52614624 97:0.58711288 98:0.52614624 
-15.75283062090868 1:0.013616462 28:0.18869031 92:0.046688247 112:0.12841664 158:0.20092563 
-32 12:0.099748623 22:0.092641429 49:0.099748623 92:0.044742903 101:0.16163968 102:0.12040142 105:0.092641429 111:0.32427737 
-32 103:0.23650181 
-32 12:0.041275292 22:0.11500315 49:0.041275292 86:0.004343015 92:0.018514305 102:0.049821276 105:0.11500315 108:0.068839326 111:0.20127561 176:0.081979672 183:0.060031988 
-32 85:0.024785215 86:0.0024220661 89:0.065055001 101:0.14920585 110:0.13646135 119:0.17072954 
-6.688030498974467 85:0.020137987 86:0.0019679287 87:0.12435737 88:0.12394886 101:0.12122976 103:0.11455557 139:0.12737695 141:0.12737695 188:0.22536115 
-32 86:0.0019679287 92:0.067114355 111:0.72962408 
-3.193010247954603 1:0.027232923 3:0.21801444 6:0.27670691 20:0.15244122 54:0.095595725 101:0.16866749 107:0.20799167 
-32 12:0.043526672 22:0.080850702 49:0.043526672 86:0.0040074184 92:0.019524176 102:0.0525388 105:0.080850702 108:0.072594198 111:0.21225428 176:0.08645129 183:0.06330646 
-1.010251896603956 1:0.093953585 91:0.35226773 
-26.11320372690953 10:0.40519221 86:0.0034985399 111:0.43236982 
-32 85:0.024785215 86:0.001211033 110:0.13646135 113:0.11642174 129:0.18399263 130:0.19315972 
-32 22:0.17103033 86:0.0048441322 102:0.22227954 105:0.17103033 
-32 45:0.11853105 46:0.056175291 86:0.0034985399 92:0.029828602 103:0.20365434 183:0.096718202 
-0.01952653746909508 12:0.061383768 22:0.05701011 49:0.061383768 54:0.056376966 92:0.027534094 101:0.09947057 102:0.07409318 104:0.11547453 105:0.05701011 111:0.1995553 176:0.24383697 
-32 22:0.44467886 105:0.44467886 
-32 1:0.031317862 54:0.21987017 103:0.36657781 
-13.78863761269177 1:0.08541235 91:0.16012169 125:0.18209563 
-32 22:0.27792429 105:0.27792429 
-32 22:0.74113143 105:0.74113143 112:0.98452758 
-6.2436254398101 54:0.29316022 
-32 22:0.24704381 105:0.24704381 
-13.39939794654781 60:0.69219754 
-32 1:0.10439287 
-5.670700054148621 84:2.6647221 
-0.5684308869432996 2:0.21298386 3:0.19285893 129:0.18399263 
-32 10:0.19193315 103:0.19293569 
-6.746812955601347 46:0.22470116 127:0.50805549 
-0.2860882869358529 22:0.31762776 86:0.0089962454 105:0.31762776 112:0.42194039 
-32 1:0.10439287 
-32 86:0.0047230289 92:0.053691484 158:0.23106448 
-3.406859448406464 29:0.47491369 136:0.54976825 
-32 1:0.031317862 89:0.072489859 
-9.734681310759282 12:0.05567365 22:0.051706844 49:0.05567365 86:0.0036612627 92:0.024972783 102:0.067200791 105:0.051706844 110:0.082511514 111:0.18099202 113:0.14078908 183:0.080973379 
-32 1:0.034797624 110:0.19711084 111:0.21618491 
-7.880303964752085 119:1.109742 
-32 85:0.024785215 86:0.001211033 111:0.14966648 
-2.438951029677395 31:0.25041948 50:0.2104585 98:0.2104585 
-32 103:0.30548151 
-31.88216251217544 45:0.076198531 86:0.001686796 92:0.01917553 103:0.13092065 186:0.032223025 
-1.144392180496899 1:0.047451305 5:0.10363091 48:0.086510543 54:0.066627324 99:0.10363091 103:0.11108419 
