svm_type c_svc
kernel_type rbf
gamma 8
nr_class 2
total_sv 637
rho 0.955133
label 1 -1
nr_sv 42 595
SV
2 22:0.37056572 105:0.37056572 
2 85:0.040275974 86:0.0019679287 151:0.35444448 
2 22:0.088935772 105:0.088935772 
2 61:0.58407286 
2 61:0.27485782 
2 54:0.21987017 
2 108:0.3071293 183:0.26783502 
2 12:0.079798899 13:0.14165753 16:0.12814203 21:0.10542248 49:0.079798899 
2 136:0.4398146 
2 1:0.025054289 16:0.15377044 84:0.10658888 
1.609344947059619 108:0.33272341 183:0.29015461 
1.572500119667706 1:0.062635723 151:0.56711117 
0.7440778614293462 22:0.24704381 105:0.24704381 108:0.44363121 183:0.38687281 
1.613596534019466 22:0.37056572 105:0.37056572 108:0.66544682 183:0.58030921 
2 178:0.36651338 186:0.053073218 
2 186:0.11278059 
2 53:0.10904419 76:0.17404634 85:0.023867244 86:0.00116618 139:0.15096528 141:0.15096528 
2 54:0.099940986 92:0.04881044 154:0.273072 
2 1:0.0061407572 8:0.096254346 29:0.074496265 37:0.24957878 85:0.0126356 86:0.00061738939 149:0.11265137 
2 12:0.2393967 49:0.2393967 
2 62:0.32859582 186:0.15037412 
2 8:0.81816194 
2 1:0.034797624 
2 1:0.031317862 54:0.21987017 
2 1:0.072271988 80:0.35548381 91:0.27097518 
1.954634548835584 22:0.74113143 105:0.74113143 183:1.1606184 
2 46:0.087926542 62:0.08572065 85:0.028018069 86:0.0013689939 
2 8:0.22313507 39:0.15409946 
2 12:0.11399843 49:0.11399843 59:0.28607543 62:0.093884521 183:0.33160527 
1.812877663929963 8:0.25836693 37:0.33496099 
2 5:0.10686937 99:0.10686937 108:0.12477128 148:0.087906275 183:0.10880798 
2 85:0.037906799 86:0.0018521682 108:0.23486358 176:0.27969535 
2 54:0.27483771 154:0.75094799 
2 1:0.036844543 91:0.20721631 186:0.053073218 
2 46:0.1263944 62:0.12322343 154:0.375474 
2 46:0.15556234 86:0.0024220661 112:0.22719867 
2 1:0.01391905 56:0.067953235 83:0.080418248 85:0.014320346 86:0.001399416 
2 1:0.022369901 113:0.21621181 
2 85:0.024785215 86:0.001211033 
2 48:0.083966115 54:0.12933539 59:0.17669364 90:0.16108693 91:0.10360816 
2 22:0.15881388 105:0.15881388 
2 12:0.040575711 46:0.034276449 49:0.040575711 52:0.060725105 53:0.049901576 85:0.010922298 86:0.0010673512 108:0.067672558 148:0.04767798 183:0.059014496 
-0.02756654855411468 1:0.018422272 6:0.37436817 10:0.21451353 53:0.17318782 54:0.12933539 103:0.21563401 
-0.04484118523176789 12:0.79798899 49:0.79798899 50:1.0522925 51:1.7885767 98:1.0522925 
-0.00776391655051578 83:0.40209124 85:0.071601732 86:0.0034985399 87:0.44215952 88:0.44070707 
-0.04483333804377686 114:1.4674453 117:1.9456642 
-0.01907642340835601 12:0.12599826 27:0.32793303 48:0.075127576 49:0.12599826 50:0.16615144 81:0.1258897 97:0.092702034 98:0.16615144 121:0.13856965 122:0.11094275 
-0.04498146905023481 114:0.73372265 115:1.109742 117:0.9728321 
-0.022348237877314 92:0.17897161 114:0.48914844 116:0.69188099 
-0.8606744317781928 54:0.15705012 85:0.046029685 86:0.0067471841 186:0.1288921 
-0.02937154982357597 52:0.3980868 114:0.32609896 117:0.43236982 
-0.03207384740886203 46:0.22470116 85:0.071601732 86:0.0034985399 114:0.32609896 181:0.52518334 
-0.04352366067350532 117:1.2971095 
-0.04231376866403269 118:0.73703924 
-0.02526701267745943 1:0.028470783 9:0.43489168 39:0.30819892 
-0.02554706908809688 85:0.080551949 86:0.0039358574 117:0.48641605 
-0.04485703673772921 118:1.8425981 
-0.04450294083797854 114:0.73372265 118:0.92129905 
-0.04454648828656038 116:2.075643 
-0.01128479387116123 114:0.48914844 115:0.739828 116:0.69188099 
-0.03613433355990542 115:0.554871 117:0.48641605 
-0.2834546233944231 1:0.011184951 15:0.11274562 48:0.10195885 54:0.07852506 59:0.21455657 83:0.12924361 
-0.002174024318458885 114:0.41927009 116:0.59304085 
-0.02151989426352404 43:0.4321185 48:0.28548479 74:0.39034498 
-0.03503667819762186 114:0.58697812 115:0.8877936 116:0.83025719 
-0.02356522245409366 116:0.51891074 
-0.03878547531482628 5:0.42747749 99:0.42747749 114:0.36686133 117:0.48641605 
-0.02146282886651677 115:0.34145908 118:0.28347663 191:0.40504974 
-0.02109467991556009 114:0.58697812 
-0.008366080689586511 114:0.58697812 116:0.83025719 
-0.04055374677120945 114:0.48914844 115:0.739828 
-0.02489524546349726 114:0.73372265 116:1.0378215 
-0.02256031003798743 48:0.28548479 54:0.21987017 56:0.30578956 
-0.03894827577237734 114:0.97829687 116:1.383762 
-0.003215505195389178 116:0.69188099 
-0.01303174316437018 114:0.16304948 117:0.21618491 172:0.28284962 186:0.050124706 
-0.01472388481661208 1:0.039147327 16:0.48053261 117:0.48641605 
-0.005059367731384412 11:0.35270784 103:0.40730868 
-0.03649624343359953 130:0.83702546 132:1.4529751 
-0.03861604628780511 116:1.0378215 
-0.04479575513933155 79:0.97087706 80:0.77021493 
-0.007683489302457203 20:0.3506148 53:0.2944193 113:0.30269653 
-1.471142726558321 12:0.26599633 49:0.26599633 
-0.01312239744309293 50:0.17538208 97:0.19570429 98:0.17538208 100:0.35356994 167:0.27460407 
-0.06746050707164676 1:0.034797624 12:0.13299816 14:0.32362569 49:0.13299816 53:0.16356628 90:0.30427532 91:0.19570429 
-0.03368986088446841 1:0.052196436 35:0.87760776 
-0.0393918511234074 74:0.55763568 79:0.41609017 127:0.3266071 
-1.159043633057921 61:0.33375592 86:0.0022490614 
-0.03008571034533955 20:0.3506148 22:0.22233943 39:0.33901881 53:0.2944193 105:0.22233943 
-2 61:0.42478026 86:0.0028624417 
-0.04446685361257047 1:0.062635723 2:1.1075161 3:1.0028664 
-0.02042400377948692 1:0.034797624 152:0.43646027 157:0.57023502 
-0.02432395892289753 1:0.056941567 22:0.20212675 36:0.45584838 56:0.27799051 105:0.20212675 
-0.02474586097372073 85:0.080551949 86:0.011807572 95:0.6415144 96:0.64683435 
-0.435808191634663 53:0.19627953 76:0.31328341 92:0.071588645 
-0.03905580656866597 2:0.46146502 12:0.19949725 35:0.43880388 49:0.19949725 86:0.0026239049 
-0.4268969272025655 13:0.16998904 85:0.025776624 
-0.03676394720912382 129:0.47838085 134:0.46992511 186:0.09022447 
-0.06197597649517803 8:0.31670785 27:0.20099121 91:0.11363475 112:0.095276863 149:0.18532967 
-0.03798190684502456 15:0.28698886 86:0.0028624417 134:0.85440929 135:0.42969546 
-0.008632719733801432 102:0.41280486 103:0.52368259 
-0.01713689277020859 16:0.14785619 74:0.15013268 85:0.04957043 86:0.0024220661 95:0.19738905 96:0.19902595 123:0.163451 124:0.15621822 
-0.04157337103214696 85:0.071601732 86:0.0034985399 88:0.44070707 89:0.18793667 95:0.57023502 96:0.57496387 109:0.42842464 
-0.04368777524139311 122:0.84316489 
-0.008839271443737889 46:0.25278881 132:0.54486566 
-0.03263933981873466 10:0.45584124 132:0.54486566 
-0.03491901668917742 12:0.14082159 38:0.38343586 39:0.19942283 40:0.24606086 41:0.29718073 49:0.14082159 56:0.17987621 
-0.02888455546060947 11:0.11756928 21:0.11713609 22:0.082347937 105:0.082347937 
-0.03525768612938541 1:0.078294654 53:0.73604825 186:0.22556117 
-0.05767403640947918 13:0.2124863 
-0.08037296444838435 20:0.08990123 21:0.4054711 92:0.027534094 
-0.01908519216870102 17:0.10435468 21:0.10202176 22:0.071722397 85:0.041575199 86:0.0020314103 105:0.071722397 
-0.0212304421408453 52:0.1990434 54:0.12215009 113:0.33632948 132:0.48432503 166:0.22181561 
-0.009357720545102269 52:0.27559855 86:0.0024220661 113:0.23284348 118:0.28347663 132:0.33530195 
-0.04438193674610857 10:0.60778832 11:0.52906176 119:0.739828 
-0.5598524721168181 1:0.029826535 12:0.11399843 13:0.20236791 49:0.11399843 
-0.0171621871911758 1:0.055266815 2:0.32574002 
-0.01537556689553837 148:0.46883347 159:0.63505989 
-0.02336899395254229 42:0.52656466 43:0.21605925 62:0.098578747 86:0.0031486859 92:0.053691484 
-0.1927182783249237 46:0.044940232 62:0.087625553 85:0.014320346 86:0.001399416 130:0.11160339 132:0.096865007 186:0.040099764 
-0.02525615295264565 16:0.076885218 43:0.0864237 85:0.012888312 86:0.00062973718 191:0.10531293 
-0.02275317566710449 1:0.052196436 148:0.46883347 159:0.63505989 
-0.04507744851900816 11:1.5871853 
-0.04307927236912695 42:1.0531293 
-0.02886846705441812 164:0.56478003 165:0.73923926 
-0.03635151740649752 164:0.79069204 
-0.04374753542733954 164:0.98836505 165:1.2936687 
-0.03631047306318604 164:0.65891003 165:0.8624458 166:0.66544682 
-0.02344447360618242 85:0.058583235 86:0.0028624417 169:0.47446605 
-0.04054688679574353 46:0.50557762 164:0.49418252 166:0.49908511 
-0.001343006023476928 92:0.13422871 164:0.49418252 165:0.64683435 166:0.49908511 
-0.007545419196104748 148:0.21638468 149:0.44193997 164:0.30411232 
-0.03118891895487807 1:0.012527145 11:0.12697482 44:0.4984582 45:0.34136942 46:0.16178484 
-0.02631698045690604 5:0.14868782 29:0.16518737 92:0.046688247 99:0.14868782 148:0.12230438 149:0.24979216 164:0.17188957 167:0.21490753 
-1.245640361325488 154:0.85822628 
-0.03387597940938793 92:0.07670212 143:0.5935835 
-0.03968393626821825 18:0.58850759 91:0.58711288 
-0.04469768309541904 110:1.182665 113:1.0089884 
-0.03528652721217992 110:0.39422168 113:0.33632948 129:0.53153428 
-0.02522165235844226 21:0.21084497 86:0.0062973718 92:0.071588645 159:0.25402396 
-0.01446540477963873 12:0.19949725 13:0.35414383 49:0.19949725 52:0.2985651 92:0.089485807 
-0.01464276557998328 20:0.31874073 159:0.3463963 189:0.34244311 
-0.01054535762272198 1:0.019573664 2:0.17304938 4:0.17722224 5:0.10686937 12:0.14962293 49:0.14962293 85:0.020137987 86:0.00098396434 99:0.10686937 
-0.08338143999924652 1:0.022369901 46:0.14445075 53:0.2102995 85:0.046029685 86:0.0022490614 
-0.0447380182418831 32:1.4223726 45:1.4223726 
-0.02373190332252557 85:0.058583235 86:0.0028624417 170:0.40166807 
-0.06417159661481263 1:0.013049109 52:0.14928255 53:0.12267471 54:0.09161257 76:0.19580213 85:0.02685065 86:0.0013119525 166:0.1663617 
-0.07369658724922455 1:0.032397788 53:0.20304779 54:0.1516346 76:0.16204314 85:0.022221227 86:0.0010857538 166:0.13767865 
-0.03629566500583283 160:0.48883347 
-0.04062568742347108 131:0.93784178 
-0.04469011328620454 159:3.8103594 
-0.02918410771436495 17:0.13479147 18:0.58850759 19:0.17853406 92:0.044742903 
-0.1500015119755987 24:0.32991783 136:0.15166021 
-0.04225297100797928 1:0.0065245545 21:0.065889053 25:0.12980682 46:0.042131468 76:0.097901065 77:0.058098086 109:0.080329619 
-0.04585565955546445 1:0.019573664 62:0.24644687 131:0.3321523 
-0.005879586456921264 46:0.10643739 86:0.0033144062 162:0.34307419 
-0.03409675663227254 25:0.69230305 92:0.11931441 
-0.3464448384329313 21:0.19766716 22:0.13896214 85:0.040275974 86:0.0019679287 105:0.13896214 
-0.04499619458419413 183:3.4818553 
-0.04373066321746379 12:0.29924587 13:0.53121575 47:0.73903422 49:0.29924587 
-0.04499714062137711 113:1.5134826 159:1.9051797 
-0.01267753378851038 17:0.46214217 19:0.61211676 
-0.001804643359250992 148:0.40185726 152:0.5611632 
-0.236120105673686 46:0.080892418 149:0.22980879 
-0.02185729771915021 1:0.093953585 32:0.42671178 91:0.35226773 
-0.04462307197671112 44:1.2461455 45:0.85342355 46:0.40446209 
-0.022652872486976 1:0.089479605 17:0.46214217 19:0.61211676 
-0.07375801769542549 112:0.42194039 
-0.001178925961095081 113:0.27517866 130:0.11413983 132:0.19813297 180:0.28928449 186:0.041011123 
-0.04453426758264578 17:3.2349952 
-0.1979972117156833 11:0.052906176 32:0.071118629 36:0.16714441 44:0.10384546 46:0.033705174 84:0.044412035 154:0.1001264 189:0.12556247 
-0.04495046924286228 47:5.9122737 
-0.01731739337169757 1:0.078294654 102:0.36120425 110:0.44349939 113:0.37837066 
-0.05759080497387533 20:0.12090165 21:0.32717323 92:0.03702861 
-0.202956507785905 11:0.10946105 76:0.16204314 
-0.04495012949864741 161:6.5184096 
-0.01252952069473972 48:0.35685599 74:0.48793122 
-0.02135616403229697 85:0.04957043 86:0.0024220661 161:0.50141612 
-0.001041908827704866 1:0.31317862 17:1.6174976 
-0.0232156057428745 62:0.093884521 134:0.67132159 135:0.22507858 
-0.01546155872157843 1:0.062635723 19:0.42848173 
-0.04463925573918393 139:1.3586875 141:1.3586875 
-0.01793902388654198 81:0.47838085 88:0.39663636 
-0.01080959927523208 88:0.26442424 127:0.30483329 149:0.38301464 
-0.01822781562955125 23:0.40354255 159:0.3463963 
-0.01601894486975088 92:0.082602283 162:0.50141612 
-0.03984042261619503 148:0.56260016 153:0.7028757 
-1.213065738856562 86:0.0028624417 113:0.27517866 
-1.741391790907886 46:0.11895944 86:0.0037043364 112:0.17374016 
-0.09006849838048661 16:0.12814203 76:0.1566417 148:0.093766693 156:0.14165753 
-1.259734560987695 85:0.03222078 86:0.0031486859 183:0.17409276 
-0.03525535096401142 158:0.66018422 
-0.002887078052471498 52:0.5971302 
-0.03958258160801697 47:0.73903422 148:0.3516251 
-0.0313458118029921 33:0.17115887 75:0.30778404 86:0.0023323599 92:0.03977147 102:0.10702348 109:0.14280821 110:0.13140723 136:0.1628943 
-0.03617891305342575 89:0.28190501 110:0.59133251 113:0.50449422 
-0.001267933429615185 153:0.50205407 
-1.717425525924652 12:0.059849174 49:0.059849174 54:0.054967542 59:0.1501896 62:0.049289374 85:0.01611039 86:0.001574343 108:0.099817023 112:0.073839569 136:0.10995365 183:0.087046382 
-0.0182391496046566 1:0.039147327 85:0.040275974 86:0.0019679287 185:0.35444448 
-0.1515000878462769 148:0.31255564 153:0.3904865 154:0.66750933 
-0.03636862198305282 42:0.14231477 85:0.017416638 86:0.0017019924 108:0.21582059 185:0.15327329 
-0.0444408782727152 48:1.427424 52:1.7913906 
-0.003659418002810224 1:0.062635723 20:0.3506148 23:0.4438968 
-0.0194765916408445 32:0.71118629 
-0.01130558388261108 11:0.45348151 15:0.45098249 86:0.0089962454 
-0.003629088717108 86:0.0039358574 92:0.044742903 104:0.37529221 108:0.49908511 
-0.001132788239818494 15:0.39460968 125:0.50076299 
-0.2332580618874312 22:0.22233943 86:0.0062973718 105:0.22233943 183:0.34818553 
-0.6437085538940875 46:0.050557762 54:0.054967542 59:0.1501896 62:0.049289374 86:0.0023615144 
-0.02890218493258913 1:0.039147327 23:0.554871 
-0.0224786251611325 20:0.389572 41:0.56134139 
-1.154694476592459 16:0.27459006 86:0.0022490614 
-0.03700343994129209 86:0.0039358574 95:0.6415144 
-0.01813210341034863 76:0.42720465 77:0.25351892 148:0.25572735 
-0.04306611488649258 22:0.37056572 101:0.6465587 105:0.37056572 148:0.46883347 
-0.03021576471529419 108:0.99817023 
-0.50300297934436 85:0.071601732 86:0.0069970798 108:0.44363121 
-0.04144800895754836 108:0.79853618 148:0.56260016 
-0.04472881245742105 148:1.4065004 153:1.7571892 
-0.04437084017971806 112:0.73839569 153:0.87859462 
-0.001107132497255256 153:1.1714595 
-0.01711050992889981 130:0.25110764 131:0.53144367 
-0.04443817118782728 48:2.8548479 
-0.0445972493085824 48:0.71371198 52:0.8956953 74:0.97586244 
-0.03799704467219269 29:0.31660913 149:0.47876831 175:0.49268948 
-0.6463637647881451 62:0.093884521 
-0.03796437866220712 43:0.48013166 177:0.76931941 
-0.01101903738234118 50:0.31568774 83:0.36188211 98:0.31568774 
-1.044617713139168 1:0.018422272 22:0.043595967 105:0.043595967 108:0.15657572 148:0.055156878 
-0.04389628123912959 29:0.5427585 79:0.83218034 85:0.09205937 86:0.0044981227 
-0.04270497778229579 85:0.1074026 86:0.0052478098 88:0.6610606 89:0.28190501 95:0.85535253 96:0.8624458 
-0.0008525465602359461 19:0.85696347 
-0.03648335808827825 19:0.85696347 
-0.04393869389173433 1:0.039147327 29:0.47491369 119:0.554871 120:0.76411806 
-0.02804548567189091 17:0.64699904 
-0.004312225586248103 17:0.32349952 20:0.3506148 22:0.22233943 105:0.22233943 
-2 12:0.070410793 49:0.070410793 54:0.12933539 86:0.0055565045 92:0.031583226 154:0.17669364 
-0.04778938057206383 178:0.77884094 180:0.79553236 
-0.03934189425350457 46:0.50557762 182:0.83759139 
-0.04404183101190112 136:0.8796292 137:0.98179433 
-0.03881069732203123 39:0.42377351 155:0.65820582 
-0.04464328289475803 148:1.4065004 
-0.2326984170112912 86:0.0023039165 92:0.026190968 115:0.10826751 167:0.24111577 168:0.26716857 178:0.15196896 
-0.02103714820968351 1:0.058720991 5:0.21373874 8:0.30681073 99:0.21373874 
-0.01845239422790293 39:0.33901881 119:0.4438968 
-0.04609194406112296 16:0.25628406 29:0.2532873 
-0.03937417528254465 5:0.56996998 12:0.39899449 49:0.39899449 99:0.56996998 
-0.2056605972509066 90:0.22820649 91:0.14677822 113:0.12612355 119:0.184957 
-0.02229342297367943 1:0.028470783 29:0.34539177 190:0.45584838 
-0.03407101222939376 1:0.034797624 7:0.80128408 53:0.32713256 
-0.03196202930264699 7:0.60096306 29:0.31660913 54:0.18322514 92:0.089485807 
-0.03036661670814808 177:0.86548433 
-0.009823438628216413 11:0.57715829 
-0.4380913960895915 62:0.1037671 86:0.0033144062 92:0.028258676 104:0.11851333 186:0.071229845 
-0.03177837174543994 1:0.069595248 17:0.35944391 19:0.47609081 25:0.69230305 
-0.0450795500170213 101:1.1083863 
-0.1207268460271178 39:0.42377351 85:0.080551949 86:0.0039358574 
-1.415076958767165 37:0.55341382 85:0.028018069 86:0.0013689939 
-0.01846865162284551 190:0.55714802 
-0.1111852836676303 1:0.019573664 5:0.21373874 99:0.21373874 
-0.00631179593043195 83:0.90470528 
-0.04286320001815332 62:0.39431499 102:0.5779268 110:0.70959902 
-0.3331377508843936 1:0.0080302209 16:0.098570792 22:0.05701011 86:0.0016147107 92:0.027534094 105:0.05701011 
-0.01290692631041899 1:0.078294654 148:0.7032502 
-0.05482514218488954 5:0.20116588 12:0.14082159 49:0.14082159 53:0.17318782 85:0.037906799 86:0.0018521682 99:0.20116588 148:0.16547064 
-0.007398286777743324 1:0.022369901 52:0.25591294 144:0.32167904 145:0.31273881 146:0.1689106 
-0.03924808491311772 52:0.51182589 114:0.41927009 116:0.59304085 
-0.03132232430900243 1:0.039147327 19:0.53560217 25:0.77884094 
-0.04441874333748241 29:0.7598619 114:0.58697812 116:0.83025719 
-0.03000681579500161 22:0.22233943 77:0.27887081 105:0.22233943 158:0.46212896 
-0.0449583971982399 5:0.56996998 50:0.52614624 97:0.58711288 98:0.52614624 99:0.56996998 
-0.006538311838820147 83:1.2062737 
-0.04515476313472727 19:2.1424087 
-0.04379306453273846 1:0.31317862 17:1.6174976 
-0.1900124292221224 53:0.086593912 54:0.064667697 85:0.0189534 86:0.0027782523 183:0.20481502 
-0.00548440943557836 15:0.26307312 58:0.44286973 85:0.053701299 86:0.0052478098 
-0.02828948263445818 15:0.26307312 58:0.44286973 60:0.46146502 86:0.0078717148 92:0.089485807 
-0.0443576730107977 166:0.99817023 
-0.004282536320702059 91:0.17613386 179:0.54197973 180:0.31821294 
-0.1256604387230303 8:0.35064083 
-0.5346359626036384 1:0.08541235 91:0.32024339 
-0.04390595110107946 164:0.98836505 165:1.2936687 166:0.99817023 
-0.04091980122955959 164:1.3178201 
-0.001055128317974274 170:4.4183487 
-0.03968820378692543 169:1.3047816 
-0.01545149123927265 92:0.15340424 169:0.74558951 
-0.00898716992891067 164:0.17188957 171:0.31354594 
-0.04491926140728592 164:0.49418252 165:1.2936687 180:0.79553236 
-0.04378907226684847 170:4.4183487 
-0.03545885885353529 22:0.20212675 48:0.25953163 102:0.262694 105:0.20212675 107:0.43489168 176:0.43225645 
-0.0008784830288571799 104:4.5035065 
-0.04506265001096416 180:2.1214196 
-0.01558926322545733 43:0.22743079 92:0.056517352 164:0.20807685 165:0.27235131 166:0.2101411 180:0.33496099 
-0.02654363142780766 92:0.11931441 164:0.43927336 165:0.57496387 166:0.44363121 
-0.04499714062137744 22:1.1116971 104:2.2517533 105:1.1116971 
-0.02666426215529078 77:0.27887081 102:0.2889634 110:0.35479951 158:0.46212896 
-0.04399495786240086 1:0.069595248 27:0.69230305 28:0.48220857 29:0.4221455 
-0.04487783740607759 136:2.199073 137:2.4544858 
-0.04228448352583605 22:0.15881388 105:0.15881388 136:0.31415329 137:0.35064083 
-0.003811033018896411 85:0.03391661 86:0.0016572031 112:0.15545172 136:0.46296274 137:0.51673386 
-0.01102071282589746 86:0.0011245307 92:0.03835106 136:0.31415329 137:0.35064083 138:0.1818319 
-0.009722957622890674 34:0.16771062 35:0.36737069 92:0.024972783 138:0.11840217 
-0.2471758642340968 39:0.1695094 
-0.02439862010709453 20:0.21913425 23:0.2774355 76:0.29370319 
-0.001072849350959471 32:4.2671178 
-0.00667944279320077 22:0.18528286 92:0.089485807 102:0.24080284 105:0.18528286 108:0.33272341 158:0.38510746 
-0.03741917966589044 9:0.47838085 136:0.4398146 137:0.49089716 
-0.03618885619711362 92:0.071588645 136:0.29320973 137:0.32726478 138:0.67883909 
-0.002389540730443174 148:0.28130008 155:0.52656466 
-0.03934995970218037 182:0.83759139 
-0.03547034626179092 139:0.45289584 141:0.45289584 155:0.58507184 
-0.0159150166015828 1:0.028470783 9:0.43489168 43:0.392835 86:0.0028624417 
-0.00404631453296307 39:0.20546595 86:0.00095414724 92:0.032540293 136:0.13327715 137:0.14875672 138:0.15428161 181:0.28646364 
-0.01263500468661881 39:0.48431259 
-0.03817608401734267 39:0.37668757 136:0.48868289 137:0.54544129 138:0.56569924 
-0.06108240188499319 12:0.099748623 48:0.118952 49:0.099748623 53:0.12267471 112:0.12306595 176:0.19811754 
-0.03781662663067695 9:0.2814005 43:0.25418735 53:0.17318782 114:0.17264062 129:0.562801 132:0.25640737 
-0.04128252678207479 9:0.59797606 12:0.29924587 13:0.53121575 49:0.29924587 
-0.129272975105576 12:0.11399843 49:0.11399843 92:0.051134747 102:0.13760162 112:0.1406468 176:0.45284009 
-0.01303136896087864 35:0.068385021 89:0.021966624 93:0.037075947 138:0.26448276 166:0.051852999 186:0.046869855 
-0.4735758464466923 1:0.034797624 136:0.24434145 137:0.27272065 
-1.50177063961484 8:0.46752111 92:0.051134747 
-0.03361903457864323 114:0.41927009 119:0.63413829 
-0.2269169992039438 1:0.022369901 41:0.18043116 85:0.023014843 86:0.0011245307 111:0.13897601 151:0.2025397 
-0.1918945232707034 16:0.12013315 86:0.002951893 92:0.033557177 
-0.03804088095317257 5:0.85495497 99:0.85495497 
-0.02166989316387677 43:0.61731214 
-0.04098928540926453 120:0.67921605 
-1.507772537708948 22:0.11116971 102:0.1444817 105:0.11116971 154:0.3003792 
-0.04483450627040125 18:3.5310455 
-0.02069251408096009 5:0.22798799 40:0.27886898 50:0.2104585 98:0.2104585 99:0.22798799 
-0.02116418568279437 18:0.22780939 19:0.13821991 21:0.10202176 92:0.034639667 
-0.02130729527128328 48:0.40783542 52:0.51182589 
-0.01734568729811545 1:0.017398812 5:0.18998999 48:0.15860266 57:0.25814485 58:0.29524649 62:0.10953194 99:0.18998999 
-0.1189212449491733 53:0.15495753 139:0.21452961 141:0.21452961 144:0.23702666 145:0.23043913 
-0.007229174144089256 48:0.17842799 53:0.18401206 54:0.27483771 57:0.29041296 101:0.24245951 
-0.03869088528125344 115:0.739828 116:0.69188099 
-0.00129121474558258 48:0.27189028 53:0.14019967 54:0.20940016 56:0.14561408 103:0.17456086 
-0.002523544104146592 48:0.27189028 53:0.14019967 54:0.20940016 56:0.14561408 103:0.17456086 
-0.080951246208773 22:0.18528286 105:0.18528286 
-0.01020476740293215 22:0.22233943 105:0.22233943 
-0.1439115326654912 22:0.18528286 105:0.18528286 
-0.04264204922094297 102:0.48160567 107:0.79730142 
-0.01626898167858241 1:0.048181326 7:0.55473513 53:0.22647639 54:0.1691309 
-0.01856349626286193 1:0.052196436 169:0.86985443 
-0.04334492698439358 117:1.9456642 
-0.0293640146077436 1:0.044739802 9:0.68340121 
-0.04592614772931321 22:0.24704381 104:0.50038961 105:0.24704381 108:0.88726242 158:0.51347662 
-0.1017060157539758 12:0.08549882 16:0.13729503 49:0.08549882 92:0.03835106 156:0.15177593 
-0.05646826043642816 21:0.077138404 48:0.069630437 58:0.12962041 60:0.13506293 127:0.11152438 
-0.009831424585557236 52:0.51182589 130:0.3587252 132:0.62270361 
-0.003231082166411275 12:0.08549882 49:0.08549882 50:0.22549124 51:0.19163322 52:0.12795647 53:0.10514975 54:0.07852506 74:0.13940892 76:0.1678304 77:0.099596718 86:0.0022490614 92:0.03835106 98:0.22549124 
-0.001378105058129068 114:0.19565937 129:0.31892057 191:0.35104311 
-0.04486804238034386 91:0.88066932 95:1.2830288 96:1.2936687 
-0.03348683498570846 12:0.2393967 49:0.2393967 92:0.10738297 111:0.77826568 
-0.04487624515096827 135:2.363325 
-0.04439763271885432 36:0.62679152 127:0.57156243 156:0.53121575 
-0.04488388089225631 139:4.0760625 141:4.0760625 
-0.03764424909414003 139:0.8152125 141:0.8152125 
-0.1857310668170216 1:0.012527145 8:0.19635887 53:0.11776772 92:0.042953187 
-0.008856130578056837 52:0.35827812 54:0.21987017 132:0.43589253 
-0.03472725378182252 52:0.5971302 130:0.41851273 132:0.72648755 
-0.07482323191715233 113:0.11210983 129:0.17717809 186:0.066832941 
-0.0450272310289045 130:1.2555382 
-0.02644733884630312 10:0.40519221 134:0.52213901 
-0.9386518426215255 8:0.068180162 39:0.047085946 86:0.0034985399 92:0.014914301 109:0.05355308 
-0.04427365924797515 48:0.71371198 103:0.91644453 
-0.03184352860021232 168:0.78242224 
-0.01396614548227662 164:0.43927336 165:0.57496387 
-0.04405761326898861 165:1.2936687 
-0.005141865884685978 48:0.19032319 74:0.26022998 122:0.28105496 127:0.30483329 
-0.03747600503032746 72:0.51544085 86:0.0048441322 
-0.02063875812663996 164:0.35940547 170:0.40166807 
-0.009245970694769307 22:0.34206066 92:0.082602283 93:0.21960369 105:0.34206066 109:0.29660167 
-0.06068095906641268 46:0.40446209 85:0.064441559 86:0.0031486859 
-0.009668327692291421 10:0.48623066 11:0.21162471 
-0.1532928413757651 46:0.20920453 151:0.19555558 166:0.13767865 
-0.04329091410756952 85:0.058583235 86:0.0028624417 93:0.25953163 94:0.60915737 95:0.46655593 96:0.47042498 
-0.8313885486706506 85:0.028018069 86:0.0013689939 151:0.24657007 152:0.1707888 
-0.02348298727358751 85:0.09205937 86:0.0044981227 87:0.56849081 88:0.56662337 
-0.02955145417003906 85:0.04957043 86:0.0024220661 97:0.27097518 122:0.32429419 127:0.35173072 
-0.008452040116383194 89:0.11665035 151:0.19555558 166:0.2753573 
-1.77926207116406 148:0.10418521 151:0.21004117 
-1.385519160825706 22:0.052937959 85:0.015343228 86:0.0014993742 105:0.052937959 113:0.072070602 186:0.042964033 
-0.01883410323524797 1:0.052196436 32:0.71118629 
-0.6862903570754169 1:0.027232923 92:0.046688247 135:0.20550653 178:0.27090119 179:0.23564336 
-0.04377892142280665 32:4.2671178 
-0.03955587311970687 48:0.95161597 
-0.004953382594143705 46:0.28890149 83:0.51697445 
-0.001537468829262132 84:1.3323611 92:0.53691484 
-0.02382320300706331 1:0.024090663 12:0.1841513 13:0.326902 49:0.1841513 53:0.22647639 113:0.23284348 
-0.2015328029757566 22:0.052937959 54:0.05235004 59:0.28607543 61:0.11125197 62:0.18776904 86:0.0052478098 92:0.025567373 105:0.052937959 
-0.03531263172269161 45:0.53338972 84:0.33309027 85:0.080551949 86:0.0039358574 
-0.01550072595893085 5:0.15544636 50:0.28698886 85:0.029291618 86:0.0014312209 89:0.23064955 98:0.28698886 99:0.15544636 123:0.19316936 124:0.18462154 
-0.06860110568269628 16:0.10116476 52:0.094283716 85:0.016958305 86:0.00082860155 128:0.14742418 161:0.17153709 
-0.006440373762113741 84:0.88824071 
-1.596520028897952 46:0.11895944 86:0.0018521682 186:0.053073218 
-0.0446374643653956 92:0.15340424 93:0.40783542 94:0.9572473 
-0.01970486479112384 1:0.044739802 52:0.17060863 91:0.16774654 128:0.26676756 172:0.24244253 
-0.01501979175069324 46:0.16852587 91:0.29355644 114:0.24457422 181:0.39388751 
-0.002001552182098089 46:0.67410349 
-0.0184844510604895 73:0.2278004 80:0.22006141 123:0.40473581 124:0.19341304 
-0.02711888667372611 20:0.2337432 23:0.2959312 24:0.31892057 54:0.29316022 60:0.36917202 92:0.071588645 
-0.00445682435355203 1:0.044739802 53:0.0841198 56:0.087368446 91:0.10064792 128:0.16006054 
-0.006525121675912318 52:0.11196191 53:0.092006031 55:0.23803193 56:0.095559237 92:0.033557177 128:0.35013243 166:0.12477128 
-0.01453851274873112 50:0.28698886 91:0.32024339 98:0.28698886 
-0.01551749406934307 21:0.24328266 22:0.17103033 39:0.5215674 86:0.0072661982 92:0.082602283 105:0.17103033 
-0.3573970229369105 1:0.021598525 5:0.11792482 46:0.069734844 86:0.0010857538 99:0.11792482 
-0.06734490650390212 1:0.0081345095 5:0.088826491 12:0.12436192 13:0.11038249 46:0.026263772 49:0.12436192 86:0.00040892025 99:0.088826491 147:0.098922362 
-0.0445891174911187 12:0.79798899 49:0.79798899 112:0.98452758 
-0.3354584362315923 1:0.014737817 8:0.11550522 12:0.14082159 13:0.099993553 14:0.068532498 49:0.14082159 85:0.0075813599 86:0.00037043364 
-0.2482858182140019 1:0.014566447 16:0.089401416 107:0.11125136 
-1.186171865964743 80:0.24322577 
-0.005568037695669123 48:0.083966115 85:0.0189534 86:0.0018521682 97:0.10360816 142:0.18325669 188:0.21210461 
-0.02731149191993167 12:0.059849174 46:0.050557762 49:0.059849174 57:0.11616518 60:0.13843951 61:0.11681457 62:0.19715749 92:0.026845742 
-0.01817630017019992 112:0.98452758 
-0.007561398913777962 1:0.062635723 5:0.68396398 99:0.68396398 
-0.01305340197259471 48:0.089213997 53:0.046003016 54:0.068709428 56:0.047779619 57:0.43561944 58:0.16607615 61:0.073009107 62:0.061611717 86:0.0039358574 92:0.016778589 
-0.001451077893254054 91:1.7613386 
-2 1:0.036844543 91:0.20721631 
-0.0393311348454544 83:1.8094106 
-0.04450885357454926 148:2.8130008 
-0.07223773189648305 90:0.28826083 91:0.18540407 139:0.21452961 141:0.21452961 155:0.27713929 
-0.0007970003875925058 90:1.8256519 91:1.1742258 
-0.04197139951745388 1:0.039147327 54:0.068709428 79:0.18203945 91:0.11008366 
-0.0007840735107359042 83:1.2062737 92:0.35794323 
-0.03763737565571462 62:0.28165356 125:0.57230056 
-0.0005807980265372177 48:0.38064639 53:0.19627953 56:0.20385971 93:0.19032319 109:0.25705478 
-0.01013492539691979 84:0.33309027 85:0.080551949 86:0.0039358574 88:0.49579545 89:0.21142875 
-0.01215153696446968 120:0.26578019 175:0.25705538 
-0.3960161338521563 5:0.11658477 16:0.043684783 53:0.066913477 76:0.053400581 85:0.0073229044 86:0.00035780522 89:0.019220796 99:0.11658477 114:0.03335103 115:0.050442818 148:0.12786367 
-0.02461276724426425 8:0.1888066 9:0.18399263 92:0.041301142 
-0.05424784621803027 1:0.020878574 5:0.056996998 8:0.081816194 46:0.033705174 53:0.049069883 85:0.01074026 86:0.00052478098 88:0.06610606 89:0.028190501 95:0.085535253 96:0.08624458 99:0.056996998 
-0.03241748188959821 1:0.024090663 5:0.26306307 92:0.082602283 99:0.26306307 139:0.62708654 141:0.62708654 
-0.0281931209361268 1:0.078294654 144:0.56293832 145:0.54729292 
-0.1160247106774407 1:0.033554852 91:0.1258099 
-0.01080703357012265 91:0.29355644 144:0.37529221 145:0.36486195 
-1.40808643580092 1:0.010616224 39:0.057460815 54:0.03726613 90:0.092829757 
-0.0006233259895392943 85:0.12888312 86:0.0062973718 87:0.79588714 88:0.79327272 
-0.0376990559720455 5:0.058962412 12:0.041275292 49:0.041275292 50:0.054428921 51:0.092512587 86:0.004343015 92:0.018514305 98:0.054428921 99:0.058962412 121:0.18157402 139:0.21083082 140:0.27444384 141:0.21083082 186:0.093335659 
-0.01312079952704581 91:0.88066932 
-0.01537639867691533 83:0.90470528 92:0.26845742 
-0.08683374556049034 1:0.027633407 22:0.06539395 48:0.083966115 54:0.064667697 74:0.11480735 91:0.10360816 105:0.06539395 
-0.04483250084361197 84:0.88824071 87:1.3264786 92:0.35794323 
-0.5907410910011157 1:0.040410144 56:0.098641793 83:0.11673617 
-1.663778371924891 1:0.034797624 108:0.22181561 
-0.01172986197865278 1:0.028470783 50:0.14349443 97:0.16012169 98:0.14349443 100:0.28928449 123:0.19316936 124:0.18462154 
-0.686805065897823 1:0.006314085 20:0.028275387 22:0.017930599 28:0.052498513 52:0.014446698 53:0.023743492 54:0.0088657326 56:0.036990673 62:0.023849697 76:0.018948593 93:0.011511483 105:0.017930599 154:0.024224129 164:0.015941372 186:0.018190417 
-0.09974193395769188 20:0.085515804 21:0.15427681 54:0.026813435 62:0.024043597 73:0.058339128 86:0.00076797217 88:0.048370288 142:0.075984481 
-0.208761451542005 56:0.19111847 
-0.001395922554987099 48:0.12976581 57:0.21120943 59:0.273072 61:0.21239013 62:0.26885113 86:0.0028624417 92:0.04881044 
-1.37989277778791 62:0.39431499 
-0.2930527878056636 5:0.18998999 48:0.15860266 99:0.18998999 108:0.22181561 176:0.26415672 
-2 86:0.0052478098 92:0.029828602 108:0.33272341 176:0.26415672 183:0.1934364 
-0.04193835566763075 1:0.052196436 50:0.26307312 81:0.79730142 97:0.29355644 98:0.26307312 
-0.03461342935927618 1:0.044739802 48:0.13594514 81:0.45560081 91:0.16774654 
-0.02671929721030104 1:0.10439287 
-0.2041056345211488 46:0.067410349 48:0.095161597 91:0.11742258 108:0.13308936 
-0.3580506835946173 85:0.011933622 86:0.00116618 87:0.073693253 88:0.073451178 101:0.071839856 108:0.22181561 176:0.17610448 
-0.003996171354667817 83:0.30156843 85:0.053701299 86:0.0026239049 110:0.29566626 113:0.25224711 
-0.03489373493533877 45:0.32823983 48:0.21960369 53:0.22647639 54:0.3382618 57:0.35743134 
-0.8002504862933167 8:0.16927488 83:0.12478694 
-0.0182771630410149 189:0.34244311 190:0.45584838 
-0.0156815161789559 85:0.064441559 86:0.0031486859 114:0.29348906 115:0.4438968 116:0.41512859 
-0.01642202040903999 53:0.32713256 86:0.0069970798 92:0.11931441 148:0.62511129 
-0.03678999801353509 85:0.1611039 86:0.0078717148 87:0.99485892 88:0.9915909 
-0.02726739642902365 48:0.23790399 50:0.06576828 54:0.045806285 57:0.09680432 59:0.125158 61:0.097345476 62:0.12322343 86:0.0045918336 92:0.022371452 98:0.06576828 
-0.1869199932646036 16:0.12987368 46:0.01366426 74:0.052749321 86:0.0031912357 89:0.022857163 92:0.0072556059 114:0.059491026 115:0.029993027 118:0.024899974 125:0.05413654 186:0.042673736 
-0.006322082644293191 2:0.32574002 4:0.33359481 92:0.063166452 
-0.04475367448899705 84:0.88824071 91:1.1742258 
-0.006148662607293173 1:0.072271988 46:0.15556234 48:0.21960369 74:0.30026537 116:0.31932969 
-0.1470620505678792 39:0.046440933 62:0.13503938 83:0.049572892 85:0.0088276108 86:0.00043132684 93:0.039107506 
-0.003805114378991001 48:0.71371198 85:0.1611039 86:0.0078717148 
-0.04287455443928734 73:0.9567617 
-0.03222162113202373 53:0.32713256 92:0.11931441 148:0.31255564 155:0.58507184 
-0.0233095841278396 5:0.18998999 12:0.13299816 48:0.15860266 49:0.13299816 50:0.35076416 51:0.29809611 92:0.059657204 98:0.35076416 99:0.18998999 
-0.1589617651945201 48:0.25953163 54:0.19988197 
-0.03274003696711145 5:0.092427565 48:0.077158052 54:0.05942437 85:0.017416638 86:0.00085099619 99:0.092427565 
-0.04399281291739959 104:4.5035065 
-0.0304945433886851 86:0.0047230289 92:0.053691484 93:0.1427424 104:0.22517533 108:0.19963405 176:0.23774105 
-0.04690739491522945 12:0.099748623 49:0.099748623 53:0.12267471 85:0.02685065 86:0.0026239049 113:0.12612355 
-0.01527552376850576 85:0.064441559 86:0.0031486859 87:0.39794357 88:0.39663636 101:0.38793522 
-0.2375106395149034 54:0.31410024 
-0.01921398481392874 31:0.41736579 50:0.35076416 97:0.39140859 98:0.35076416 
-0.03746688050171194 31:0.62604869 50:0.52614624 97:0.58711288 98:0.52614624 
-0.005673398695955099 31:0.18781461 50:0.15784387 54:0.10993508 91:0.17613386 97:0.17613386 98:0.15784387 
-0.03345911299116457 85:0.1611039 86:0.0078717148 88:0.9915909 
-0.005286096618237675 3:0.45584838 86:0.0028624417 92:0.09762088 
-0.03534798341265481 83:0.90470528 91:0.88066932 
-0.03671226797833106 83:1.2062737 91:1.1742258 
-0.03478823557949709 50:0.45098249 97:0.50323961 98:0.45098249 
-0.02121072391735595 83:0.51697445 85:0.09205937 86:0.0044981227 87:0.56849081 88:0.56662337 
-0.02938074507994784 12:0.29924587 49:0.29924587 50:0.39460968 98:0.39460968 
-0.02106955784352254 86:0.0019679287 92:0.067114355 111:0.72962408 
-0.01272409042589736 10:0.3315209 54:0.19988197 134:0.42720465 
-0.03898918692820654 1:0.056941567 48:0.25953163 50:0.28698886 98:0.28698886 100:0.57856899 
-0.02019817838397418 10:0.40519221 86:0.0034985399 111:0.43236982 
-0.09248397896081813 76:0.1566417 113:0.10089884 132:0.14529751 186:0.030074823 
-1.172421545654931 1:0.018422272 84:0.15674836 85:0.037906799 86:0.0037043364 186:0.10614644 
-0.01318133854332587 12:0.092075652 13:0.163451 22:0.085515165 49:0.092075652 86:0.001211033 105:0.085515165 
-0.0435690069077924 12:0.092075652 13:0.163451 22:0.085515165 49:0.092075652 86:0.001211033 105:0.085515165 
-0.4615727616146 12:0.041275292 16:0.06628036 17:0.055775779 49:0.041275292 89:0.029162587 
-0.01631754359121155 46:0.22470116 56:0.33976618 92:0.11931441 159:0.42337326 
-0.005944536199047955 52:0.5971302 
-0.01205667279861179 85:0.12888312 86:0.0062973718 87:0.79588714 88:0.79327272 
-1.125875647084282 62:0.1037671 183:0.18325554 
-0.06852254039967949 12:0.034695173 22:0.12889242 31:0.054439016 49:0.034695173 86:0.00045633129 92:0.015562749 101:0.056222496 105:0.12889242 108:0.057864941 110:0.051420219 113:0.043869062 176:0.1378209 
-0.8992760344140587 22:0.44467886 105:0.44467886 
-0.03174926955212814 110:0.59133251 
-0.4227458230822985 48:0.35685599 54:0.54967542 154:0.75094799 
-0.002300008829974306 46:0.67410349 
-0.01096717575086616 12:0.05440834 13:0.096584682 20:0.079685181 21:0.14375793 22:0.15159507 41:0.11481983 49:0.05440834 56:0.069497627 74:0.088714768 86:0.0021468313 92:0.02440522 105:0.15159507 
-0.01469179765086291 1:0.031317862 54:0.21987017 103:0.36657781 
-0.03491117642113158 91:1.1742258 
-0.1701893608892289 12:0.2393967 49:0.2393967 
-0.03479788143824584 130:0.62776909 132:1.0897313 
-0.00913106156835607 12:0.14962293 21:0.19766716 22:0.27792429 49:0.14962293 105:0.27792429 
-2 22:0.27792429 105:0.27792429 
-0.03170625924561048 33:0.5776612 
-0.04489225860082394 22:0.74113143 105:0.74113143 112:0.98452758 
-0.03939126062260404 10:0.45584124 11:0.39679632 12:0.29924587 14:0.7281578 49:0.29924587 
-0.03228987910650474 1:0.040849385 5:0.14868782 10:0.31710695 11:0.41404834 12:0.10408552 14:0.50654455 49:0.10408552 92:0.046688247 99:0.14868782 119:0.19299861 
-0.09639480748086428 53:0.15495753 91:0.18540407 
-0.01333536460270414 85:0.058583235 86:0.0028624417 155:0.47869514 
-0.0560582493939033 1:0.013049109 10:0.15194708 39:0.28251567 
-0.1755620170843772 43:0.16004389 92:0.03977147 139:0.15096528 141:0.15096528 151:0.21004117 
-0.0423331677561929 156:0.8499452 
-1.317727546772919 54:0.29316022 
-0.01429620931505743 1:0.026098218 144:0.37529221 145:0.36486195 156:0.35414383 
-0.03894606182061613 33:0.42011723 76:0.42720465 
-0.002016437273496876 159:0.47629492 
-0.006740740317039137 22:0.24704381 105:0.24704381 
-0.01275822586345457 10:0.3315209 130:0.22827967 135:0.42969546 146:0.21497713 
-0.01302762493861818 1:0.056941567 17:0.29409047 36:0.45584838 189:0.34244311 
-0.001557648511897769 1:0.048181326 103:0.14099147 139:0.15677164 141:0.15677164 
-0.01251033531845338 91:0.29355644 159:0.31752995 
-0.03708258723698288 60:0.69219754 
-0.8746425364686762 86:0.0013119525 183:0.43523191 
-0.0350610919088955 84:1.3323611 92:0.53691484 
-0.01057845937120677 83:0.72376423 85:0.12888312 86:0.0062973718 
-0.04460054732737745 84:2.6647221 
-0.2056257498340868 85:0.026302677 86:0.0012851779 92:0.021914891 101:0.079170454 136:0.089758082 
-0.2489607924120579 15:0.12141836 151:0.21811968 157:0.19738905 
-0.04496314275339559 11:0.79359265 17:0.8087488 189:0.94171856 
-0.04072456583047949 46:1.0111552 
-0.02286617010067813 41:0.63150906 62:0.24644687 92:0.13422871 
-0.02617330617082397 46:0.22470116 127:0.50805549 
-0.003120006316616287 39:0.29479896 46:0.087926542 86:0.0041069816 92:0.046688247 127:0.19880432 156:0.36954139 
-0.03160253480459577 22:0.31762776 86:0.0089962454 105:0.31762776 112:0.42194039 
-0.01134376010067142 73:0.47838085 
-0.03662807148429983 38:0.50141612 50:0.24283673 81:0.36798527 88:0.30510489 89:0.13011 92:0.082602283 98:0.24283673 
-0.03895996381922934 46:0.16852587 92:0.089485807 150:0.55839426 190:0.41786101 
-0.5286699504189319 8:0.11156754 71:0.11396209 85:0.014645809 86:0.00071561043 149:0.13057317 
-0.04388306663218818 12:0.47879339 22:0.44467886 49:0.47879339 105:0.44467886 112:1.1814331 
-0.2054647563362428 1:0.10439287 
-0.04483574966202071 83:0.90470528 90:1.3692389 91:0.88066932 
-0.01945587332081622 38:0.43456064 48:0.19032319 81:0.31892057 92:0.071588645 
-0.01059570876971972 53:0.32713256 56:0.33976618 
-0.01801679085305621 6:0.39776618 42:0.32910291 54:0.13741886 86:0.0039358574 92:0.067114355 
-0.07318010094871845 56:0.17987621 91:0.20721631 
-0.4518338754429049 85:0.03222078 86:0.001574343 139:0.20380313 141:0.20380313 
-0.02658604174200012 1:0.052196436 79:0.48543853 159:0.31752995 
-0.03718347110315589 11:0.45348151 15:0.45098249 39:0.48431259 86:0.0089962454 
-0.03877538943841189 101:0.35266838 173:0.59258269 
-0.2850660259445428 29:0.47491369 136:0.54976825 
-0.2040851607651257 8:0.086122309 85:0.011305537 86:0.00055240104 88:0.069585326 89:0.029674211 
-0.04527667452525513 83:3.6188211 
-0.04235630688113245 90:1.8256519 91:0.58711288 
-0.04484026437314048 162:6.5184096 
-0.03480884291722548 84:1.3323611 
-0.01030972328992255 29:0.26202135 46:0.069734844 182:0.23105969 
-0.05995649058724967 53:0.086593912 85:0.0189534 86:0.00092608409 87:0.11704223 88:0.11665775 139:0.11988419 141:0.11988419 
-0.03821601024761057 22:0.1307879 77:0.16404165 105:0.1307879 174:0.48883347 
-0.06043526314601927 1:0.03296617 12:0.062999131 49:0.062999131 90:0.14413041 91:0.092702034 191:0.27713929 
-0.02209959009085332 177:0.53260574 
-0.04039289185391536 12:0.2393967 46:0.20223105 49:0.2393967 86:0.0062973718 92:0.10738297 112:0.29535827 
-0.0009637131013345465 92:0.09762088 128:0.50928353 
-0.02071449311172623 1:0.078294654 82:0.36057784 91:0.17613386 
-0.03168774226011047 39:0.2607837 50:0.24283673 79:0.44809711 98:0.24283673 
-0.725571857412459 46:0.036769281 52:0.13028295 53:0.053530782 85:0.011716647 86:0.00057248835 139:0.074110228 141:0.074110228 
-0.03665800497243548 103:0.73315562 
-0.01799841822799696 29:0.2532873 46:0.1348207 92:0.071588645 139:0.2717375 141:0.2717375 144:0.30023377 145:0.29188956 167:0.32952488 
-0.008884155694146544 29:0.23745684 61:0.29203643 92:0.067114355 127:0.28578121 148:0.17581255 167:0.30892957 
-0.2083332782296264 85:0.030686457 86:0.0014993742 139:0.19409822 141:0.19409822 
-0.0448575520032064 156:4.249726 
-0.01692812848170908 12:0.1595978 13:0.28331507 29:0.2532873 49:0.1595978 53:0.19627953 91:0.23484515 
-0.04064461225747075 83:0.60313686 85:0.1074026 86:0.0052478098 88:0.6610606 89:0.28190501 
-0.03181152119386301 85:0.1074026 86:0.0052478098 95:0.85535253 96:0.8624458 
-0.001713239126543798 29:0.1809195 46:0.192601 114:0.1397567 119:0.21137943 164:0.37652002 166:0.19012766 
-0.1358432877988011 29:0.14071517 84:0.098693412 
-1.103374813566351 1:0.028470783 54:0.19988197 
-0.07923765347229354 176:0.79247016 
-0.01037567862071561 153:0.50205407 
-0.0428725289779054 119:1.109742 
-0.03338866917520569 85:0.1611039 86:0.0078717148 88:0.9915909 89:0.42285751 
-0.09480848885500796 112:0.59071655 
-0.005696044136705143 85:0.1074026 86:0.0052478098 88:0.6610606 89:0.28190501 
-0.03435524515332398 1:0.048181326 5:0.26306307 8:0.3776132 29:0.29225458 99:0.26306307 
-0.02184331937704877 15:0.39460968 125:0.50076299 
-0.02641294003643067 84:0.88824071 92:0.35794323 
-0.1247742719438908 1:0.015658931 29:0.18996548 53:0.14720965 85:0.03222078 86:0.001574343 
-0.06501193121211638 29:0.31660913 149:0.47876831 
-0.008904831272818133 29:0.31660913 48:0.23790399 73:0.39865071 86:0.0052478098 92:0.089485807 
-0.004089566176300713 77:0.30985646 179:0.6021997 
-0.001277668046821986 29:0.4221455 48:0.31720532 53:0.32713256 92:0.11931441 
-0.01264546413584598 1:0.039147327 91:0.22016733 190:0.31339576 
-0.02445893054776914 83:1.2062737 85:0.2148052 86:0.01049562 
-0.02367406829381176 1:0.039147327 5:0.42747749 29:0.47491369 86:0.0039358574 99:0.42747749 
-0.009542996947803263 1:0.01332675 53:0.062642404 90:0.11653097 91:0.07495058 148:0.059851081 153:0.14954802 
-0.003782972523274224 119:0.63413829 
-0.03977846182530866 83:1.8094106 92:0.53691484 
-0.01569287841689656 1:0.031317862 123:0.4249726 124:0.40616738 
-0.01677317482682791 123:0.4249726 
-0.04073626084543979 29:0.19996366 48:0.15025515 52:0.18856743 77:0.14677411 91:0.18540407 
-0.05479183628860021 48:0.089213997 54:0.068709428 59:0.187737 73:0.14949402 82:0.22536115 86:0.002951893 92:0.033557177 
-0.01253707391469485 29:0.19996366 48:0.15025515 53:0.15495753 85:0.03391661 86:0.0016572031 95:0.27011133 96:0.27235131 
-0.004013781213316138 83:0.90470528 85:0.1611039 
-0.02073020449832025 1:0.047451305 5:0.10363091 48:0.086510543 54:0.066627324 99:0.10363091 103:0.11108419 
-0.04273236763516781 1:0.039147327 16:0.48053261 48:0.35685599 74:0.48793122 122:0.52697806 
-0.008451103489334066 85:0.028018069 86:0.0013689939 93:0.12412382 94:0.29133614 95:0.22313544 96:0.22498586 114:0.12760394 115:0.19299861 116:0.18049069 
-0.2972896282573279 1:0.010988723 29:0.066654553 31:0.065899862 46:0.035479131 76:0.082443002 91:0.061801356 
-0.0412668448658392 91:1.7613386 
-0.01065269267602724 1:0.044739802 35:0.75223523 
-0.02407865685208539 84:0.88824071 85:0.2148052 86:0.01049562 
-0.1253756722213024 1:0.026653499 5:0.14552425 90:0.11653097 91:0.07495058 99:0.14552425 148:0.11970216 153:0.14954802 
-0.04471731133341111 92:1.0738297 
-0.03712813306955788 83:0.72376423 85:0.12888312 86:0.0062973718 87:0.79588714 88:0.79327272 
-0.01343354073045991 175:0.32845965 
-0.04260987453614404 153:1.1714595 
-0.03172307082823002 91:0.27097518 133:0.32558704 
-0.2060274413195121 16:0.10389894 22:0.060091738 47:0.15979118 86:0.0042549809 92:0.029022424 105:0.060091738 186:0.12192496 
-0.2119616902872883 1:0.015658931 5:0.085495497 91:0.088066932 99:0.085495497 139:0.10190156 141:0.10190156 
-0.03242039084872858 1:0.039147327 5:0.42747749 99:0.42747749 148:0.3516251 
-0.02377283589003635 83:1.2062737 92:0.35794323 
-0.04137238611515076 90:1.8256519 91:1.1742258 
-0.03950797131030465 123:0.70828767 124:0.67694563 
-0.03261095800319397 85:0.3222078 86:0.01574343 
