svm_type c_svc
kernel_type linear
nr_class 2
total_sv 226
rho 1.87535
label 1 -1
nr_sv 85 141
SV
128 85:0.023867244 86:0.0023323599 93:0.10573511 94:0.24817523 
128 114:0.48914844 
128 52:0.3980868 114:0.32609896 117:0.43236982 
128 117:1.2971095 
101.0209520414202 89:0.13011 92:0.082602283 114:0.22576082 116:0.31932969 
128 85:0.035800866 86:0.0017492699 114:0.16304948 189:0.20927079 
128 85:0.080551949 86:0.0039358574 117:0.48641605 
10.25736982161562 54:0.12933539 118:0.21677625 
128 52:0.1990434 114:0.16304948 116:0.230627 
128 92:0.17897161 
128 92:0.059657204 114:0.16304948 116:0.230627 
128 16:0.24026631 52:0.22392383 92:0.067114355 
128 20:0.26970369 
114.9782682054374 114:0.58697812 
128 114:0.12228711 116:0.17297025 121:0.21940194 122:0.17565935 
128 115:0.554871 117:0.48641605 
128 16:0.24026631 114:0.18343066 
128 1:0.013616462 54:0.095595725 114:0.12760394 
128 46:0.31112469 85:0.04957043 86:0.0024220661 115:0.34145908 166:0.3071293 
128 1:0.036135994 114:0.11288041 
128 5:0.42747749 99:0.42747749 114:0.36686133 117:0.48641605 
128 114:0.48914844 
6.529407768733468 115:0.34145908 118:0.28347663 191:0.40504974 
112.9752686481275 114:0.58697812 
128 85:0.071601732 86:0.0034985399 114:0.32609896 117:0.43236982 
128 85:0.04957043 86:0.0024220661 114:0.22576082 117:0.29933295 
128 91:0.32024339 114:0.26680824 
128 8:0.31670785 27:0.20099121 91:0.11363475 112:0.095276863 149:0.18532967 
128 16:0.14785619 74:0.15013268 85:0.04957043 86:0.0024220661 95:0.19738905 96:0.19902595 123:0.163451 124:0.15621822 
128 86:0.0034985399 
128 46:0.25278881 132:0.54486566 
128 29:0.5427585 
128 29:0.5427585 
89.08145332533981 29:0.5427585 79:0.83218034 85:0.09205937 86:0.0044981227 
128 39:0.33901881 119:0.4438968 
128 90:0.22820649 91:0.14677822 113:0.12612355 119:0.184957 
128 29:0.4221455 
128 123:0.35414383 124:0.33847281 
64.68056412977195 114:0.29348906 119:0.4438968 
19.86412969687601 120:0.55572222 
128 8:0.46752111 92:0.051134747 
128 54:0.27483771 92:0.13422871 
128 16:0.17473913 92:0.04881044 114:0.13340412 117:0.17687856 
72.405448461362 117:1.9456642 
128 50:0.15784387 92:0.053691484 98:0.15784387 123:0.2124863 124:0.20308369 
128 125:0.13814151 
128 92:0.026845742 114:0.14674453 115:0.2219484 120:0.15282361 186:0.022556117 
128 52:0.18856743 92:0.056517352 118:0.1939577 128:0.29484836 
8.930014238799959 46:0.16852587 91:0.29355644 114:0.24457422 181:0.39388751 
12.00422999285099 73:0.2278004 80:0.22006141 123:0.40473581 124:0.19341304 
128 1:0.044739802 53:0.0841198 56:0.087368446 91:0.10064792 128:0.16006054 
128 89:0.049747942 114:0.17264062 173:0.19171793 
128 15:0.10183476 48:0.092091868 53:0.094973968 54:0.070925861 85:0.0207876 86:0.0010157051 123:0.13708794 124:0.13102173 
128 114:0.22576082 119:0.34145908 
128 1:0.019573664 127:0.28578121 
128 92:0.11931441 
128 1:0.0045388205 8:0.071144517 43:0.12525174 114:0.042534647 128:0.081190128 175:0.085685127 
128 12:0.13299816 49:0.13299816 50:0.17538208 53:0.16356628 98:0.17538208 111:0.21618491 
128 127:0.3266071 
128 80:0.084023447 85:0.011716647 86:0.00057248835 123:0.077267746 124:0.073848614 127:0.083136353 
128 1:0.031317862 46:0.050557762 48:0.071371198 74:0.097586244 123:0.2124863 124:0.20308369 
128 1:0.028470783 50:0.14349443 97:0.16012169 98:0.14349443 100:0.28928449 123:0.19316936 124:0.18462154 
128 54:0.12215009 123:0.23609589 124:0.22564854 
128 8:0.16927488 83:0.12478694 
128 50:0.16615144 56:0.080470937 85:0.016958305 86:0.00082860155 87:0.10472199 88:0.10437799 98:0.16615144 114:0.077233964 117:0.10240338 
128 46:0.1348207 91:0.23484515 114:0.19565937 
128 85:0.04957043 86:0.0024220661 127:0.35173072 
69.99216031407931 1:0.048181326 85:0.04957043 86:0.0024220661 116:0.31932969 
128 50:0.080945575 98:0.080945575 
128 1:0.018422272 46:0.11895944 50:0.18569867 74:0.22961469 98:0.18569867 123:0.24998388 
128 124:0.16246695 
128 1:0.021748515 5:0.047497499 12:0.066499082 15:0.04384552 49:0.066499082 50:0.17538208 74:0.05421458 98:0.17538208 99:0.047497499 123:0.11804794 124:0.056412136 
128 29:0.31660913 86:0.0026239049 164:0.32945502 
93.32887339514883 15:0.2104585 46:0.1348207 123:0.28331507 
84.93833568203493 1:0.039147327 29:0.15830456 46:0.16852587 114:0.12228711 119:0.184957 175:0.24634474 
127.9715905050057 1:0.039147327 29:0.15830456 46:0.16852587 114:0.12228711 119:0.184957 175:0.24634474 
128 15:0.17538208 48:0.15860266 74:0.21685832 92:0.059657204 118:0.20473312 123:0.23609589 124:0.22564854 
128 1:0.0094902611 46:0.12256427 54:0.066627324 74:0.23657271 83:0.10966125 123:0.12877958 124:0.12308102 166:0.12099033 
128 1:0.017895921 46:0.057780299 56:0.087368446 91:0.10064792 118:0.10529132 123:0.12142074 124:0.11604782 125:0.11446011 
128 1:0.029826535 120:0.29109259 
71.18932199828396 1:0.031317862 123:0.4249726 124:0.40616738 
93.60651199077205 16:0.48053261 
128 52:0.17476981 54:0.05362687 74:0.095206092 89:0.041254391 166:0.19476492 186:0.022005968 
128 85:0.028018069 86:0.0013689939 93:0.12412382 94:0.29133614 95:0.22313544 96:0.22498586 114:0.12760394 115:0.19299861 116:0.18049069 
128 114:0.24457422 166:0.33272341 
-109.9291490529171 114:0.20963504 115:0.31706914 189:0.26906245 
-128 46:0.069734844 114:0.20240625 115:0.15306786 117:0.13418374 186:0.031111886 
-31.95404607986185 12:0.12599826 27:0.32793303 48:0.075127576 49:0.12599826 50:0.16615144 81:0.1258897 97:0.092702034 98:0.16615144 121:0.13856965 122:0.11094275 
-128 46:0.056175291 85:0.017900433 86:0.00087463497 114:0.16304948 115:0.12330467 117:0.10809246 186:0.025062353 
-128 114:0.14674453 117:0.19456642 
-128 114:0.16304948 117:0.21618491 
-128 85:0.02685065 86:0.0026239049 114:0.12228711 117:0.16213868 
-128 85:0.046029685 86:0.0022490614 114:0.20963504 
-128 114:0.15446793 117:0.20480676 
-128 114:0.15446793 117:0.20480676 
-128 114:0.15446793 117:0.20480676 
-128 114:0.15446793 117:0.20480676 
-128 114:0.15446793 117:0.20480676 
-128 114:0.13340412 117:0.17687856 166:0.1814855 
-0.2815136914877767 114:0.12760394 117:0.16918819 166:0.17359482 
-93.56817707385314 114:0.12760394 117:0.16918819 166:0.17359482 
-128 114:0.12760394 117:0.16918819 166:0.17359482 
-128 114:0.12760394 117:0.16918819 166:0.17359482 
-128 114:0.12760394 117:0.16918819 166:0.17359482 
-128 114:0.12228711 117:0.32427737 
-128 92:0.067114355 114:0.18343066 115:0.2774355 117:0.24320803 
-128 46:0.13946969 92:0.03702861 114:0.20240625 117:0.13418374 
-30.62211465863697 85:0.025776624 86:0.0012594744 114:0.11739562 117:0.15565314 
-128 46:0.1348207 114:0.19565937 
-128 114:0.20240625 115:0.15306786 117:0.13418374 186:0.031111886 
-128 114:0.17264062 117:0.22890167 
-10.91622561337448 85:0.025776624 86:0.0012594744 114:0.11739562 117:0.15565314 
-128 114:0.20963504 117:0.27795203 
-29.9611856557509 114:0.19565937 116:0.1383762 117:0.12971095 172:0.16970977 191:0.17552155 
-128 114:0.32609896 
-128 114:0.29348906 117:0.38913284 
-128 114:0.29348906 117:0.38913284 
-16.75303065593741 79:0.97087706 80:0.77021493 
-0.1064514695875137 85:0.3222078 86:0.01574343 
-117.4694022469525 52:0.27559855 86:0.0024220661 113:0.23284348 118:0.28347663 132:0.33530195 
-0.5326816731674373 10:0.60778832 11:0.52906176 119:0.739828 
-0.6015543561741392 1:0.031317862 20:0.3506148 159:0.38103594 
-99.25765098758579 1:0.028470783 20:0.31874073 
-48.26868839428077 85:0.3222078 86:0.01574343 
-2.619912862181742 83:1.2062737 91:1.1742258 
-18.83207805335393 1:0.025054289 16:0.15377044 84:0.10658888 
-5.114637271082244 1:0.019573664 77:0.17429426 114:0.18343066 
-1.514334397723575 1:0.062635723 20:0.3506148 23:0.4438968 
-5.370036358994671 85:0.1611039 86:0.0078717148 87:0.99485892 88:0.9915909 
-128 16:0.27459006 86:0.0022490614 
-56.78439410592939 29:0.31660913 149:0.47876831 175:0.49268948 
-128 29:0.10553638 86:0.00087463497 92:0.029828602 114:0.16304948 119:0.12330467 186:0.025062353 
-128 16:0.25628406 29:0.2532873 
-128 46:0.14445075 114:0.20963504 119:0.31706914 
-128 29:0.27137925 85:0.046029685 86:0.0022490614 
-3.453556611227549 1:0.028470783 29:0.34539177 190:0.45584838 
-1.214378647548049 7:0.60096306 29:0.31660913 54:0.18322514 92:0.089485807 
-3.287634507681292 54:0.12933539 89:0.099495885 119:0.26111577 152:0.2310672 
-99.91959381498711 8:0.81816194 
-0.04929023086452464 15:0.28698886 54:0.19988197 85:0.058583235 86:0.0028624417 
-7.159081119597516 15:0.28698886 54:0.19988197 85:0.058583235 86:0.0028624417 
-0.8893098893757641 1:0.08541235 54:0.19988197 92:0.09762088 103:0.33325256 111:0.35375713 
-16.6649257176424 1:0.069595248 27:0.69230305 28:0.48220857 29:0.4221455 
-0.6270765697042551 9:0.2814005 43:0.25418735 53:0.17318782 114:0.17264062 129:0.562801 132:0.25640737 
-7.417116664948606 46:0.059479719 106:0.054743518 114:0.086320312 119:0.13055788 
-128 89:0.084571502 92:0.053691484 118:0.18425981 
-27.21252934419877 16:0.16017754 86:0.0026239049 92:0.044742903 120:0.25470602 167:0.20595305 
-23.41545661146791 43:0.61731214 
-33.83105155803624 16:0.27459006 46:0.14445075 48:0.20391771 53:0.2102995 92:0.07670212 114:0.20963504 
-128 116:0.2767524 
-1.201167812253223 91:0.88066932 95:1.2830288 96:1.2936687 
-1.876598495763177 36:0.62679152 127:0.57156243 156:0.53121575 
-68.8863724969604 52:0.35827812 54:0.21987017 132:0.43589253 
-111.7050958863655 85:0.058583235 86:0.0028624417 93:0.25953163 94:0.60915737 95:0.46655593 96:0.47042498 
-59.26698016252382 85:0.04957043 86:0.0024220661 97:0.27097518 122:0.32429419 127:0.35173072 
-128 16:0.25628406 92:0.071588645 
-128 114:0.26680824 
-63.23685104165768 5:0.15544636 50:0.28698886 85:0.029291618 86:0.0014312209 89:0.23064955 98:0.28698886 99:0.15544636 123:0.19316936 124:0.18462154 
-128 50:0.1913259 54:0.099940986 86:0.0028624417 92:0.016270147 98:0.1913259 123:0.12877958 124:0.12308102 
-7.862417661639407 16:0.10116476 52:0.094283716 85:0.016958305 86:0.00082860155 128:0.14742418 161:0.17153709 
-7.249350062765946 1:0.089479605 52:0.51182589 
-11.98027298905154 46:1.0111552 
-0.546959279489724 52:0.11196191 53:0.092006031 55:0.23803193 56:0.095559237 92:0.033557177 128:0.35013243 166:0.12477128 
-128 1:0.026098218 12:0.099748623 49:0.099748623 50:0.13153656 53:0.12267471 98:0.13153656 123:0.17707192 124:0.16923641 
-128 92:0.059657204 114:0.16304948 115:0.24660933 
-15.86122917773898 46:1.0111552 
-9.945996783207528 12:0.79798899 49:0.79798899 112:0.98452758 
-1.538338135821698 112:0.98452758 
-11.00358897459658 91:1.7613386 
-0.03020058475030844 90:1.8256519 91:1.1742258 
-120.2554603222508 92:0.082602283 127:0.35173072 
-3.915592523783498 83:1.2062737 85:0.2148052 86:0.01049562 
-128 120:0.26578019 175:0.25705538 
-13.81998513637164 12:0.039899449 48:0.095161597 49:0.039899449 50:0.052614624 51:0.089428834 53:0.049069883 56:0.050964927 74:0.065057496 78:0.13850282 86:0.001574343 92:0.017897161 93:0.047580798 98:0.052614624 109:0.064263695 114:0.048914844 121:0.35104311 127:0.076208323 
-19.2342638430926 1:0.05124741 11:0.11543166 16:0.13979131 17:0.058818095 56:0.1111962 92:0.019524176 
-128 1:0.082415425 54:0.11572114 
-22.4853275439853 91:1.7613386 
-7.28334940886976 85:0.1611039 86:0.0078717148 87:0.99485892 88:0.9915909 
-128 52:0.17913906 74:0.19517249 92:0.053691484 114:0.14674453 116:0.2075643 
-128 52:0.17913906 74:0.19517249 92:0.053691484 114:0.14674453 116:0.2075643 
-128 52:0.17913906 74:0.19517249 92:0.053691484 114:0.14674453 116:0.2075643 
-3.930766984263389 16:0.12987368 46:0.01366426 74:0.052749321 86:0.0031912357 89:0.022857163 92:0.0072556059 114:0.059491026 115:0.029993027 118:0.024899974 125:0.05413654 186:0.042673736 
-128 15:0.08769104 50:0.08769104 54:0.061075047 86:0.0026239049 92:0.029828602 98:0.08769104 123:0.11804794 124:0.11282427 
-100.3778837309002 1:0.072271988 46:0.15556234 48:0.21960369 74:0.30026537 116:0.31932969 
-0.1693369747644813 83:1.2062737 85:0.2148052 86:0.01049562 
-44.87294651252478 54:0.31410024 
-128 16:0.16017754 54:0.09161257 56:0.12741232 86:0.0026239049 92:0.044742903 114:0.12228711 
-15.6022980364639 83:1.2062737 91:1.1742258 
-58.63174140003764 1:0.056941567 48:0.25953163 50:0.28698886 98:0.28698886 100:0.57856899 
-14.92276798281858 39:0.070628919 46:0.042131468 50:0.13153656 56:0.063706158 86:0.0039358574 89:0.035238126 92:0.022371452 98:0.13153656 128:0.23342162 
-91.53207941800919 46:0.1263944 53:0.18401206 119:0.2774355 
-32.63702464927453 39:0.14125784 85:0.02685065 86:0.0013119525 119:0.184957 
-6.82377441073747 46:1.0111552 
-128 46:0.22470116 127:0.50805549 
-0.01906468654260799 83:0.90470528 90:1.3692389 91:0.88066932 
-128 15:0.1262751 85:0.025776624 86:0.0025189487 123:0.33997808 124:0.3249339 
-3.476721783869968 29:0.47491369 136:0.54976825 
-0.6357490150145046 83:3.6188211 
-4.642489924765854 29:0.26202135 46:0.069734844 182:0.23105969 
-39.48396265327328 86:0.0012594744 92:0.042953187 101:0.15517409 173:0.52147276 
-128 29:0.23745684 92:0.067114355 123:0.26560788 
-47.3226690650038 50:0.061899557 73:0.093800167 85:0.0126356 86:0.0049391151 97:0.069072104 98:0.061899557 123:0.16665592 124:0.15928132 
-128 1:0.008699406 29:0.10553638 85:0.017900433 86:0.00087463497 120:0.16980401 164:0.10981834 
-128 15:0.067167605 50:0.067167605 74:0.16610425 85:0.01371097 86:0.0033496659 98:0.067167605 121:0.11203503 123:0.1808394 124:0.17283718 
-128 15:0.083075722 54:0.057860571 74:0.10272236 117:0.10240338 123:0.1118349 124:0.10688615 125:0.10542379 
-119.8519377991593 92:0.09762088 128:0.50928353 
-128 39:0.2607837 50:0.24283673 79:0.44809711 98:0.24283673 
-1.584776849446503 12:0.1595978 13:0.28331507 29:0.2532873 49:0.1595978 53:0.19627953 91:0.23484515 
-47.3570306634327 1:0.044739802 111:0.55590406 
-84.50407256714536 29:0.1809195 46:0.192601 114:0.1397567 119:0.21137943 164:0.37652002 166:0.19012766 
-128 1:0.048181326 5:0.26306307 8:0.3776132 29:0.29225458 99:0.26306307 
-14.10538893668589 1:0.028470783 29:0.34539177 53:0.26765391 92:0.09762088 
-50.65898061527258 15:0.053506397 22:0.075369298 29:0.064395077 39:0.057460815 52:0.060725105 56:0.051828739 86:0.0042694046 92:0.018200503 105:0.075369298 117:0.065954719 123:0.14405851 124:0.13768386 125:0.13580013 
-128 29:0.27137925 
-44.02839081494662 1:0.039147327 5:0.42747749 29:0.47491369 86:0.0039358574 99:0.42747749 
-128 119:0.63413829 
-128 15:0.06862777 56:0.066475991 86:0.0027379877 92:0.023344123 117:0.084594096 123:0.27715604 124:0.26489177 125:0.087089216 
-65.3918362448902 92:0.041301142 114:0.11288041 115:0.17072954 117:0.14966648 
-18.04153327152763 91:1.7613386 
-0.3085028114071859 29:0.23745684 139:0.25475391 141:0.25475391 144:0.28146916 145:0.27364646 
-128 29:0.31660913 
-0.7476198890090678 83:0.72376423 85:0.12888312 86:0.0062973718 87:0.79588714 88:0.79327272 
-15.86804808434624 90:1.8256519 91:1.1742258 
-128 52:0.13779928 92:0.041301142 117:0.14966648 123:0.326902 124:0.31243644 
-128 123:0.70828767 124:0.67694563 
-41.44084017107392 85:0.3222078 86:0.01574343 
