svm_type c_svc
kernel_type rbf
gamma 0.125
nr_class 2
total_sv 502
rho 9.82477
label 1 -1
nr_sv 215 287
SV
1301.701779538032 1:0.028470783 9:0.43489168 39:0.30819892 
2048 10:0.12155766 11:0.10581235 14:0.19417541 39:0.11300627 
449.0389672327719 1:0.034797624 12:0.13299816 14:0.32362569 49:0.13299816 53:0.16356628 90:0.30427532 91:0.19570429 
2048 1:0.052196436 
2048 1:0.019573664 20:0.21913425 23:0.2774355 24:0.29898803 148:0.17581255 
1431.576373737129 1:0.056941567 22:0.20212675 36:0.45584838 56:0.27799051 105:0.20212675 
283.2213400612879 2:0.46146502 12:0.19949725 35:0.43880388 49:0.19949725 86:0.0026239049 
2048 13:0.16998904 85:0.025776624 
2048 1:0.028470783 35:0.23934757 46:0.091923203 53:0.13382695 87:0.18088344 88:0.18028925 
2048 1:0.041757149 54:0.14658011 189:0.25112495 
2048 1:0.022369901 31:0.13415329 39:0.12107815 86:0.0011245307 
2048 45:0.25100693 89:0.099495885 92:0.063166452 164:0.23255648 
1202.897763339625 1:0.043197051 20:0.12090165 53:0.1015239 106:0.12836411 
2048 1:0.029826535 11:0.1511605 
65.74508960818984 12:0.14082159 38:0.38343586 39:0.19942283 40:0.24606086 41:0.29718073 49:0.14082159 56:0.17987621 
2048 9:0.47838085 85:0.064441559 86:0.0031486859 
2048 11:0.11756928 21:0.11713609 22:0.082347937 105:0.082347937 
2048 1:0.024090663 11:0.081394118 53:0.075492128 56:0.078407579 
2048 1:0.010799263 11:0.10946105 21:0.10905774 22:0.076668769 54:0.075817299 92:0.03702861 105:0.076668769 
2048 1:0.010799263 11:0.10946105 21:0.10905774 22:0.076668769 54:0.075817299 92:0.03702861 105:0.076668769 
2048 20:0.26970369 
2048 17:0.10435468 21:0.10202176 22:0.071722397 85:0.041575199 86:0.0020314103 105:0.071722397 
79.26929820867538 10:0.60778832 11:0.52906176 119:0.739828 
1806.808496868712 12:0.11399843 13:0.20236791 41:0.24057488 49:0.11399843 
2048 1:0.029826535 12:0.11399843 13:0.20236791 49:0.11399843 
1265.082250174554 1:0.055266815 2:0.32574002 
2048 1:0.026098218 11:0.13226544 189:0.15695309 
793.9856025245778 1:0.023198416 11:0.11756928 43:0.16004389 175:0.2189731 
54.20089225546312 1:0.016198894 11:0.10946105 26:0.21079119 27:0.10742634 28:0.074825467 31:0.064763657 43:0.074503189 46:0.034867422 
2048 1:0.037581434 20:0.14024592 24:0.19135234 85:0.025776624 86:0.0012594744 
2048 43:0.25418735 85:0.037906799 86:0.0018521682 
2048 20:0.1845341 22:0.11702075 85:0.03391661 86:0.0016572031 105:0.11702075 
1108.731466397062 11:0.10946105 20:0.12090165 74:0.13460172 97:0.12147163 107:0.16495891 
2048 20:0.25043914 22:0.15881388 105:0.15881388 
2048 21:0.26355621 22:0.18528286 105:0.18528286 
296.7072127882579 11:1.5871853 
2048 1:0.022369901 
2048 1:0.062635723 91:0.35226773 
2048 1:0.028470783 17:0.098030158 20:0.10624691 92:0.032540293 
889.7680454049938 1:0.012527145 11:0.12697482 44:0.4984582 45:0.34136942 46:0.16178484 
640.9576689883844 18:0.58850759 91:0.58711288 
1628.863100673532 1:0.039147327 20:0.21913425 22:0.13896214 91:0.22016733 105:0.13896214 
1975.111823709939 12:0.19949725 13:0.35414383 49:0.19949725 52:0.2985651 92:0.089485807 
615.2220337107038 1:0.060226657 17:0.12442289 28:0.16691835 
2048 20:0.21913425 159:0.23814746 
2048 20:0.21913425 159:0.23814746 
2048 1:0.028470783 20:0.31874073 
36.23753671850739 32:1.4223726 45:1.4223726 
2048 1:0.015658931 52:0.17913906 53:0.14720965 166:0.19963405 
2048 11:0.11756928 12:0.088665443 14:0.21575046 36:0.18571601 49:0.088665443 86:0.00116618 
2048 1:0.034797624 46:0.11235058 91:0.097852147 169:0.28995148 
2048 1:0.055266815 20:0.206244 22:0.1307879 91:0.20721631 105:0.1307879 
2048 1:0.034797624 22:0.061760953 83:0.10052281 105:0.061760953 
2048 1:0.034797624 22:0.061760953 83:0.10052281 105:0.061760953 
2048 11:0.10581235 22:0.074113143 42:0.17552155 43:0.1440395 105:0.074113143 
1260.384204753472 24:0.32991783 136:0.15166021 
2048 23:0.2336299 24:0.25177939 85:0.03391661 86:0.0016572031 
2048 1:0.033857148 20:0.094760756 23:0.23994422 91:0.095207494 
2048 23:0.16440622 89:0.062645557 
896.1424785682547 23:0.24660933 24:0.26576714 153:0.19524325 166:0.22181561 
2048 1:0.052196436 
2048 11:0.19839816 
2048 11:0.099199081 46:0.063197202 164:0.12354563 
1764.685612445273 22:0.11116971 23:0.2219484 24:0.23919042 105:0.11116971 
934.5883238094823 20:0.26970369 22:0.17103033 54:0.1691309 105:0.17103033 189:0.28975956 
2048 11:0.13801611 52:0.1557731 85:0.028018069 86:0.0013689939 
2048 1:0.036844543 17:0.19029384 189:0.22158084 
2048 1:0.025054289 17:0.12939981 32:0.17068471 85:0.025776624 86:0.0012594744 113:0.12107861 
2048 1:0.036135994 32:0.082059957 36:0.096429465 91:0.067743794 
2048 1:0.0034415233 10:0.040073955 32:0.046891404 39:0.11176444 
2048 47:0.13138386 85:0.028640693 86:0.001399416 
1407.370645147947 47:0.34778081 
2048 20:0.26970369 
2048 11:0.11756928 22:0.082347937 74:0.14457221 105:0.082347937 
2048 1:0.024090663 23:0.17072954 
21.72931202680402 17:3.2349952 
2048 32:0.099235297 92:0.024972783 
2048 32:0.099235297 92:0.024972783 
2048 32:0.099235297 92:0.024972783 
2048 1:0.036844543 17:0.19029384 46:0.11895944 
2048 1:0.042706175 17:0.29409047 
2048 1:0.034797624 
2048 17:0.11553554 89:0.060408216 
2048 1:0.014235392 89:0.076883184 
2048 1:0.010799263 17:0.055775779 107:0.082479457 189:0.064946108 
164.3605046178401 11:0.052906176 32:0.071118629 36:0.16714441 44:0.10384546 46:0.033705174 84:0.044412035 154:0.1001264 189:0.12556247 
2048 1:0.029360495 20:0.10956712 89:0.052857189 
2048 1:0.037961044 20:0.10624691 53:0.08921797 
10.72351527805914 47:5.9122737 
429.3615440354311 20:0.26970369 23:0.34145908 
2048 12:0.095758678 17:0.12939981 19:0.17139269 49:0.095758678 
149.1196307635709 12:0.099748623 17:0.13479147 19:0.35706811 49:0.099748623 92:0.044742903 
2048 11:0.10946105 76:0.16204314 
2048 10:0.12155766 11:0.10581235 110:0.1182665 113:0.10089884 
2048 85:0.03391661 86:0.0016572031 
249.0492282484159 1:0.044739802 24:0.68340121 
2048 47:0.25705538 85:0.028018069 86:0.0013689939 
2048 1:0.089479605 
2048 85:0.03391661 86:0.0016572031 
2048 1:0.052196436 17:0.26958293 
2048 1:0.023198416 11:0.05878464 23:0.082203111 92:0.019885735 107:0.088589046 
2048 1:0.034797624 17:0.17972196 186:0.050124706 
1859.819695898794 17:0.12442289 19:0.16480067 29:0.14612729 186:0.034701719 
2048 1:0.034797624 85:0.035800866 86:0.0017492699 88:0.22035353 89:0.093968335 
2048 1:0.029826535 17:0.077023695 19:0.10201946 85:0.015343228 86:0.00074968712 113:0.1441412 
1957.922435706817 32:0.21335589 36:0.25071661 
1875.174711906908 12:0.21763336 29:0.34539177 49:0.21763336 53:0.26765391 92:0.09762088 
2048 1:0.019573664 
2048 1:0.039147327 53:0.36802413 
2048 11:0.092010742 39:0.049133161 40:0.06062369 54:0.031865242 113:0.043869062 118:0.053408641 
2048 1:0.023488396 17:0.08087488 46:0.050557762 85:0.01611039 86:0.00078717148 89:0.042285751 
2048 1:0.023488396 17:0.08087488 46:0.050557762 85:0.01611039 86:0.00078717148 89:0.042285751 
935.7759959879829 1:0.058720991 5:0.21373874 8:0.30681073 99:0.21373874 
604.4043824370723 17:0.35944391 
1012.005020601781 5:0.56996998 12:0.39899449 49:0.39899449 99:0.56996998 
705.2961430763298 1:0.034797624 7:0.80128408 53:0.32713256 
2048 1:0.023198416 2:0.20509557 4:0.21004117 85:0.023867244 86:0.0023323599 
2048 1:0.019573664 5:0.21373874 99:0.21373874 
2048 1:0.052196436 10:0.30389416 92:0.089485807 
2048 1:0.069595248 
100.5897356959159 1:0.039147327 19:0.53560217 25:0.77884094 
2048 1:0.034797624 
2048 24:0.15946028 90:0.18256519 
385.3984623329343 23:0.2959312 24:0.31892057 77:0.18591387 85:0.042961039 86:0.0020991239 
2048 1:0.044739802 86:0.0022490614 
2048 1:0.034797624 
877.2972690316545 20:0.21913425 23:0.2774355 76:0.29370319 
2048 17:0.16174976 46:0.10111552 85:0.03222078 86:0.001574343 
2048 1:0.040849385 20:0.15244122 
2048 1:0.034797624 
2048 1:0.039147327 17:0.2021872 
2048 11:0.21162471 85:0.042961039 86:0.0020991239 
1929.27649311963 1:0.018422272 9:0.2814005 43:0.25418735 85:0.037906799 86:0.0055565045 
2048 1:0.018422272 9:0.2814005 43:0.25418735 85:0.037906799 86:0.0055565045 
1972.029274243533 32:0.22458514 91:0.18540407 
2048 23:0.2219484 24:0.23919042 
1383.19839585247 1:0.044739802 5:0.4885457 99:0.4885457 
2048 1:0.021353087 32:0.1939599 91:0.080060847 
2048 1:0.019573664 85:0.020137987 86:0.00098396434 183:0.10880798 
2048 1:0.092111358 
2048 1:0.092111358 
2048 1:0.022369901 46:0.072225374 53:0.10514975 54:0.07852506 103:0.26184129 
2048 1:0.012527145 8:0.19635887 53:0.11776772 92:0.042953187 
2048 1:0.062635723 
269.5072084141283 10:0.48623066 11:0.21162471 
130.3241999117863 11:0.28857914 52:0.32570738 
2045.290149441402 11:0.28857914 52:0.32570738 
932.4381903898718 11:0.28857914 22:0.20212675 102:0.262694 105:0.20212675 
21.85690044816727 32:4.2671178 
2048 1:0.023725653 11:0.048096524 22:0.033687792 32:0.1293066 91:0.053373898 102:0.043782334 105:0.033687792 
2048 1:0.023198416 32:0.1580414 46:0.074900387 91:0.13046953 
983.5556485598476 1:0.0081345095 5:0.088826491 12:0.12436192 13:0.11038249 46:0.026263772 49:0.12436192 86:0.00040892025 99:0.088826491 147:0.098922362 
2048 1:0.014737817 8:0.11550522 12:0.14082159 13:0.099993553 14:0.068532498 49:0.14082159 85:0.0075813599 86:0.00037043364 
2048 1:0.062635723 5:0.68396398 99:0.68396398 
2048 1:0.012527145 9:0.19135234 92:0.042953187 
2048 1:0.019573664 11:0.099199081 92:0.033557177 
2048 11:0.31743706 92:0.10738297 186:0.09022447 
1861.407978018617 1:0.024724628 28:0.34262188 93:0.075127576 112:0.077725862 
2048 8:0.1888066 9:0.18399263 92:0.041301142 
2048 1:0.020878574 5:0.056996998 8:0.081816194 46:0.033705174 53:0.049069883 85:0.01074026 86:0.00052478098 88:0.06610606 89:0.028190501 95:0.085535253 96:0.08624458 99:0.056996998 
2048 11:0.18672768 46:0.11895944 
2048 1:0.018790717 11:0.063487412 
2048 4:0.082190025 12:0.034695173 13:0.061590232 49:0.034695173 52:0.051924365 85:0.0093393564 86:0.0013689939 87:0.057672981 88:0.05748353 103:0.053127219 
2048 1:0.016483085 42:0.27713929 92:0.056517352 108:0.2101411 
2048 1:0.056091692 17:0.048283511 22:0.033184989 91:0.052577273 105:0.033184989 
2048 1:0.082415425 54:0.11572114 
2048 1:0.019573664 46:0.1263944 85:0.040275974 
2048 1:0.028470783 12:0.05440834 20:0.15937036 22:0.10106338 33:0.10502931 46:0.045961601 49:0.05440834 53:0.066913477 91:0.080060847 105:0.10106338 112:0.13425376 
2048 17:0.23107109 
2048 1:0.0052196436 6:0.10607098 12:0.039899449 46:0.033705174 49:0.039899449 54:0.073290056 85:0.01074026 86:0.00052478098 113:0.050449422 
2048 1:0.029826535 
2048 1:0.031317862 5:0.34198199 29:0.37993095 99:0.34198199 
2048 1:0.018422272 9:0.2814005 12:0.14082159 46:0.11895944 49:0.14082159 85:0.037906799 86:0.0018521682 
2048 1:0.024090663 
1876.513542263895 2:0.32574002 4:0.33359481 92:0.063166452 
32.40857907137269 1:0.020878574 10:0.24311533 20:0.2337432 54:0.14658011 92:0.071588645 107:0.31892057 
2048 1:0.045932864 5:0.045597599 10:0.048623066 12:0.063839119 46:0.026964139 49:0.063839119 53:0.039255907 99:0.045597599 
2048 1:0.040151105 41:0.12954032 83:0.092790286 
2048 12:0.099748623 49:0.099748623 53:0.12267471 85:0.02685065 86:0.0026239049 113:0.12612355 
2048 35:0.29253592 114:0.16304948 
2048 1:0.026098218 46:0.16852587 
2048 1:0.013616462 28:0.18869031 92:0.046688247 112:0.12841664 158:0.20092563 
2048 1:0.039147327 
2048 1:0.019573664 11:0.099199081 52:0.11196191 83:0.11308816 92:0.033557177 
2048 1:0.026465799 12:0.033717844 22:0.062630825 49:0.033717844 85:0.0090762759 86:0.00044347689 88:0.055864276 89:0.023822958 105:0.062630825 
2048 11:0.12697482 83:0.14475285 103:0.14663112 
1469.198025825053 1:0.031317862 52:0.35827812 53:0.2944193 
2048 11:0.26453088 92:0.089485807 125:0.33384199 
2048 1:0.036844543 17:0.19029384 
2048 1:0.017398812 32:0.2370621 92:0.059657204 
2048 1:0.016483085 53:0.15495753 92:0.056517352 
2048 1:0.050108579 17:0.12939981 
2048 1:0.0080302209 53:0.075492128 
2048 1:0.043197051 11:0.10946105 189:0.12989222 
1265.39381273259 1:0.011599208 11:0.11756928 22:0.082347937 28:0.16073619 45:0.1580414 85:0.023867244 86:0.00116618 88:0.14690236 89:0.062645557 101:0.14367971 105:0.082347937 
2048 92:0.071588645 
2048 10:0.1458692 11:0.12697482 22:0.17787154 105:0.17787154 112:0.11814331 
2048 1:0.046976792 
423.904175615364 10:0.45584124 11:0.39679632 12:0.29924587 14:0.7281578 49:0.29924587 
2048 11:0.21162471 
1384.936875842899 1:0.062635723 17:0.21566635 39:0.22601254 
2048 11:0.10239905 39:0.10936091 86:0.0010157051 189:0.24302414 
2048 1:0.014913267 11:0.1511605 46:0.096300498 85:0.030686457 86:0.0014993742 
2048 1:0.036844543 17:0.19029384 22:0.1307879 105:0.1307879 
2048 11:0.17635392 
2048 1:0.010799263 11:0.10946105 46:0.069734844 77:0.096162348 186:0.031111886 
1706.763894030337 1:0.08541235 17:0.29409047 46:0.18384641 
2048 1:0.021598525 17:0.11155156 86:0.0010857538 186:0.031111886 
2048 1:0.044739802 23:0.31706914 159:0.27216853 
106.5927214113091 1:0.048181326 5:0.26306307 8:0.3776132 29:0.29225458 99:0.26306307 
2048 1:0.028470783 5:0.077723179 27:0.14160744 28:0.098633571 29:0.086347944 39:0.077049729 92:0.02440522 99:0.077723179 
2048 1:0.015658931 29:0.18996548 53:0.14720965 85:0.03222078 86:0.001574343 
2048 1:0.052196436 53:0.24534942 92:0.089485807 
2048 1:0.047451305 5:0.10363091 48:0.086510543 54:0.066627324 99:0.10363091 103:0.11108419 
253.9163232780195 1:0.044739802 35:0.75223523 
-2048 189:0.34244311 
-96.30463466857103 1:0.042706175 17:0.14704524 36:0.22792419 93:0.12976581 109:0.17526462 
-1358.73060202185 85:0.035800866 86:0.0017492699 114:0.16304948 189:0.20927079 
-2048 20:0.26970369 
-14.87902125194811 5:0.42747749 99:0.42747749 114:0.36686133 117:0.48641605 
-647.8742413422759 22:0.37056572 105:0.37056572 
-2048 12:0.26599633 49:0.26599633 
-632.6337830199012 85:0.042961039 86:0.0020991239 164:0.26356401 
-4.587285813477925 17:0.21566635 19:0.28565449 56:0.20385971 
-979.3303789069607 17:0.21566635 19:0.28565449 56:0.20385971 
-1053.390810664264 1:0.034041154 15:0.06862777 20:0.15244122 22:0.096669317 53:0.25601678 92:0.023344123 105:0.096669317 
-2048 1:0.012045331 2:0.21298386 5:0.065765767 35:0.20252487 86:0.001211033 92:0.020650571 99:0.065765767 
-2048 11:0.13801611 
-2048 32:0.42671178 86:0.0031486859 
-2048 17:0.068829685 18:0.15025726 19:0.091166326 39:0.072131662 86:0.0013398663 113:0.064403517 
-35.56617739020761 28:0.39453428 92:0.09762088 
-30.22862432806667 8:0.31670785 27:0.20099121 91:0.11363475 112:0.095276863 149:0.18532967 
-83.82693343747842 85:0.3222078 86:0.01574343 
-2048 1:0.052196436 
-2048 1:0.020424692 5:0.074343911 35:0.11447058 41:0.10982766 52:0.077886548 53:0.064004196 54:0.047797863 86:0.00068449694 92:0.023344123 99:0.074343911 103:0.079690829 
-2048 9:0.2814005 12:0.14082159 49:0.14082159 85:0.037906799 86:0.0018521682 
-799.8612917342587 1:0.078294654 53:0.73604825 186:0.22556117 
-2048 13:0.2124863 
-2048 20:0.292179 22:0.18528286 86:0.0026239049 105:0.18528286 
-1245.886648129633 103:0.28198293 
-172.1420642631888 20:0.08990123 21:0.4054711 92:0.027534094 
-925.2460249052286 85:0.037906799 87:0.23408445 88:0.23331551 
-737.1214605067682 1:0.039147327 27:0.38942047 28:0.27124232 86:0.0019679287 92:0.067114355 
-3.129790096966999 85:0.3222078 86:0.01574343 
-448.9042786387552 1:0.022369901 85:0.046029685 86:0.0022490614 
-2048 11:0.35270784 86:0.0034985399 
-1907.350079854079 85:0.035800866 86:0.0017492699 89:0.093968335 164:0.21963668 
-2048 1:0.018980522 2:0.16780546 4:0.17185187 5:0.10363091 12:0.14508891 49:0.14508891 85:0.019527745 86:0.00095414724 99:0.10363091 
-40.20325566878373 20:0.13485185 22:0.085515165 91:0.13548759 105:0.085515165 159:0.14655228 
-13.57679404156439 154:0.85822628 
-1186.548472564184 24:0.21744584 158:0.21005862 
-744.7200612013787 1:0.031317862 20:0.3506148 159:0.38103594 
-2048 23:0.24660933 24:0.26576714 85:0.035800866 86:0.0052478098 159:0.21168663 
-87.34933648231014 20:0.31874073 159:0.3463963 189:0.34244311 
-2048 17:0.28544075 20:0.103122 22:0.06539395 105:0.06539395 
-225.6309810401872 17:0.11981464 20:0.25971466 23:0.16440622 73:0.17717809 86:0.0058308998 
-2048 1:0.053996313 
-2048 1:0.019573664 2:0.17304938 4:0.17722224 5:0.10686937 12:0.14962293 49:0.14962293 85:0.020137987 86:0.00098396434 99:0.10686937 
-2048 1:0.022369901 46:0.14445075 53:0.2102995 85:0.046029685 86:0.0022490614 
-1932.097226793944 32:0.085342355 45:0.17068471 46:0.040446209 86:0.0025189487 186:0.036089788 
-510.7685239383961 8:0.25836693 12:0.12599826 13:0.22366979 49:0.12599826 53:0.15495753 92:0.056517352 93:0.15025515 
-182.5436160043747 1:0.013049109 52:0.14928255 53:0.12267471 54:0.09161257 76:0.19580213 85:0.02685065 86:0.0013119525 166:0.1663617 
-2048 1:0.032397788 53:0.20304779 54:0.1516346 76:0.16204314 85:0.022221227 86:0.0010857538 166:0.13767865 
-1816.203461419315 1:0.039147327 85:0.040275974 86:0.0019679287 169:0.32619541 
-2048 1:0.050108579 17:0.25879962 32:0.17068471 46:0.080892418 86:0.0025189487 
-2048 1:0.062635723 
-190.9189027514482 1:0.027232923 46:0.17585308 53:0.25601678 77:0.12124818 92:0.046688247 
-2048 1:0.041072605 12:0.03924536 49:0.03924536 91:0.057748808 112:0.048419389 
-2048 1:0.03296617 
-2048 1:0.034797624 
-2048 1:0.046976792 
-2048 11:0.15871853 45:0.21335589 86:0.0031486859 
-2048 21:0.19766716 22:0.13896214 85:0.040275974 86:0.0019679287 105:0.13896214 
-2048 11:0.21162471 92:0.071588645 
-330.7460782526669 20:0.14024592 23:0.17755872 25:0.2492291 77:0.22309665 86:0.0012594744 
-2048 1:0.017398812 11:0.17635392 46:0.11235058 52:0.1990434 
-2048 17:0.16174976 19:0.21424087 46:0.10111552 56:0.15289478 
-2048 11:0.11337038 39:0.12107815 86:0.0022490614 92:0.03835106 
-2048 17:0.17026291 46:0.10643739 
-2048 11:0.064783073 17:0.13204062 46:0.082543284 92:0.021914891 
-2048 1:0.038192514 17:0.23670697 46:0.098649291 92:0.026190968 
-2048 20:0.15244122 22:0.096669317 46:0.087926542 86:0.0027379877 105:0.096669317 
-2048 1:0.013616462 11:0.069008056 17:0.070325983 22:0.048334659 86:0.0047914785 92:0.023344123 105:0.048334659 159:0.082833899 189:0.08188857 
-141.8524545273881 44:1.2461455 45:0.85342355 46:0.40446209 
-28.56766275270709 85:0.3222078 86:0.01574343 
-1128.437924622933 11:0.11337038 20:0.12521957 36:0.17908329 74:0.13940892 92:0.03835106 
-2048 1:0.025565601 9:0.097628745 17:0.13204062 86:0.0012851779 89:0.069037961 92:0.021914891 
-460.3924326391133 17:0.064699904 18:0.14124182 19:0.085696347 39:0.067803762 46:0.040446209 86:0.0012594744 
-2048 1:0.028470783 20:0.079685181 23:0.30265691 24:0.32616876 92:0.02440522 
-85.61965349088534 1:0.044739802 17:0.11553554 36:0.35816658 156:0.15177593 159:0.13608426 
-2048 1:0.053996313 17:0.22310312 90:0.18886054 92:0.03702861 
-2048 11:0.16707214 20:0.092267052 22:0.058510376 86:0.0049716093 92:0.028258676 105:0.058510376 189:0.099128269 
-2048 1:0.032622773 17:0.2021872 86:0.00065597623 92:0.022371452 97:0.07338911 189:0.078476547 
-2048 20:0.07304475 23:0.0924785 24:0.099662677 45:0.088898287 86:0.0032798811 92:0.022371452 
-947.2620484922468 20:0.07012296 21:0.18976047 22:0.13340366 85:0.012888312 86:0.0018892115 102:0.05779268 105:0.13340366 112:0.059071655 
-2048 20:0.07012296 21:0.18976047 22:0.13340366 85:0.012888312 86:0.0018892115 102:0.05779268 105:0.13340366 112:0.059071655 
-2048 23:0.2959312 
-28.27618276069619 136:0.4398146 
-2048 1:0.014235392 11:0.14428957 42:0.23934757 85:0.029291618 86:0.0014312209 
-869.5045518347716 11:0.13226544 110:0.29566626 
-2048 1:0.030703786 20:0.206244 22:0.1307879 23:0.087038588 92:0.021055484 105:0.1307879 
-2048 17:0.19409971 20:0.07012296 22:0.044467886 74:0.078068995 92:0.021476594 105:0.044467886 189:0.075337485 
-8.7332236878682 23:0.40354255 159:0.3463963 
-2048 1:0.044739802 
-2048 20:0.21249382 23:0.13451418 24:0.14496389 77:0.084506306 86:0.0019082945 
-2048 23:0.31706914 24:0.1708503 86:0.003373592 92:0.03835106 
-2048 20:0.26970369 23:0.17072954 92:0.041301142 
-2048 11:0.24418235 52:0.27559855 85:0.04957043 86:0.0024220661 
-2048 1:0.018067997 11:0.12209118 21:0.060820664 22:0.085515165 74:0.075066342 85:0.012392608 86:0.0018165496 105:0.085515165 158:0.088870953 
-2048 11:0.16707214 46:0.21287479 52:0.18856743 
-2048 11:0.070541569 17:0.071888782 32:0.094824839 86:0.0034985399 92:0.023862882 
-2048 1:0.069595248 
-469.382075933358 85:0.042961039 86:0.0020991239 113:0.20179769 114:0.19565937 
-2048 1:0.05799604 83:0.13403041 91:0.13046953 
-1813.991457380396 1:0.024090663 12:0.046037826 49:0.046037826 112:0.056799668 136:0.084579731 
-682.1978525719913 47:0.45479029 148:0.21638468 
-2048 1:0.046976792 
-2048 1:0.040410144 
-2048 1:0.040410144 
-2048 1:0.040410144 
-2048 1:0.039147327 23:0.1109742 39:0.084754702 153:0.087859462 
-2048 46:0.069734844 53:0.1015239 85:0.022221227 86:0.0010857538 
-654.2561058739176 107:0.47838085 148:0.28130008 
-2048 11:0.16707214 46:0.10643739 
-56.12761649237572 5:0.17099099 12:0.11969835 13:0.2124863 29:0.18996548 46:0.10111552 49:0.11969835 86:0.001574343 92:0.053691484 99:0.17099099 164:0.19767301 
-2048 11:0.18672768 86:0.0037043364 92:0.031583226 
-2048 11:0.10581235 46:0.067410349 86:0.0031486859 
-1776.666799127867 5:0.32060812 12:0.14962293 13:0.26560788 49:0.14962293 53:0.092006031 86:0.0019679287 92:0.033557177 99:0.32060812 
-2048 29:0.27137925 85:0.046029685 86:0.0022490614 
-2048 11:0.57715829 
-800.4566262617953 39:0.42377351 85:0.080551949 86:0.0039358574 
-2048 47:0.26873972 159:0.17319815 
-2048 1:0.036135994 88:0.15255245 
-421.3461587283037 5:0.20116588 12:0.14082159 49:0.14082159 53:0.17318782 85:0.037906799 86:0.0018521682 99:0.20116588 148:0.16547064 
-1361.583249020702 28:0.10333041 43:0.10288536 86:0.0022490614 92:0.025567373 
-2048 11:0.26453088 86:0.0026239049 
-2048 1:0.034797624 
-1046.925082503731 8:0.35064083 
-25.95018511547408 85:0.3222078 86:0.01574343 
-2048 1:0.08541235 91:0.32024339 
-2048 1:0.029826535 9:0.2278004 
-2048 1:0.025054289 9:0.19135234 
-830.4929918354205 35:0.29253592 
-189.1622577821237 5:0.16284857 89:0.080544288 99:0.16284857 112:0.070323399 136:0.10471776 137:0.11688028 
-50.54124485451296 39:0.1695094 
-2048 20:0.31874073 86:0.0014312209 92:0.04881044 
-2048 1:0.016483085 11:0.055690712 17:0.1135086 32:0.074861715 86:0.0038668072 92:0.018839117 
-2048 1:0.041757149 17:0.21566635 32:0.28447452 46:0.1348207 
-1571.806146482763 20:0.2337432 86:0.0020991239 92:0.035794323 
-7.059878039924311 12:0.099748623 48:0.118952 49:0.099748623 53:0.12267471 112:0.12306595 176:0.19811754 
-18.65465363607553 9:0.2814005 43:0.25418735 53:0.17318782 114:0.17264062 129:0.562801 132:0.25640737 
-66.39177776710903 9:0.19135234 39:0.13560752 43:0.3456948 92:0.042953187 150:0.26802924 
-2048 1:0.052196436 
-34.11794158779345 1:0.022369901 41:0.18043116 85:0.023014843 86:0.0011245307 111:0.13897601 151:0.2025397 
-1935.349736064718 5:0.85495497 99:0.85495497 
-874.1845781004807 43:0.61731214 
-55.47411061776535 5:0.22798799 40:0.27886898 50:0.2104585 98:0.2104585 99:0.22798799 
-372.8729977874546 102:0.11113977 107:0.18399263 119:0.17072954 
-2048 8:0.22313507 39:0.15409946 
-533.7727997269054 17:0.17026291 32:0.22458514 40:0.22015972 86:0.0066288124 92:0.056517352 
-2.675532371621092 102:0.48160567 107:0.79730142 
-95.29516302664301 102:0.48160567 107:0.79730142 
-994.4493966900562 1:0.048181326 7:0.55473513 53:0.22647639 54:0.1691309 
-1897.250499287089 1:0.044739802 9:0.68340121 
-688.0297896046682 5:0.23584965 8:0.16927488 12:0.33020234 13:0.29308455 49:0.33020234 92:0.03702861 93:0.098443031 99:0.23584965 
-2.304428698469773 1:0.044739802 52:0.12795647 103:0.13092065 133:0.15116541 
-2048 1:0.078294654 85:0.053701299 86:0.0026239049 
-287.5555543693343 91:0.29355644 113:0.25224711 
-2048 20:0.12090165 85:0.022221227 86:0.0010857538 106:0.064182056 159:0.1313917 
-256.8689535972065 28:0.39453428 92:0.09762088 
-2048 1:0.023198416 39:0.12556252 86:0.00116618 113:0.11210983 
-2048 43:0.288079 
-3.491874159810022 1:0.046396832 58:0.19683099 
-2048 11:0.063487412 17:0.12939981 20:0.07012296 22:0.044467886 36:0.10028664 52:0.071655624 86:0.0012594744 92:0.021476594 105:0.044467886 
-2048 1:0.052196436 12:0.079798899 14:0.19417541 28:0.14466257 43:0.1440395 49:0.079798899 92:0.035794323 
-2048 1:0.062635723 
-2048 11:0.054730527 32:0.073570996 36:0.25936201 52:0.12354418 86:0.0016286306 92:0.018514305 102:0.049821276 112:0.05092384 
-2048 1:0.027962376 85:0.011507421 86:0.00056226534 87:0.071061351 88:0.070827921 
-793.4418255476414 1:0.089479605 52:0.51182589 
-2048 1:0.062635723 
-2048 1:0.039147327 
-2048 20:0.14024592 23:0.17755872 24:0.57405702 
-2048 1:0.021598525 5:0.11792482 46:0.069734844 86:0.0010857538 99:0.11792482 
-480.0158568099889 11:0.15871853 28:0.10849693 52:0.08956953 92:0.026845742 116:0.10378215 
-7.917326662792836 12:0.79798899 49:0.79798899 112:0.98452758 
-518.6100811259049 1:0.014566447 16:0.089401416 107:0.11125136 
-42.06109154047263 39:0.28251567 83:0.30156843 
-2048 11:0.0857938 86:0.00085099619 
-2048 11:0.0857938 86:0.00085099619 
-1141.499030263097 1:0.019573664 125:0.2503815 
-1702.791916708624 1:0.036844543 91:0.20721631 
-0.008150270280573411 90:1.8256519 91:1.1742258 
-267.9097296026586 1:0.0045388205 8:0.071144517 43:0.12525174 114:0.042534647 128:0.081190128 175:0.085685127 
-698.0271544465974 11:0.12697482 86:0.0025189487 92:0.042953187 186:0.072179576 
-201.2502919111323 39:0.096862517 144:0.12867162 145:0.12509553 147:0.2176292 157:0.14663186 
-94.42000212623502 1:0.036135994 46:0.077781172 84:0.10248931 85:0.024785215 86:0.001211033 125:0.15408092 
-1166.544730570526 1:0.024090663 2:0.14198924 4:0.14541312 9:0.12266176 12:0.061383768 13:0.10896733 31:0.096315183 49:0.061383768 86:0.00080735536 92:0.027534094 
-2048 1:0.078294654 
-164.7776957831495 12:0.47879339 49:0.47879339 86:0.0062973718 
-500.6994051459447 1:0.033554852 91:0.1258099 
-936.8646135048144 1:0.011599208 5:0.12666 48:0.10573511 54:0.081433396 99:0.12666 
-1090.946265768169 1:0.010616224 39:0.057460815 54:0.03726613 90:0.092829757 
-2048 11:0.39679632 85:0.080551949 86:0.0078717148 
-2048 1:0.020205072 9:0.1543164 12:0.077224741 43:0.13939306 49:0.077224741 85:0.0207876 86:0.0010157051 
-1918.197814441166 1:0.034797624 108:0.22181561 
-2048 1:0.03296617 
-2048 1:0.072271988 17:0.12442289 22:0.085515165 92:0.041301142 105:0.085515165 
-2048 1:0.10439287 
-2048 28:0.11420729 
-1523.108315671613 8:0.16927488 83:0.12478694 
-2048 1:0.020878574 20:0.2337432 
-2048 1:0.0089479605 28:0.12399649 46:0.028890149 56:0.043684223 85:0.009205937 86:0.00044981227 87:0.056849081 88:0.056662337 
-2048 1:0.022054832 2:0.077994089 4:0.079874813 5:0.048166477 9:0.067377584 10:0.051362393 12:0.033717844 13:0.059855296 31:0.052905523 46:0.028483246 49:0.033717844 53:0.082935014 54:0.030967629 86:0.0022173844 92:0.015124362 99:0.048166477 103:0.051630678 186:0.050830687 
-21.39605304610334 85:0.3222078 86:0.01574343 
-2048 1:0.022915508 28:0.10585066 85:0.015717453 86:0.00076797217 89:0.041254391 
-477.9126020263431 85:0.058583235 86:0.0028624417 88:0.36057851 89:0.15376637 
-1147.149719665907 1:0.021598525 10:0.12574931 20:0.24180331 22:0.15333754 33:0.15935481 53:0.20304779 54:0.1516346 86:0.0032572613 92:0.03702861 105:0.15333754 
-1424.003517949799 1:0.025054289 42:0.21062586 53:0.23553544 54:0.087948067 85:0.025776624 86:0.0012594744 
-2048 53:0.14720965 89:0.084571502 
-6.715599506217864 1:0.018980522 5:0.10363091 8:0.14875672 12:0.14508891 49:0.14508891 92:0.032540293 99:0.10363091 
-234.9531379720531 39:0.28251567 88:0.3305303 89:0.1409525 
-298.1013730895261 53:0.08921797 54:0.066627324 62:0.059744695 
-22.43550292472541 5:0.17099099 86:0.001574343 89:0.028190501 92:0.017897161 99:0.17099099 152:0.13093808 167:0.08238122 
-0.9316475664088324 1:0.044739802 85:0.030686457 86:0.0014993742 103:0.17456086 111:0.18530135 
-1227.676253638454 1:0.036135994 5:0.13153153 10:0.28051769 11:0.24418235 12:0.092075652 14:0.44809711 22:0.085515165 49:0.092075652 86:0.0036330991 92:0.041301142 99:0.13153153 105:0.085515165 
-2048 53:0.10904419 54:0.081433396 89:0.12529111 
-2048 10:0.16961535 11:0.14764514 76:0.10928491 86:0.0036612627 92:0.024972783 
-2048 10:0.14025884 11:0.24418235 12:0.092075652 14:0.22404855 49:0.092075652 92:0.041301142 
-2048 10:0.07442306 11:0.064783073 23:0.090591184 24:0.097628745 86:0.0038555338 92:0.021914891 
-2048 11:0.073822572 22:0.051706844 44:0.14490064 46:0.047030476 86:0.0029290101 92:0.024972783 105:0.051706844 
-311.3041851048732 1:0.026913787 46:0.0157993 90:0.042788716 91:0.027520916 
-945.8812965073053 41:0.37422759 92:0.03977147 
-2048 1:0.042706175 35:0.23934757 
-942.4499460502743 1:0.023725653 2:0.083902732 4:0.17185187 12:0.072544453 49:0.072544453 53:0.13382695 54:0.066627324 92:0.016270147 124:0.061540512 
-38.16372681403228 85:0.3222078 86:0.01574343 
-2048 1:0.093953585 91:0.35226773 
-10.85749301765654 85:0.3222078 86:0.01574343 
-222.449748464813 5:0.13153153 12:0.092075652 49:0.092075652 85:0.024785215 86:0.001211033 99:0.13153153 130:0.09657986 
-2048 1:0.021353087 22:0.050531689 91:0.080060847 105:0.050531689 
-2048 12:0.092075652 13:0.163451 22:0.085515165 49:0.092075652 86:0.001211033 105:0.085515165 
-2048 12:0.092075652 13:0.163451 22:0.085515165 49:0.092075652 86:0.001211033 105:0.085515165 
-2048 1:0.052196436 22:0.074113143 105:0.074113143 
-2048 1:0.039147327 
-2048 1:0.031317862 189:0.37668742 
-2048 1:0.024090663 10:0.14025884 22:0.085515165 46:0.077781172 53:0.11323819 105:0.085515165 
-921.2243941285882 1:0.0080302209 12:0.061383768 13:0.10896733 31:0.096315183 41:0.12954032 49:0.061383768 86:0.0032294214 
-2048 1:0.026098218 17:0.13479147 32:0.17779657 36:0.20893051 86:0.0026239049 92:0.044742903 112:0.12306595 
-687.0297456852574 1:0.031317862 54:0.21987017 103:0.36657781 
-2048 10:0.086826903 11:0.075580252 22:0.10587592 85:0.015343228 86:0.00074968712 88:0.094437229 89:0.080544288 101:0.092365529 103:0.087280431 105:0.10587592 112:0.070323399 183:0.082901316 186:0.042964033 
-43.9641449723624 12:0.14962293 21:0.19766716 22:0.27792429 49:0.14962293 105:0.27792429 
-2048 1:0.08541235 91:0.16012169 125:0.18209563 
-52.38909817969163 33:0.5776612 
-2048 47:0.19707579 
-22.85999912559254 22:0.74113143 105:0.74113143 112:0.98452758 
-27.93162797474922 1:0.040849385 5:0.14868782 10:0.31710695 11:0.41404834 12:0.10408552 14:0.50654455 49:0.10408552 92:0.046688247 99:0.14868782 119:0.19299861 
-2048 53:0.15495753 91:0.18540407 
-2048 1:0.044739802 166:0.14259575 
-760.6959148281594 1:0.013049109 10:0.15194708 39:0.28251567 
-1087.599775893436 11:0.22674076 86:0.0044981227 92:0.07670212 
-408.7634358112842 17:0.17026291 183:0.18325554 
-1744.248539887658 113:0.12612355 
-1728.803135598121 1:0.016483085 83:0.19046427 85:0.03391661 86:0.0016572031 
-2048 1:0.034797624 
-2048 1:0.10439287 
-2048 1:0.022369901 113:0.21621181 
-21.70370275519443 2:0.21298386 3:0.19285893 129:0.18399263 
-741.7833964881823 17:0.29409047 22:0.20212675 92:0.04881044 105:0.20212675 
-2048 1:0.10439287 
-2048 1:0.048181326 20:0.13485185 22:0.085515165 23:0.17072954 91:0.13548759 105:0.085515165 
-998.8213767603917 1:0.069595248 17:0.35944391 32:0.2370621 92:0.059657204 
-2048 1:0.034797624 
-456.3491745074431 6:0.39776618 42:0.32910291 54:0.13741886 86:0.0039358574 92:0.067114355 
-2048 1:0.044739802 17:0.30809478 32:0.20319608 92:0.051134747 
-1840.905132409701 8:0.086122309 85:0.011305537 86:0.00055240104 88:0.069585326 89:0.029674211 
-879.1274626113488 52:0.13779928 53:0.11323819 85:0.024785215 86:0.0024220661 95:0.19738905 96:0.19902595 
-2.792130610667228 12:0.088665443 38:0.24142258 49:0.088665443 81:0.35435618 92:0.03977147 168:0.20285021 
-2048 52:0.1557731 53:0.12800839 83:0.15734005 
-61.68433450449525 53:0.086593912 85:0.0189534 86:0.00092608409 87:0.11704223 88:0.11665775 139:0.11988419 141:0.11988419 
-1318.359157896683 1:0.031317862 89:0.072489859 
-2048 1:0.06447795 17:0.19029384 36:0.14748036 91:0.10360816 
-51.46289141712038 1:0.021232449 5:0.057963049 12:0.081151422 22:0.037684649 48:0.048387253 49:0.081151422 85:0.010922298 86:0.00053367558 95:0.086985003 96:0.087706353 99:0.057963049 104:0.076330619 105:0.037684649 112:0.050060725 113:0.051304496 
-2048 1:0.044739802 
-92.64073302435368 85:0.3222078 86:0.01574343 
-13.00970017307679 1:0.008699406 29:0.10553638 85:0.017900433 86:0.00087463497 120:0.16980401 164:0.10981834 
-2.758309336121568 1:0.03296617 12:0.062999131 49:0.062999131 90:0.14413041 91:0.092702034 191:0.27713929 
-2048 9:0.2278004 
-1.244276476364605 1:0.078294654 82:0.36057784 91:0.17613386 
-694.4027940061085 29:0.17269589 46:0.18384641 164:0.17970274 
-1.823747472604529 85:0.3222078 86:0.01574343 
-1119.97247303216 1:0.028470783 29:0.34539177 53:0.26765391 92:0.09762088 
-1502.822380019625 29:0.27137925 
-2048 1:0.039147327 
-1715.841807459365 1:0.039147327 5:0.42747749 29:0.47491369 86:0.0039358574 99:0.42747749 
-172.6921607339033 43:0.24006583 53:0.16356628 92:0.059657204 
-286.9688583027303 118:0.36851962 
-563.8987024414433 5:0.20116588 48:0.16793223 99:0.20116588 103:0.21563401 
-2048 1:0.040849385 
-1195.430663665482 21:0.21084497 22:0.14822629 86:0.0041982479 105:0.14822629 
-447.268270737667 175:0.32845965 
-14.03913042370381 85:0.3222078 86:0.01574343 
-13.38463377162667 12:0.053199266 20:0.077914399 23:0.098643734 24:0.10630686 49:0.053199266 54:0.097720075 60:0.36917202 92:0.023862882 
-3.03517737477961 90:1.8256519 91:1.1742258 
