svm_type c_svc
kernel_type rbf
gamma 0.0078125
nr_class 2
total_sv 6
rho 0.999888
label 1 -1
nr_sv 3 3
SV
0.03125 29:0.31660913 149:0.47876831 175:0.49268948 
0.03125 101:0.35266838 173:0.59258269 
0.03125 22:0.1307879 77:0.16404165 105:0.1307879 174:0.48883347 
-0.03125 22:0.14822629 105:0.14822629 
-0.03125 86:0.0012594744 92:0.042953187 101:0.15517409 173:0.52147276 
-0.03125 29:0.31660913 149:0.47876831 
