svm_type c_svc
kernel_type linear
nr_class 2
total_sv 150
rho 1.00027
label 1 -1
nr_sv 51 99
SV
8 12:0.2393967 49:0.2393967 
8 12:0.2393967 49:0.2393967 
8 5:0.21373874 99:0.21373874 139:0.25475391 141:0.25475391 
8 1:0.017895921 54:0.062820048 85:0.018411874 86:0.00089962454 112:0.084388078 139:0.11645893 141:0.11645893 
8 1:0.022369901 52:0.25591294 144:0.32167904 145:0.31273881 146:0.1689106 
8 15:0.19730484 53:0.18401206 54:0.13741886 144:0.28146916 145:0.27364646 
8 5:0.22798799 99:0.22798799 139:0.2717375 141:0.2717375 144:0.30023377 145:0.29188956 
8 1:0.0094902611 46:0.061282135 144:0.13646989 145:0.13267707 186:0.054681497 
8 1:0.0094902611 46:0.061282135 144:0.13646989 145:0.13267707 186:0.054681497 
8 1:0.019573664 58:0.16607615 85:0.020137987 86:0.00098396434 186:0.028195147 
8 1:0.034797624 54:0.12215009 144:0.25019481 145:0.2432413 
8 53:0.11323819 54:0.084565449 85:0.024785215 86:0.001211033 144:0.17321179 145:0.16839782 146:0.090951862 
8 52:0.091866185 53:0.075492128 54:0.11275393 92:0.027534094 144:0.11547453 
8 85:0.030686457 86:0.0014993742 112:0.1406468 144:0.21445269 145:0.20849254 
8 1:0.026098218 91:0.14677822 144:0.18764611 145:0.18243097 183:0.1450773 
8 53:0.10904419 144:0.16679654 145:0.16216087 
8 1:0.034797624 52:0.1990434 54:0.12215009 144:0.25019481 145:0.2432413 
8 1:0.034797624 52:0.1990434 54:0.12215009 144:0.25019481 145:0.2432413 
8 9:0.11125136 144:0.10473271 145:0.10182194 
8 139:0.45289584 141:0.45289584 155:0.58507184 
8 1:0.031317862 144:0.15011688 145:0.14594478 
8 5:0.85495497 99:0.85495497 
8 54:0.12933539 139:0.23976838 141:0.23976838 
8 92:0.02284744 139:0.17344947 140:0.25400653 141:0.17344947 186:0.019196696 
8 1:0.05051268 91:0.11363475 144:0.1452744 145:0.14123688 146:0.076282207 
8 1:0.031317862 144:0.45035065 145:0.43783434 
8 53:0.15495753 139:0.21452961 141:0.21452961 144:0.23702666 145:0.23043913 
8 39:0.10594338 53:0.092006031 89:0.052857189 144:0.14073458 145:0.13682323 156:0.13280394 
1.112234032784747 139:0.8152125 141:0.8152125 
8 1:0.031317862 52:0.35827812 
8 1:0.016928574 85:0.017416638 86:0.00085099619 140:0.10755232 145:0.11833361 146:0.063912119 
8 1:0.024090663 140:0.15305522 
8 90:0.28826083 91:0.18540407 139:0.21452961 141:0.21452961 155:0.27713929 
8 1:0.011184951 139:0.14557366 141:0.14557366 
8 139:0.58229465 141:0.58229465 
8 85:0.020137987 86:0.0019679287 87:0.12435737 88:0.12394886 101:0.12122976 103:0.11455557 139:0.12737695 141:0.12737695 188:0.22536115 
8 1:0.034797624 91:0.19570429 139:0.22644792 141:0.22644792 
8 53:0.15495753 91:0.18540407 
8 1:0.039147327 92:0.067114355 113:0.18918533 
8 46:0.15556234 139:0.31354327 141:0.31354327 155:0.40504974 
8 85:0.03222078 86:0.001574343 139:0.20380313 141:0.20380313 
8 53:0.086593912 85:0.0189534 86:0.00092608409 87:0.11704223 88:0.11665775 139:0.11988419 141:0.11988419 
8 85:0.071601732 86:0.0034985399 139:0.45289584 141:0.45289584 
8 12:0.023470264 15:0.092849336 33:0.04530676 49:0.023470264 53:0.057729275 85:0.0063177999 86:0.00061738939 87:0.039014075 88:0.038885918 89:0.082913237 95:0.050314855 96:0.050732106 139:0.079922794 141:0.079922794 166:0.03914393 
8 29:0.15197238 85:0.025776624 86:0.0012594744 144:0.18014026 145:0.17513374 146:0.094589937 
8 85:0.030686457 86:0.0014993742 139:0.19409822 141:0.19409822 
8 85:0.04957043 86:0.0024220661 139:0.31354327 141:0.31354327 
8 125:0.23565317 139:0.23976838 141:0.23976838 
8 125:0.23565317 139:0.23976838 141:0.23976838 
8 1:0.015658931 5:0.085495497 91:0.088066932 99:0.085495497 139:0.10190156 141:0.10190156 
8 1:0.019573664 85:0.020137987 86:0.00098396434 139:0.12737695 141:0.12737695 
-0.06796559031465957 5:0.42747749 99:0.42747749 114:0.36686133 117:0.48641605 
-4.016710917981905 85:0.03391661 
-0.1794519370189785 9:0.47838085 85:0.064441559 86:0.0031486859 
-0.0223009426958448 9:0.2814005 12:0.14082159 49:0.14082159 85:0.037906799 86:0.0018521682 
-1.374475068921922 1:0.078294654 53:0.73604825 186:0.22556117 
-0.002809343692695811 85:0.037906799 87:0.23408445 88:0.23331551 
-0.02426689701862855 12:0.21763336 49:0.21763336 54:0.19988197 
-0.005168686174905178 15:0.35076416 54:0.24430019 186:0.10024941 
-1.708232126104962 54:0.19988197 
-1.569325075901857 1:0.015658931 52:0.17913906 53:0.14720965 166:0.19963405 
-7.412077139308859 91:0.22016733 125:0.2503815 
-1.455905419424698 1:0.052196436 5:0.56996998 99:0.56996998 
-1.409437353596494 112:0.42194039 
-8 139:1.3586875 141:1.3586875 
-8 139:0.58229465 141:0.58229465 
-6.835077376633287 1:0.024090663 111:0.099777652 113:0.077614495 140:0.10203681 
-2.823554302498349 1:0.039147327 53:0.36802413 
-0.3136319347537853 186:0.11278059 
-2.326338938929568 39:0.42377351 155:0.65820582 
-8 53:0.10904419 76:0.17404634 85:0.023867244 86:0.00116618 139:0.15096528 141:0.15096528 
-8 5:0.56996998 12:0.39899449 49:0.39899449 99:0.56996998 
-0.2394295203489071 101:1.1083863 
-4.044384672139002 1:0.019573664 5:0.21373874 99:0.21373874 
-4.626871727371768 122:0.15614165 127:0.16935183 144:0.16679654 145:0.16216087 146:0.087583275 
-2.740802013056614 85:0.058583235 86:0.0028624417 112:0.26850752 
-7.956688783927794 122:0.15614165 127:0.16935183 144:0.16679654 145:0.16216087 146:0.087583275 
-8 15:0.15784387 53:0.14720965 54:0.10993508 86:0.0031486859 145:0.21891717 
-5.799048421078695 53:0.086593912 54:0.064667697 85:0.0189534 86:0.0027782523 183:0.20481502 
-8 9:0.099662677 22:0.046320714 86:0.0013119525 92:0.022371452 103:0.076370378 105:0.046320714 144:0.093823053 145:0.091215487 155:0.10970097 186:0.018796765 
-1.27360064934225 148:0.28130008 155:0.52656466 
-8 113:0.18918533 144:0.28146916 145:0.27364646 
-2.983193341817246 1:0.011184951 148:0.10046431 152:0.1402908 155:0.37611761 
-1.134422594298344 1:0.044739802 5:0.4885457 99:0.4885457 
-0.001658777549388135 52:0.35827812 54:0.21987017 132:0.43589253 
-0.2166357478953041 112:0.15545172 186:0.047486563 
-0.7252938955778968 12:0.19949725 49:0.19949725 
-0.01932001872026652 15:0.16615144 52:0.18856743 
-8 1:0.021598525 89:0.058325174 139:0.14055388 141:0.14055388 179:0.18688956 
-2.865170872240709 1:0.032622773 58:0.11071743 92:0.022371452 144:0.093823053 145:0.18243097 
-0.2313852656359564 125:0.13814151 
-8 1:0.044739802 92:0.07670212 139:0.29114732 141:0.29114732 
-8 1:0.013049109 89:0.070476252 92:0.044742903 144:0.18764611 145:0.18243097 155:0.21940194 
-0.0006044482600143748 12:0.79798899 49:0.79798899 112:0.98452758 
-3.505714677254621 48:0.083966115 85:0.0189534 86:0.0018521682 97:0.10360816 142:0.18325669 188:0.21210461 
-0.4418895989982599 112:0.98452758 
-2.360159735076904 1:0.062635723 5:0.68396398 99:0.68396398 
-8 89:0.076883184 92:0.04881044 109:0.17526462 139:0.37055114 141:0.37055114 
-5.928285904987411 1:0.020205072 46:0.065235821 91:0.11363475 144:0.1452744 145:0.14123688 156:0.13708794 
-8 54:0.27483771 
-8 92:0.10738297 139:0.40760625 141:0.40760625 
-4.208309635502514 39:0.096862517 144:0.12867162 145:0.12509553 147:0.2176292 157:0.14663186 
-7.988256089783045 125:0.23565317 
-8 15:0.12141836 139:0.15677164 141:0.15677164 
-8 1:0.024090663 5:0.26306307 92:0.082602283 99:0.26306307 139:0.62708654 141:0.62708654 
-8 1:0.052196436 144:0.37529221 145:0.36486195 
-8 1:0.078294654 144:0.56293832 145:0.54729292 
-8 91:0.29355644 144:0.37529221 145:0.36486195 
-8 1:0.037581434 144:0.18014026 145:0.17513374 
-8 5:0.058962412 12:0.041275292 49:0.041275292 50:0.054428921 51:0.092512587 86:0.004343015 92:0.018514305 98:0.054428921 99:0.058962412 121:0.18157402 139:0.21083082 140:0.27444384 141:0.21083082 186:0.093335659 
-0.1133806112832917 91:0.88066932 
-1.15754285544471 86:0.0031486859 92:0.026845742 93:0.071371198 187:0.17309687 188:0.18028892 
-0.6279798624085995 91:0.50323961 
-8 85:0.030686457 86:0.0014993742 87:0.18949694 88:0.18887446 
-0.004488801787422315 85:0.1611039 86:0.0078717148 87:0.99485892 88:0.9915909 
-1.716922180909103 53:0.08921797 54:0.066627324 62:0.059744695 
-2.645007259702586 1:0.0092111358 10:0.071504508 11:0.06224256 15:0.030949779 31:0.036826393 41:0.099060245 42:0.051623986 53:0.028864637 54:0.086223595 86:0.0043217257 139:0.039961397 141:0.039961397 
-1.814398521608602 85:0.064441559 86:0.0031486859 87:0.39794357 88:0.39663636 101:0.38793522 
-5.089433119010569 54:0.31410024 
-8 1:0.031317862 52:0.35827812 53:0.2944193 
-1.091079670010279 54:0.19119145 
-7.275533751856707 52:0.5971302 
-0.04324987082174259 1:0.0080302209 53:0.075492128 
-1.014622449816023 91:0.35226773 
-0.1933921120808524 91:1.1742258 
-0.6270837115603494 33:0.5776612 
-8 85:0.058583235 86:0.0028624417 155:0.47869514 
-3.288234173896544 43:0.16004389 92:0.03977147 139:0.15096528 141:0.15096528 151:0.21004117 
-8 1:0.026098218 144:0.37529221 145:0.36486195 156:0.35414383 
-2.519457821523922 91:0.15315988 
-1.40231816358971 10:0.3315209 130:0.22827967 135:0.42969546 146:0.21497713 
-8 1:0.020878574 20:0.04674864 22:0.059290515 86:0.0016792991 92:0.014317729 105:0.059290515 139:0.108695 141:0.108695 
-8 1:0.048181326 103:0.14099147 139:0.15677164 141:0.15677164 
-8 54:0.14658011 
-4.571426043740055 12:0.074811467 49:0.074811467 145:0.13682323 
-8 1:0.033554852 83:0.12924361 85:0.023014843 86:0.0011245307 144:0.16083952 145:0.15636941 
-0.1926352660339156 53:0.32713256 56:0.33976618 
-8 1:0.034797624 46:0.11235058 58:0.29524649 144:0.25019481 145:0.2432413 
-2.135957141662065 52:0.13779928 53:0.11323819 85:0.024785215 86:0.0024220661 95:0.19738905 96:0.19902595 
-0.7990593599773156 90:1.8256519 91:0.58711288 
-8 86:0.0031486859 92:0.053691484 139:0.20380313 141:0.20380313 
-8 46:0.036769281 52:0.13028295 53:0.053530782 85:0.011716647 86:0.00057248835 139:0.074110228 141:0.074110228 
-5.781019644954333 29:0.2532873 46:0.1348207 92:0.071588645 139:0.2717375 141:0.2717375 144:0.30023377 145:0.29188956 167:0.32952488 
-0.2219183310208576 54:0.099940986 
-0.15053306836834 91:1.7613386 
-7.368500002989439 85:0.1611039 86:0.0078717148 
-8 29:0.23745684 139:0.25475391 141:0.25475391 144:0.28146916 145:0.27364646 
-1.677496589464053 46:0.10111552 92:0.053691484 93:0.1427424 109:0.19279109 144:0.22517533 145:0.21891717 
-0.2876148796546552 85:0.2148052 86:0.01049562 
-0.4640933257743948 90:1.8256519 91:1.1742258 
