svm_type c_svc
kernel_type linear
nr_class 2
total_sv 87
rho 1.13657
label 1 -1
nr_sv 36 51
SV
8 85:0.042961039 86:0.0020991239 164:0.26356401 
8 89:0.073540436 164:0.17188957 186:0.03922803 
8 46:0.11235058 164:0.21963668 
8 164:0.56478003 165:0.73923926 
8 164:0.79069204 
2.270599487107812 164:0.98836505 165:1.2936687 
8 164:0.65891003 165:0.8624458 166:0.66544682 
8 46:0.50557762 164:0.49418252 166:0.49908511 
8 85:0.071601732 86:0.0034985399 164:0.43927336 
8 85:0.071601732 86:0.0034985399 164:0.43927336 
8 164:0.65891003 
8 164:0.65891003 
8 84:0.19033729 91:0.25161981 164:0.14119501 
8 1:0.022369901 169:0.37279475 
8 1:0.039147327 85:0.040275974 86:0.0019679287 169:0.32619541 
8 164:0.43927336 
8 164:0.56478003 
8 112:0.12306595 169:0.21746361 179:0.22582489 
8 166:0.99817023 
8 91:0.17613386 179:0.54197973 180:0.31821294 
8 164:0.43927336 
8 85:0.064441559 86:0.0031486859 166:0.39926809 
8 164:0.18826001 166:0.19012766 
8 164:0.17188957 171:0.31354594 
5.425537907025919 164:0.49418252 165:1.2936687 180:0.79553236 
3.991977594217323 170:4.4183487 
8 92:0.15340424 
8 85:0.035800866 86:0.0017492699 164:0.21963668 166:0.22181561 170:0.24546382 
8 168:0.78242224 
8 165:1.2936687 
8 91:0.29355644 113:0.25224711 
8 46:0.14445075 85:0.046029685 86:0.0022490614 167:0.35306237 168:0.39121112 
8 29:0.26202135 46:0.069734844 182:0.23105969 
8 29:0.31660913 149:0.47876831 
8 29:0.27137925 
8 1:0.028470783 
-2.506702391517123 2:0.12878094 31:0.087355631 39:0.078841584 85:0.014986409 86:0.00073225254 164:0.091940935 167:0.11495054 
-8 85:0.035800866 86:0.0017492699 89:0.093968335 164:0.21963668 
-8 92:0.13422871 164:0.49418252 165:0.64683435 166:0.49908511 
-1.874813869038828 92:0.11931441 164:0.43927336 165:0.57496387 166:0.44363121 
-8 92:0.11931441 164:0.43927336 165:0.57496387 166:0.44363121 
-8 92:0.11931441 164:0.43927336 165:0.57496387 166:0.44363121 
-0.9972495231253262 92:0.10738297 164:0.39534602 166:0.39926809 
-8 148:0.21638468 149:0.44193997 164:0.30411232 
-0.04213119304429312 110:1.182665 113:1.0089884 
-8 85:0.058583235 86:0.0028624417 170:0.40166807 
-8 1:0.034797624 46:0.11235058 91:0.097852147 169:0.28995148 
-0.050233114003953 113:1.5134826 159:1.9051797 
-8 11:0.099199081 46:0.063197202 164:0.12354563 
-6.090555785766569 113:0.27517866 130:0.11413983 132:0.19813297 180:0.28928449 186:0.041011123 
-5.297374463740073 92:0.063166452 168:0.32217386 
-5.266164885457123 1:0.044739802 22:0.15881388 102:0.20640243 105:0.15881388 164:0.28239001 
-1.853094040065413 29:0.17269589 46:0.18384641 114:0.13340412 164:0.17970274 
-1.562923078018752 178:0.77884094 180:0.79553236 
-3.609459702327804 29:0.21107275 92:0.059657204 167:0.27460407 168:0.30427532 
-0.0986845549491471 86:0.0026239049 92:0.044742903 110:0.14783313 113:0.12612355 164:0.16472751 165:0.21561145 171:0.30048153 
-1.124114557238288 92:0.046688247 164:0.17188957 165:0.22498586 170:0.19210212 
-8 92:0.07670212 168:0.39121112 
-8 85:0.037906799 86:0.0018521682 164:0.23255648 170:0.25990287 
-8 85:0.037906799 86:0.0018521682 164:0.23255648 170:0.25990287 
-8 85:0.037906799 86:0.0018521682 164:0.23255648 170:0.25990287 
-8 85:0.037906799 86:0.0018521682 164:0.23255648 170:0.25990287 
-8 85:0.037906799 86:0.0018521682 164:0.23255648 170:0.25990287 
-8 85:0.037906799 86:0.0018521682 164:0.23255648 170:0.25990287 
-8 164:0.15205616 165:0.19902595 166:0.15356465 171:0.27736757 
-8 92:0.11931441 164:0.43927336 165:0.57496387 166:0.44363121 
-7.442912810645233 43:0.22743079 92:0.056517352 164:0.20807685 165:0.27235131 166:0.2101411 180:0.33496099 
-8 92:0.11931441 164:0.43927336 165:0.57496387 166:0.44363121 
-2.012371531303299 182:0.83759139 
-8 46:0.18384641 164:0.35940547 
-3.86409550031119 45:0.14714199 46:0.20920453 164:0.13632621 
-8 164:0.43927336 165:0.57496387 
-8 164:0.35940547 170:0.40166807 
-8 92:0.13422871 164:0.49418252 
-1.419842940792358 1:0.021598525 89:0.058325174 139:0.14055388 141:0.14055388 179:0.18688956 
-0.8590138681459164 112:0.98452758 
-0.6433161030567045 84:0.88824071 91:1.1742258 
-8 86:0.0010857538 89:0.058325174 164:0.13632621 
-2.890361865303765 51:0.28240684 91:0.18540407 179:0.28525249 
-0.3377796306974297 84:2.6647221 
-5.728093795072445 92:0.056517352 167:0.26015122 168:0.28826083 
-3.725822203843649 1:0.008699406 29:0.10553638 85:0.017900433 86:0.00087463497 120:0.16980401 164:0.10981834 
-8 29:0.31660913 86:0.0026239049 164:0.32945502 
-8 29:0.1809195 46:0.192601 114:0.1397567 119:0.21137943 164:0.37652002 166:0.19012766 
-8 29:0.17269589 46:0.18384641 164:0.17970274 
-6.336398542678941 77:0.30985646 179:0.6021997 
-2.054605038207436 91:1.7613386 
