svm_type c_svc
kernel_type rbf
gamma 0.00195313
nr_class 2
total_sv 247
rho 20.658
label 1 -1
nr_sv 86 161
SV
4154.418659029277 12:0.79798899 49:0.79798899 50:1.0522925 51:1.7885767 98:1.0522925 
8192 1:0.031317862 48:0.1427424 79:0.29126312 
8192 12:0.095758678 49:0.095758678 50:0.1262751 74:0.15613799 97:0.14090709 98:0.1262751 
8192 1:0.011184951 15:0.11274562 48:0.10195885 54:0.07852506 59:0.21455657 83:0.12924361 
8192 74:0.55763568 79:0.41609017 127:0.3266071 
8192 48:0.20391771 
8192 46:0.069734844 48:0.098443031 74:0.26920343 79:0.20087112 85:0.022221227 86:0.0010857538 
8192 1:0.013049109 48:0.118952 77:0.11619617 
8192 5:0.095882801 12:0.044747046 39:0.031684001 48:0.026680822 49:0.044747046 56:0.028578463 92:0.010035791 99:0.095882801 127:0.042733639 148:0.052579454 157:0.095927387 
8192 81:0.47838085 88:0.39663636 
8192 50:0.31568774 83:0.36188211 98:0.31568774 
8192 29:0.27137925 48:0.20391771 
8192 29:0.27137925 85:0.046029685 86:0.0022490614 
8192 1:0.032397788 39:0.11690304 48:0.098443031 111:0.13418374 
8192 40:0.13943449 111:0.25942189 
8192 50:0.13725554 80:0.20092563 98:0.13725554 
8192 1:0.022369901 48:0.20391771 54:0.07852506 62:0.070413391 83:0.12924361 
2495.820338925511 1:0.017398812 5:0.18998999 48:0.15860266 57:0.25814485 58:0.29524649 62:0.10953194 99:0.18998999 
8192 48:0.17842799 53:0.18401206 54:0.27483771 57:0.29041296 101:0.24245951 
3662.418066194495 48:0.27189028 53:0.14019967 54:0.20940016 56:0.14561408 103:0.17456086 
8192 1:0.030307608 48:0.092091868 54:0.070925861 92:0.034639667 103:0.11825091 
8192 39:0.24215629 50:0.11274562 52:0.12795647 76:0.1678304 77:0.099596718 92:0.03835106 98:0.11274562 115:0.15853457 
8192 48:0.19032319 74:0.26022998 122:0.28105496 127:0.30483329 
8192 72:0.2233577 73:0.15946028 
8192 5:0.045295628 48:0.037812555 50:0.083625892 73:0.063361702 76:0.031120868 89:0.022403047 98:0.083625892 99:0.045295628 123:0.028143881 124:0.026898502 166:0.052883191 186:0.011950261 
8192 5:0.15544636 50:0.28698886 85:0.029291618 86:0.0014312209 89:0.23064955 98:0.28698886 99:0.15544636 123:0.19316936 124:0.18462154 
8192 1:0.026098218 12:0.099748623 49:0.099748623 50:0.13153656 53:0.12267471 98:0.13153656 123:0.17707192 124:0.16923641 
8192 10:0.22101394 48:0.086510543 53:0.08921797 54:0.13325465 85:0.019527745 86:0.00095414724 
8192 12:0.059849174 46:0.050557762 49:0.059849174 57:0.11616518 60:0.13843951 61:0.11681457 62:0.19715749 92:0.026845742 
8192 57:0.1858643 58:0.21257747 91:0.14090709 
8192 48:0.092091868 54:0.14185172 
8192 1:0.016483085 5:0.17999052 12:0.12599826 49:0.12599826 50:0.33230289 97:0.18540407 98:0.33230289 99:0.17999052 
8192 1:0.016483085 5:0.17999052 12:0.12599826 49:0.12599826 50:0.33230289 97:0.18540407 98:0.33230289 99:0.17999052 
8192 62:0.28165356 125:0.57230056 
8192 54:0.054967542 57:0.11616518 
8192 1:0.011599208 5:0.12666 48:0.10573511 54:0.081433396 99:0.12666 
8192 1:0.011184951 12:0.08549882 46:0.072225374 49:0.08549882 50:0.11274562 51:0.19163322 74:0.27881784 98:0.11274562 
8192 10:0.1458692 48:0.11419392 57:0.1858643 58:0.21257747 83:0.14475285 89:0.067657202 
8192 1:0.027633407 22:0.06539395 48:0.083966115 54:0.064667697 74:0.11480735 91:0.10360816 105:0.06539395 
8192 1:0.021232449 10:0.12361796 48:0.048387253 53:0.049901576 54:0.03726613 74:0.1984805 76:0.079648324 77:0.047266239 80:0.078326942 
8192 10:0.047983289 39:0.044607738 48:0.037563788 53:0.077478763 54:0.057860571 57:0.061139571 89:0.022255658 110:0.046684146 113:0.039828491 
8192 5:0.1424925 48:0.118952 57:0.19360864 85:0.02685065 86:0.0013119525 99:0.1424925 
8192 1:0.012281514 48:0.05597741 53:0.057729275 54:0.043111798 56:0.059958737 85:0.0126356 86:0.00061738939 119:0.087038588 
8192 48:0.17842799 53:0.18401206 85:0.040275974 86:0.0019679287 101:0.24245951 
8192 48:0.19032319 73:0.31892057 
8192 5:0.18998999 48:0.15860266 99:0.18998999 108:0.22181561 176:0.26415672 
8192 46:0.067410349 48:0.095161597 91:0.11742258 108:0.13308936 
8192 1:0.022369901 48:0.20391771 
8192 48:0.11419392 53:0.11776772 54:0.087948067 85:0.025776624 86:0.0012594744 
8192 43:0.07201975 48:0.095161597 54:0.073290056 85:0.01074026 86:0.00052478098 97:0.058711288 121:0.087760776 122:0.070263741 
8192 1:0.017398812 46:0.056175291 48:0.079301331 85:0.017900433 86:0.00087463497 
8192 1:0.024090663 31:0.028894555 48:0.021960369 89:0.026022001 91:0.054195035 97:0.054195035 
8192 1:0.072271988 46:0.15556234 48:0.21960369 74:0.30026537 116:0.31932969 
8192 5:0.047497499 33:0.064184577 48:0.039650665 99:0.047497499 109:0.05355308 153:0.048810812 
8192 1:0.036844543 48:0.16793223 54:0.12933539 85:0.037906799 86:0.0018521682 
8192 5:0.092427565 48:0.077158052 54:0.05942437 85:0.017416638 86:0.00085099619 99:0.092427565 
8192 22:0.17103033 46:0.077781172 48:0.10980184 54:0.084565449 85:0.024785215 86:0.001211033 105:0.17103033 
8192 48:0.12412382 54:0.095595725 92:0.046688247 
8192 54:0.31410024 
8192 12:0.14962293 49:0.14962293 50:0.19730484 91:0.22016733 98:0.19730484 
8192 48:0.17302109 53:0.17843594 54:0.13325465 57:0.14080628 103:0.11108419 166:0.12099033 
8192 1:0.015658931 48:0.1427424 50:0.15784387 85:0.03222078 86:0.001574343 98:0.15784387 
8192 5:0.12666 48:0.10573511 50:0.11692139 56:0.11325539 83:0.13403041 92:0.03977147 98:0.11692139 99:0.12666 
8192 12:0.29924587 49:0.29924587 50:0.39460968 98:0.39460968 
8192 1:0.017398812 
8192 48:0.21960369 50:0.24283673 97:0.27097518 98:0.24283673 
8192 1:0.036844543 48:0.16793223 79:0.34266249 
8192 5:0.23584965 16:0.13256072 48:0.098443031 74:0.13460172 99:0.23584965 114:0.10120312 115:0.15306786 122:0.14537326 152:0.13545319 
8192 12:0.11969835 49:0.11969835 50:0.15784387 53:0.073604825 92:0.026845742 98:0.15784387 
8192 38:0.50141612 50:0.24283673 81:0.36798527 88:0.30510489 89:0.13011 92:0.082602283 98:0.24283673 
8192 1:0.021598525 48:0.098443031 56:0.10544468 72:0.23105969 73:0.16495891 114:0.10120312 
8192 48:0.10195885 85:0.023014843 86:0.0011245307 182:0.23931183 
8192 12:0.13679811 22:0.063525551 49:0.13679811 50:0.090196498 85:0.018411874 86:0.00089962454 98:0.090196498 105:0.063525551 112:0.084388078 
8192 48:0.10980184 
8192 1:0.021232449 5:0.057963049 12:0.081151422 22:0.037684649 48:0.048387253 49:0.081151422 85:0.010922298 86:0.00053367558 95:0.086985003 96:0.087706353 99:0.057963049 104:0.076330619 105:0.037684649 112:0.050060725 113:0.051304496 
1418.902106247653 29:0.31660913 48:0.23790399 74:0.32528748 85:0.053701299 86:0.0026239049 
8192 29:0.14612729 48:0.10980184 80:0.17774191 
8192 48:0.063441065 54:0.048860037 62:0.087625553 73:0.10630686 79:0.12945027 85:0.014320346 86:0.00069970798 
8192 31:0.25041948 50:0.2104585 98:0.2104585 
8192 29:0.31660913 48:0.23790399 
8192 29:0.19996366 48:0.15025515 52:0.18856743 77:0.14677411 91:0.18540407 
8192 1:0.012527145 29:0.15197238 48:0.11419392 127:0.18289998 
8192 29:0.19996366 48:0.15025515 53:0.15495753 85:0.03391661 86:0.0016572031 95:0.27011133 96:0.27235131 
8192 48:0.15860266 81:0.26576714 92:0.059657204 
8192 5:0.20116588 48:0.16793223 99:0.20116588 103:0.21563401 
8192 48:0.21960369 
-8192 12:0.06470181 48:0.077158052 49:0.06470181 50:0.085321012 51:0.14501973 86:0.0017019924 98:0.085321012 127:0.12358106 
-723.6386089561233 12:0.12599826 27:0.32793303 48:0.075127576 49:0.12599826 50:0.16615144 81:0.1258897 97:0.092702034 98:0.16615144 121:0.13856965 122:0.11094275 
-4550.12963709425 1:0.033554852 48:0.10195885 54:0.07852506 102:0.10320122 110:0.12671411 
-8192 48:0.075127576 86:0.0024858047 114:0.077233964 
-8192 48:0.13594514 123:0.20236791 124:0.19341304 
-2513.523123941332 79:0.97087706 80:0.77021493 
-8192 12:0.26599633 49:0.26599633 
-1250.653261773891 1:0.016483085 10:0.19193315 54:0.11572114 
-6359.725431160561 39:0.17843095 77:0.14677411 
-229.2089877517112 50:0.22549124 84:0.19033729 85:0.046029685 98:0.22549124 
-8192 48:0.13594514 80:0.22006141 81:0.2278004 86:0.0014993742 
-7326.191416142319 1:0.03296617 50:0.16615144 56:0.16094187 98:0.16615144 
-408.3644986103392 122:0.84316489 
-72.3860971242046 12:0.14082159 38:0.38343586 39:0.19942283 40:0.24606086 41:0.29718073 49:0.14082159 56:0.17987621 
-1634.056279623891 12:0.14082159 38:0.38343586 39:0.19942283 40:0.24606086 41:0.29718073 49:0.14082159 56:0.17987621 
-347.888700019374 85:0.3222078 86:0.01574343 
-193.2816153567385 85:0.3222078 86:0.01574343 
-8192 12:0.21763336 49:0.21763336 54:0.19988197 
-17.38430462962653 1:0.019573664 2:0.17304938 4:0.17722224 5:0.10686937 12:0.14962293 49:0.14962293 85:0.020137987 86:0.00098396434 99:0.10686937 
-98.12956920261784 20:0.14024592 23:0.17755872 25:0.2492291 77:0.22309665 86:0.0012594744 
-165.2914041676638 11:0.10946105 76:0.16204314 
-1454.639017944583 1:0.019573664 77:0.17429426 114:0.18343066 
-8192 46:0.23791888 48:0.16793223 52:0.21075184 74:0.22961469 
-8192 48:0.15025515 53:0.15495753 54:0.11572114 74:0.41088945 77:0.14677411 92:0.056517352 
-8192 46:0.22470116 48:0.15860266 74:0.21685832 
-2183.70119019449 76:0.42720465 77:0.25351892 148:0.25572735 
-5362.334811968614 29:0.5427585 79:0.83218034 85:0.09205937 86:0.0044981227 
-131.3257642821067 85:0.1074026 86:0.0052478098 88:0.6610606 89:0.28190501 95:0.85535253 96:0.8624458 
-19.44304580844405 1:0.058720991 5:0.21373874 8:0.30681073 99:0.21373874 
-75.07560645772324 53:0.10904419 76:0.17404634 85:0.023867244 86:0.00116618 139:0.15096528 141:0.15096528 
-4367.096522334033 5:0.56996998 12:0.39899449 49:0.39899449 99:0.56996998 
-666.9724965300084 12:0.11399843 49:0.11399843 112:0.1406468 153:0.33470271 
-8192 1:0.019573664 5:0.21373874 99:0.21373874 
-93.26920911608443 22:0.22233943 77:0.27887081 105:0.22233943 158:0.46212896 
-2414.48270066967 5:0.56996998 50:0.52614624 97:0.58711288 98:0.52614624 99:0.56996998 
-794.1856406641774 22:0.20212675 48:0.25953163 102:0.262694 105:0.20212675 107:0.43489168 176:0.43225645 
-31.53067315074515 23:0.2959312 24:0.31892057 77:0.18591387 85:0.042961039 86:0.0020991239 
-262.4086484266446 22:1.1116971 104:2.2517533 105:1.1116971 
-1883.361222789836 108:0.66544682 
-2326.448705097689 182:0.83759139 
-8192 12:0.099748623 48:0.118952 49:0.099748623 53:0.12267471 112:0.12306595 176:0.19811754 
-6981.497137432091 1:0.036844543 50:0.18569867 97:0.20721631 98:0.18569867 
-8192 12:0.079798899 22:0.14822629 48:0.095161597 49:0.079798899 50:0.10522925 51:0.17885767 54:0.073290056 86:0.0041982479 98:0.10522925 102:0.096321134 105:0.14822629 
-374.9934420320997 153:0.43929731 
-935.3160608095442 43:0.61731214 
-2692.174893331976 5:0.22798799 40:0.27886898 50:0.2104585 98:0.2104585 99:0.22798799 
-1987.165402825914 1:0.044739802 5:0.4885457 99:0.4885457 
-1001.835080721425 48:0.12976581 54:0.099940986 61:0.10619507 83:0.082245935 86:0.0014312209 92:0.02440522 
-8192 48:0.21960369 50:0.12141836 81:0.36798527 86:0.0024220661 92:0.041301142 98:0.12141836 122:0.16214709 
-8192 21:0.077138404 48:0.069630437 58:0.12962041 60:0.13506293 127:0.11152438 
-133.2157499206667 10:0.27012814 54:0.081433396 77:0.10328549 134:0.17404634 135:0.17506111 
-7186.758609864827 72:0.51544085 86:0.0048441322 
-689.0232546114615 85:0.037906799 86:0.0018521682 108:0.23486358 176:0.27969535 
-8192 15:0.11274562 48:0.10195885 54:0.07852506 
-7866.850027620417 54:0.087948067 74:0.15613799 89:0.067657202 
-83.70190612394795 85:0.3222078 86:0.01574343 
-20.38604316986413 1:0.024090663 12:0.1841513 13:0.326902 49:0.1841513 53:0.22647639 113:0.23284348 
-35.94788899526299 85:0.3222078 86:0.01574343 
-7455.469967968729 50:0.2104585 91:0.23484515 98:0.2104585 
-8192 50:0.28698886 91:0.32024339 98:0.28698886 
-967.5650273539502 85:0.09205937 86:0.0044981227 88:0.56662337 89:0.24163286 
-8192 38:0.097289695 39:0.050599822 48:0.04260967 50:0.047117574 54:0.032816443 73:0.071400127 81:0.071400127 86:0.0018798125 89:0.050490449 98:0.047117574 114:0.043804338 115:0.066253254 
-8192 48:0.059475998 53:0.061337354 54:0.13741886 57:0.29041296 58:0.11071743 86:0.0045918336 93:0.059475998 109:0.080329619 
-6438.490128791665 1:0.011599208 48:0.10573511 53:0.10904419 152:0.29097351 
-2187.801393970734 48:0.083966115 85:0.0189534 86:0.0018521682 97:0.10360816 142:0.18325669 188:0.21210461 
-8192 1:0.019573664 125:0.2503815 
-8192 48:0.089213997 53:0.046003016 54:0.068709428 56:0.047779619 57:0.43561944 58:0.16607615 61:0.073009107 62:0.061611717 86:0.0039358574 92:0.016778589 
-115.2746101707631 85:0.3222078 86:0.01574343 
-8192 1:0.039147327 54:0.068709428 79:0.18203945 91:0.11008366 
-2164.055448279812 48:0.38064639 53:0.19627953 56:0.20385971 93:0.19032319 109:0.25705478 
-8192 12:0.13299816 49:0.13299816 50:0.17538208 53:0.16356628 98:0.17538208 111:0.21618491 
-3619.164675744154 50:0.13433521 56:0.065061608 98:0.13433521 
-2929.079508286695 79:0.30659276 157:0.27011133 
-2340.701800858249 127:0.3266071 
-64.91683549389306 85:0.3222078 86:0.01574343 
-8192 12:0.056999213 15:0.075163748 48:0.13594514 49:0.056999213 50:0.075163748 51:0.12775548 54:0.05235004 86:0.0022490614 92:0.025567373 98:0.075163748 127:0.10886903 
-3732.769006821298 10:0.21451353 48:0.16793223 54:0.38800618 86:0.0055565045 92:0.063166452 
-3274.289835642394 12:0.028842975 48:0.068791516 49:0.028842975 50:0.114104 51:0.06464735 81:0.057636247 86:0.004552317 89:0.081514701 98:0.114104 121:0.063441525 127:0.16527106 156:0.15360455 
-7731.074895553541 1:0.031317862 46:0.050557762 48:0.071371198 74:0.097586244 123:0.2124863 124:0.20308369 
-1.663980678330991 1:0.020205072 9:0.1543164 12:0.077224741 43:0.13939306 49:0.077224741 85:0.0207876 86:0.0010157051 
-8192 39:0.070628919 48:0.118952 52:0.074641275 53:0.061337354 56:0.063706158 74:0.16264374 92:0.022371452 
-8192 5:0.28498499 48:0.23790399 92:0.089485807 99:0.28498499 
-6668.385454176594 1:0.034797624 108:0.22181561 
-586.4471281506235 85:0.3222078 86:0.01574343 
-7620.801472749972 1:0.082415425 54:0.11572114 
-4550.057733980709 1:0.012201764 12:0.03109048 31:0.048783015 49:0.03109048 62:0.025604869 125:0.15608197 
-8192 54:0.12215009 73:0.26576714 
-5425.807895689316 62:0.39431499 
-8192 10:0.07442306 48:0.058262202 54:0.044871463 57:0.28448617 58:0.10845789 86:0.0025703558 92:0.021914891 
-5211.724742739756 1:0.044739802 48:0.13594514 81:0.45560081 91:0.16774654 
-1424.479661207464 1:0.10439287 
-7979.998893520432 1:0.031317862 5:0.34198199 29:0.37993095 99:0.34198199 
-3678.567632452762 74:0.15613799 
-8192 74:0.48793122 
-8192 5:0.11792482 12:0.082550585 48:0.29532909 49:0.082550585 50:0.10885784 51:0.18502517 74:0.13460172 86:0.0021715075 92:0.03702861 93:0.098443031 98:0.10885784 99:0.11792482 109:0.13295937 
-1400.107617609745 22:0.030045869 48:0.11573708 86:0.0029784867 89:0.045714325 92:0.014511212 101:0.052423679 102:0.039049108 105:0.030045869 110:0.19178352 113:0.081809873 
-4705.52925406147 12:0.13811348 48:0.054900921 49:0.13811348 50:0.12141836 52:0.068899639 53:0.056619096 54:0.042282725 74:0.075066342 77:0.053629002 92:0.020650571 98:0.12141836 121:0.10126243 
-8192 1:0.028470783 48:0.25953163 
-8192 85:0.04957043 86:0.0024220661 127:0.35173072 
-2321.108841137597 1:0.048181326 85:0.04957043 86:0.0024220661 116:0.31932969 
-8192 48:0.23790399 50:0.06576828 54:0.045806285 57:0.09680432 59:0.125158 61:0.097345476 62:0.12322343 86:0.0045918336 92:0.022371452 98:0.06576828 
-8192 48:0.10573511 76:0.087023169 85:0.011933622 86:0.0017492699 124:0.075216181 166:0.073938535 
-7468.220320983803 48:0.28548479 92:0.10738297 
-334.4376001746122 73:0.9567617 
-8192 5:0.18998999 12:0.13299816 48:0.15860266 49:0.13299816 50:0.35076416 51:0.29809611 92:0.059657204 98:0.35076416 99:0.18998999 
-8192 12:0.12599826 48:0.12020412 49:0.12599826 50:0.066460577 86:0.00033144062 88:0.041751196 89:0.05341358 92:0.01130347 98:0.066460577 125:0.042169515 186:0.028491938 
-8192 48:0.28548479 53:0.098139767 54:0.073290056 86:0.0031486859 92:0.035794323 
-8192 22:0.10587592 62:0.093884521 105:0.10587592 125:0.19076685 
-8192 48:0.21960369 50:0.24283673 86:0.0048441322 92:0.082602283 98:0.24283673 
-740.7319261556414 83:0.45235264 85:0.080551949 86:0.0039358574 
-2157.502047666257 12:0.099748623 49:0.099748623 53:0.12267471 85:0.02685065 86:0.0026239049 113:0.12612355 
-49.90584621418034 48:0.077158052 54:0.23769748 57:0.25116797 61:0.12628602 62:0.10657162 86:0.0051059771 92:0.029022424 
-4934.779404150597 31:0.41736579 50:0.35076416 97:0.39140859 98:0.35076416 
-8192 48:0.10195885 54:0.07852506 85:0.023014843 86:0.0011245307 101:0.13854829 103:0.26184129 
-8192 10:0.047360129 12:0.03109048 15:0.040998408 46:0.026263772 48:0.11122784 49:0.03109048 50:0.081996816 53:0.076472546 54:0.085663702 86:0.003271362 98:0.081996816 
-8192 10:0.047983289 12:0.031499565 15:0.041537861 46:0.026609348 48:0.11269136 49:0.031499565 50:0.083075722 53:0.077478763 54:0.086790856 86:0.0033144062 98:0.083075722 
-677.2578503912864 113:0.50449422 
-8192 10:0.070129422 12:0.046037826 15:0.060709181 16:0.073928094 48:0.10980184 49:0.046037826 50:0.060709181 51:0.10318712 53:0.056619096 54:0.084565449 57:0.17871567 61:0.089857363 62:0.11374471 86:0.0042386156 92:0.020650571 98:0.060709181 114:0.056440204 
-23.38638703256445 85:0.3222078 86:0.01574343 
-8192 48:0.23790399 50:0.26307312 86:0.0026239049 92:0.044742903 98:0.26307312 101:0.16163968 
-2675.672893989516 10:0.40519221 86:0.0034985399 111:0.43236982 
-44.23619121207009 85:0.3222078 86:0.01574343 
-1338.842091397538 48:0.35685599 54:0.54967542 154:0.75094799 
-72.07705134544028 85:0.3222078 86:0.01574343 
-8192 48:0.075127576 50:0.33230289 53:0.077478763 54:0.057860571 86:0.0016572031 92:0.028258676 97:0.2781061 98:0.33230289 
-14.32451862561509 1:0.0089479605 10:0.10419228 85:0.018411874 86:0.00089962454 113:0.086484723 132:0.12454072 
-288.721366081806 51:0.28240684 91:0.18540407 179:0.28525249 
-1305.636816761229 33:0.42011723 76:0.42720465 
-20.63802065997467 60:0.69219754 
-2458.561816596584 1:0.10439287 
-113.0329234516284 85:0.3222078 86:0.01574343 
-139.5481995375087 85:0.3222078 86:0.01574343 
-750.6520520998283 73:0.47838085 
-2631.24938729064 1:0.10439287 
-5041.825658238148 38:0.43456064 48:0.19032319 81:0.31892057 92:0.071588645 
-8192 50:0.35076416 98:0.35076416 
-2465.276886121973 1:0.022369901 46:0.048150249 48:0.067972569 144:0.10722635 145:0.10424627 156:0.10118395 
-60.15791296051503 1:0.052196436 79:0.48543853 159:0.31752995 
-30.36710791873528 85:0.3222078 86:0.01574343 
-8192 88:0.26442424 122:0.28105496 
-13.00288818509254 1:0.026098218 83:0.30156843 85:0.053701299 86:0.0026239049 87:0.33161964 88:0.3305303 
-8192 50:0.14349443 88:0.18028925 98:0.14349443 
-4.776535506949728 85:0.3222078 86:0.01574343 
-37.58603626107373 22:0.1307879 77:0.16404165 105:0.1307879 174:0.48883347 
-4402.953910738605 39:0.2607837 50:0.24283673 79:0.44809711 98:0.24283673 
-8192 1:0.018422272 48:0.16793223 
-3029.856677420193 10:0.088944632 12:0.058389438 22:0.054229129 49:0.058389438 54:0.05362687 85:0.015717453 86:0.0015359443 105:0.054229129 111:0.094910449 119:0.10826751 
-3083.679639755931 83:0.32898374 85:0.058583235 86:0.0028624417 88:0.36057851 89:0.30753273 
-8192 85:0.042961039 86:0.0041982479 95:0.34214101 96:0.34497832 
-7604.560208672579 29:0.37993095 48:0.28548479 92:0.10738297 
-8041.469423221495 29:0.31660913 48:0.23790399 73:0.39865071 86:0.0052478098 92:0.089485807 
-3796.267273437681 29:0.4221455 48:0.31720532 53:0.32713256 92:0.11931441 
-586.8354510642265 119:0.63413829 
-8192 74:0.32528748 89:0.1409525 
-5305.379247850978 48:0.083966115 54:0.12933539 59:0.17669364 90:0.16108693 91:0.10360816 
-2370.516213491729 5:0.08768769 12:0.12276754 29:0.097418193 48:0.14640246 49:0.12276754 71:0.25714524 86:0.0016147107 92:0.027534094 99:0.08768769 
-6548.057399303296 83:0.90470528 85:0.1611039 
-975.3903172524665 16:0.48053261 
-8192 1:0.047451305 5:0.10363091 48:0.086510543 54:0.066627324 99:0.10363091 103:0.11108419 
-5399.868529342747 115:0.369914 116:0.34594049 
-6105.990010294595 48:0.20391771 101:0.27709659 103:0.26184129 166:0.28519149 
