svm_type c_svc
kernel_type rbf
gamma 0.0078125
nr_class 2
total_sv 301
rho 169.532
label 1 -1
nr_sv 121 180
SV
5694.672557101701 125:0.36419127 152:0.35710385 
7757.831254930452 52:0.14928255 114:0.12228711 157:0.21383813 
8192 1:0.037581434 159:0.15241437 
8192 1:0.014913267 159:0.18144568 
8093.710731205425 148:0.21638468 149:0.44193997 164:0.30411232 
8192 20:0.13485185 22:0.085515165 91:0.13548759 105:0.085515165 159:0.14655228 
8192 92:0.09762088 159:0.3463963 
4862.16734167765 20:0.194786 22:0.12352191 105:0.12352191 159:0.21168663 
8192 1:0.016483085 53:0.15495753 92:0.056517352 148:0.14805267 
8192 54:0.070925861 
8192 23:0.2959312 
8192 88:0.26442424 127:0.30483329 149:0.38301464 
8192 33:0.22006141 92:0.051134747 152:0.1870544 183:0.16580263 
8192 86:0.00092608409 
8192 153:0.50205407 
6197.812068244732 43:0.392835 53:0.26765391 148:0.25572735 
8192 12:0.095758678 49:0.095758678 148:0.11252003 153:0.14057514 
8192 102:0.096321134 110:0.1182665 113:0.10089884 148:0.093766693 153:0.2342919 
8192 1:0.05799604 83:0.13403041 91:0.13046953 
8192 1:0.019573664 77:0.17429426 114:0.18343066 
8192 1:0.041757149 152:0.26187616 
8192 153:0.35143785 
8192 52:0.1326956 53:0.10904419 148:0.10418521 153:0.13016217 
8192 47:0.45479029 148:0.21638468 
8192 31:0.069560965 76:0.087023169 135:0.087530557 148:0.052092607 186:0.016708235 
8192 1:0.013049109 53:0.12267471 148:0.11720837 
8192 31:0.22095836 76:0.27642654 135:0.27803824 148:0.16547064 
8192 1:0.013049109 53:0.12267471 148:0.11720837 
8192 46:0.072225374 159:0.13608426 
8192 1:0.046976792 
8192 1:0.040410144 
8192 1:0.040410144 
8192 1:0.040410144 
8192 1:0.031317862 153:0.11714595 
8192 1:0.039147327 23:0.1109742 39:0.084754702 153:0.087859462 
8192 1:0.016060442 39:0.0869279 91:0.090325058 112:0.075732891 153:0.090112269 
8192 22:0.15881388 105:0.15881388 148:0.20092863 
1745.844727372498 112:0.73839569 153:0.87859462 
36.85531308968297 107:0.47838085 148:0.28130008 
8192 1:0.018422272 22:0.043595967 105:0.043595967 108:0.15657572 148:0.055156878 
8192 1:0.021113165 46:0.022722589 52:0.040255969 92:0.012065502 108:0.044861583 148:0.094820252 185:0.063720356 
8192 39:0.42377351 155:0.65820582 
8192 1:0.028470783 92:0.09762088 148:0.25572735 152:0.35710385 
8192 119:0.2219484 152:0.19640712 
8192 12:0.11399843 49:0.11399843 112:0.1406468 153:0.33470271 
8192 5:0.08999526 12:0.12599826 22:0.058510376 49:0.12599826 99:0.08999526 105:0.058510376 112:0.15545172 148:0.074026337 
8192 5:0.10363091 85:0.019527745 86:0.00095414724 99:0.10363091 148:0.085242448 153:0.21299263 
8192 54:0.12933539 89:0.099495885 119:0.26111577 152:0.2310672 
8192 46:0.065235821 112:0.095276863 153:0.11336705 
8192 12:0.1595978 49:0.1595978 112:0.19690552 153:0.2342919 
8192 5:0.20116588 12:0.14082159 49:0.14082159 53:0.17318782 85:0.037906799 86:0.0018521682 99:0.20116588 148:0.16547064 
8192 20:0.14024592 22:0.088935772 105:0.088935772 113:0.12107861 159:0.15241437 
8192 122:0.15614165 127:0.16935183 144:0.16679654 145:0.16216087 146:0.087583275 
8192 122:0.15614165 127:0.16935183 144:0.16679654 145:0.16216087 146:0.087583275 
8192 122:0.15614165 127:0.16935183 144:0.16679654 145:0.16216087 146:0.087583275 
8192 53:0.086593912 54:0.064667697 85:0.0189534 86:0.0027782523 183:0.20481502 
8192 29:0.1809195 148:0.13395242 
8192 148:0.097000027 
8192 1:0.062635723 148:0.18753339 
8192 12:0.077224741 49:0.077224741 86:0.0010157051 89:0.054562259 127:0.14749998 148:0.090741961 
8192 1:0.026098218 92:0.089485807 148:0.23441673 152:0.3273452 
310.9278538829528 36:0.62679152 127:0.57156243 156:0.53121575 
8192 53:0.13382695 156:0.19316936 
8192 52:0.18856743 85:0.03391661 86:0.0016572031 148:0.14805267 
8192 52:0.18856743 85:0.03391661 86:0.0016572031 148:0.14805267 
8192 156:0.17707192 
8192 20:0.12090165 85:0.022221227 86:0.0010857538 106:0.064182056 159:0.1313917 
8192 85:0.028018069 86:0.0013689939 151:0.24657007 152:0.1707888 
8192 155:0.17552155 157:0.17107051 
8192 1:0.023198416 39:0.12556252 86:0.00116618 113:0.11210983 
8192 1:0.025054289 74:0.15613799 156:0.16998904 
716.7095320294243 85:0.03222078 86:0.001574343 89:0.084571502 157:0.25660576 181:0.2363325 186:0.045112235 
8192 89:0.073540436 
8192 89:0.11665035 151:0.19555558 166:0.2753573 
8192 148:0.10418521 151:0.21004117 
6611.06540800285 15:0.35076416 77:0.30985646 
8192 127:0.14749998 156:0.13708794 
8192 15:0.11274562 48:0.10195885 54:0.07852506 
8192 1:0.020878574 54:0.073290056 92:0.035794323 156:0.28331507 
8192 1:0.010799263 12:0.082550585 22:0.076668769 49:0.082550585 105:0.076668769 112:0.10184768 148:0.097000027 153:0.12118546 
8192 1:0.026098218 148:0.23441673 
8192 92:0.082602283 
8192 1:0.029826535 22:0.10587592 92:0.051134747 105:0.10587592 159:0.18144568 
8192 1:0.020205072 46:0.065235821 91:0.11363475 144:0.1452744 145:0.14123688 156:0.13708794 
1894.233557512941 39:0.096862517 144:0.12867162 145:0.12509553 147:0.2176292 157:0.14663186 
8192 5:0.24427285 92:0.03835106 99:0.24427285 148:0.10046431 
8192 5:0.11658477 16:0.043684783 53:0.066913477 76:0.053400581 85:0.0073229044 86:0.00035780522 89:0.019220796 99:0.11658477 114:0.03335103 115:0.050442818 148:0.12786367 
6443.489910331506 1:0.028470783 148:0.25572735 
5295.368273577305 79:0.30659276 157:0.27011133 
8192 1:0.052196436 144:0.37529221 145:0.36486195 
8192 148:0.11252003 
8192 1:0.012527145 5:0.1367928 86:0.0012594744 99:0.1367928 148:0.11252003 152:0.1571257 
8192 92:0.035794323 148:0.093766693 152:0.13093808 156:0.14165753 
8192 5:0.11792482 85:0.022221227 86:0.0010857538 99:0.11792482 101:0.13377077 148:0.097000027 
8192 1:0.036844543 46:0.059479719 53:0.086593912 91:0.10360816 148:0.082735318 
8192 53:0.14720965 89:0.084571502 
8192 1:0.024090663 53:0.22647639 148:0.21638468 
8192 92:0.063166452 156:0.24998388 
8192 1:0.047451305 85:0.019527745 86:0.00095414724 148:0.085242448 
5359.589983587589 20:0.206244 22:0.1307879 46:0.11895944 105:0.1307879 159:0.22413879 
8192 12:0.044332721 49:0.044332721 51:0.099365371 148:0.052092607 152:0.14548676 
8192 43:0.288079 53:0.19627953 85:0.042961039 86:0.0020991239 148:0.18753339 
8192 159:0.11546543 
8192 1:0.024090663 46:0.077781172 127:0.17586536 159:0.14655228 
8192 15:0.12141836 151:0.21811968 157:0.19738905 
8192 46:0.22470116 127:0.50805549 
8192 22:0.15881388 103:0.26184129 105:0.15881388 119:0.31706914 148:0.20092863 
8192 12:0.043526672 49:0.043526672 95:0.093311185 96:0.094084996 112:0.053701504 159:0.13855852 
8192 1:0.022369901 46:0.048150249 48:0.067972569 144:0.10722635 145:0.10424627 156:0.10118395 
8192 1:0.019573664 85:0.040275974 86:0.0019679287 148:0.17581255 167:0.30892957 
8192 53:0.2102995 113:0.21621181 115:0.31706914 148:0.20092863 
8192 1:0.018422272 48:0.16793223 
8192 1:0.029826535 148:0.13395242 
8192 74:0.21685832 91:0.19570429 
8192 29:0.14071517 84:0.098693412 
8192 1:0.01332675 53:0.062642404 90:0.11653097 91:0.07495058 148:0.059851081 153:0.14954802 
8192 1:0.026653499 5:0.14552425 90:0.11653097 91:0.07495058 99:0.14552425 148:0.11970216 153:0.14954802 
8192 1:0.014913267 22:0.10587592 105:0.10587592 148:0.13395242 
8192 29:0.23745684 139:0.25475391 141:0.25475391 144:0.28146916 145:0.27364646 
8192 1:0.015658931 85:0.01074026 86:0.00052478098 
8192 53:0.19627953 85:0.042961039 86:0.0020991239 148:0.18753339 
-8192 85:0.064441559 86:0.0062973718 148:0.28130008 
-8192 148:0.40185726 152:0.2805816 
-3521.631180209103 74:0.55763568 79:0.41609017 127:0.3266071 
-8192 148:0.16547064 
-1675.135230425878 10:0.072934599 77:0.055774162 134:0.093985022 135:0.094533002 
-8192 39:0.17843095 77:0.14677411 
-2930.466121571837 1:0.020205072 50:0.10183476 80:0.14907386 98:0.10183476 159:0.24582964 
-8.15496674921622 122:0.84316489 
-7691.712081257946 135:0.36358847 
-5178.57698426957 1:0.022369901 31:0.13415329 39:0.12107815 86:0.0011245307 
-405.0808867362774 1:0.043197051 20:0.12090165 53:0.1015239 106:0.12836411 
-713.2387055357518 2:0.12878094 31:0.087355631 39:0.078841584 85:0.014986409 86:0.00073225254 164:0.091940935 167:0.11495054 
-980.316989818669 5:0.14868782 29:0.16518737 92:0.046688247 99:0.14868782 148:0.12230438 149:0.24979216 164:0.17188957 167:0.21490753 
-3867.442353360555 5:0.10058294 86:0.0027782523 92:0.031583226 99:0.10058294 148:0.24820595 152:0.1155336 157:0.30188913 158:0.27184056 167:0.14537862 
-5092.625318272827 85:0.040275974 86:0.0019679287 151:0.35444448 
-8192 22:0.088935772 105:0.088935772 
-8192 1:0.036844543 92:0.031583226 148:0.16547064 157:0.30188913 
-1585.079801526728 23:0.24660933 24:0.26576714 85:0.035800866 86:0.0052478098 159:0.21168663 
-8192 20:0.21913425 159:0.23814746 
-8192 20:0.21913425 159:0.23814746 
-655.5547197080576 17:0.071888782 20:0.1558288 22:0.098817524 23:0.098643734 73:0.21261371 86:0.0034985399 105:0.098817524 159:0.084674652 
-8192 1:0.032397788 112:0.10184768 
-4774.518384176964 15:0.06442607 52:0.073117984 86:0.0032129448 
-8192 1:0.032397788 112:0.10184768 
-7838.704575500767 1:0.013049109 52:0.14928255 53:0.12267471 54:0.09161257 76:0.19580213 85:0.02685065 86:0.0013119525 166:0.1663617 
-8192 1:0.041072605 12:0.03924536 49:0.03924536 91:0.057748808 112:0.048419389 
-4065.815573105206 1:0.034797624 22:0.061760953 83:0.10052281 105:0.061760953 
-8192 86:0.0028624417 159:0.3463963 
-4506.616937078136 22:0.06539395 46:0.059479719 86:0.0037043364 105:0.06539395 148:0.082735318 183:0.10240751 185:0.1667974 
-1337.519669609642 20:0.14024592 23:0.17755872 25:0.2492291 77:0.22309665 86:0.0012594744 
-8192 148:0.18753339 
-8192 86:0.0014993742 92:0.051134747 148:0.13395242 159:0.18144568 
-8192 89:0.10571438 149:0.35907623 
-8192 46:0.080892418 149:0.22980879 
-8192 1:0.013049109 48:0.118952 77:0.11619617 
-1610.943681192146 1:0.044739802 17:0.11553554 36:0.35816658 156:0.15177593 159:0.13608426 
-8192 1:0.0042321435 85:0.0087083188 86:0.00085099619 89:0.022857163 151:0.076636644 155:0.071157386 
-8192 5:0.095882801 12:0.044747046 39:0.031684001 48:0.026680822 49:0.044747046 56:0.028578463 92:0.010035791 99:0.095882801 127:0.042733639 148:0.052579454 157:0.095927387 
-128.8892820033964 1:0.017895921 31:0.10732263 83:0.10339489 111:0.11118081 
-8192 86:0.0014312209 148:0.12786367 
-8192 85:0.022221227 86:0.0054287688 153:0.12118546 
-8192 86:0.0017492699 92:0.059657204 115:0.24660933 148:0.15627782 152:0.43646027 
-5109.169951687506 43:0.16004389 53:0.10904419 85:0.023867244 86:0.00116618 109:0.14280821 148:0.20837043 
-8022.893076552192 12:0.20817104 49:0.20817104 53:0.12800839 92:0.046688247 112:0.12841664 148:0.12230438 153:0.15279906 
-236.5664736898829 5:0.065765767 12:0.046037826 22:0.042757583 49:0.046037826 50:0.060709181 61:0.26957209 98:0.060709181 99:0.065765767 102:0.055569885 105:0.042757583 148:0.054096169 153:0.2027526 
-672.7552465359684 39:0.077049729 43:0.098208749 46:0.091923203 77:0.06337973 85:0.014645809 86:0.0014312209 136:0.099957864 137:0.11156754 164:0.089851368 
-8192 1:0.062635723 151:0.56711117 
-1665.512692046344 86:0.0040628205 92:0.034639667 127:0.14749998 152:0.12671427 
-8192 156:0.53121575 
-58.303572116007 43:0.21605925 77:0.13943541 92:0.053691484 152:0.19640712 168:0.27384778 
-16.16723916126275 1:0.058720991 5:0.21373874 8:0.30681073 99:0.21373874 
-837.6970298422275 53:0.10904419 76:0.17404634 85:0.023867244 86:0.00116618 139:0.15096528 141:0.15096528 
-3753.709347459615 90:0.22820649 91:0.14677822 113:0.12612355 119:0.184957 
-1466.300028336841 164:0.43927336 
-8192 5:0.11792482 12:0.16510117 49:0.16510117 99:0.11792482 112:0.20369536 148:0.097000027 
-8192 1:0.019573664 5:0.21373874 99:0.21373874 
-8192 47:0.26873972 159:0.17319815 
-3856.48471143246 15:0.19730484 53:0.18401206 54:0.13741886 144:0.28146916 145:0.27364646 
-71.39926838937184 15:0.15784387 53:0.14720965 54:0.10993508 86:0.0031486859 145:0.21891717 
-7953.778383703057 53:0.11323819 54:0.084565449 85:0.024785215 86:0.001211033 144:0.17321179 145:0.16839782 146:0.090951862 
-2.518463756123013 114:0.29348906 119:0.4438968 
-123.9966622676975 114:0.29348906 119:0.4438968 
-7152.984608928257 1:0.026098218 91:0.14677822 144:0.18764611 145:0.18243097 183:0.1450773 
-8192 53:0.10904419 144:0.16679654 145:0.16216087 
-862.0462291440297 164:0.43927336 
-1814.646448438015 1:0.034797624 52:0.1990434 54:0.12215009 144:0.25019481 145:0.2432413 
-2576.278713298161 1:0.034797624 52:0.1990434 54:0.12215009 144:0.25019481 145:0.2432413 
-18.06098763762537 20:0.21913425 23:0.2774355 76:0.29370319 
-8192 86:0.00055240104 92:0.018839117 146:0.041486814 152:0.20674434 155:0.092379765 186:0.015828854 
-8192 148:0.16547064 
-97.20999533985837 77:0.082020827 124:0.11946099 136:0.12935724 137:0.14438152 138:0.14974392 
-8192 1:0.031317862 144:0.15011688 145:0.14594478 
-8192 46:0.059479719 106:0.054743518 114:0.086320312 119:0.13055788 
-3582.549293637154 22:0.22233943 102:0.2889634 105:0.22233943 153:0.35143785 
-8192 153:0.43929731 
-8192 1:0.031317862 153:0.2342919 186:0.030074823 
-8192 1:0.05051268 91:0.11363475 144:0.1452744 145:0.14123688 146:0.076282207 
-2603.550430699485 110:0.18673658 
-382.1159337741128 1:0.044739802 5:0.4885457 99:0.4885457 
-8192 1:0.020205072 12:0.077224741 22:0.071722397 49:0.077224741 105:0.071722397 112:0.095276863 
-8192 148:0.16547064 
-341.2114081975955 22:0.18528286 105:0.18528286 
-1991.940129963564 12:0.08549882 16:0.13729503 49:0.08549882 92:0.03835106 156:0.15177593 
-8192 12:0.030691884 49:0.030691884 53:0.037746064 56:0.03920379 77:0.035752668 92:0.013767047 119:0.056909846 152:0.251804 156:0.10896733 
-4674.479636447147 86:0.001548534 89:0.027728361 92:0.017603765 101:0.12719188 152:0.12879155 166:0.13090757 
-8192 39:0.10594338 53:0.092006031 89:0.052857189 144:0.14073458 145:0.13682323 156:0.13280394 
-81.52145272583031 1:0.044739802 52:0.12795647 103:0.13092065 133:0.15116541 
-691.0162842390756 56:0.25482463 86:0.0026239049 159:0.31752995 
-3832.699732955434 48:0.19032319 74:0.26022998 122:0.28105496 127:0.30483329 
-8192 5:0.10686937 99:0.10686937 108:0.12477128 148:0.087906275 183:0.10880798 
-1044.615123745931 85:0.04957043 86:0.0024220661 97:0.27097518 122:0.32429419 127:0.35173072 
-3244.298211043716 1:0.056941567 84:0.24224747 
-8192 15:0.16615144 52:0.18856743 
-1779.618441517171 1:0.040849385 89:0.073540436 92:0.046688247 156:0.1847707 
-6769.946932962283 125:0.13814151 
-206.1530901526907 46:0.16852587 91:0.29355644 114:0.24457422 181:0.39388751 
-47.54441606144953 1:0.025054289 5:0.1367928 9:0.19135234 43:0.1728474 46:0.080892418 99:0.1367928 
-8192 1:0.021598525 5:0.11792482 46:0.069734844 86:0.0010857538 99:0.11792482 
-1946.738701346154 1:0.0081345095 5:0.088826491 12:0.12436192 13:0.11038249 46:0.026263772 49:0.12436192 86:0.00040892025 99:0.088826491 147:0.098922362 
-8192 1:0.011599208 48:0.10573511 53:0.10904419 152:0.29097351 
-8192 1:0.026843881 53:0.0841198 91:0.10064792 148:0.080371451 
-8192 85:0.012158785 86:0.0023763667 167:0.093261758 
-8192 114:0.22576082 119:0.34145908 
-3671.937092998041 90:0.28826083 91:0.18540407 139:0.21452961 141:0.21452961 155:0.27713929 
-8192 92:0.029828602 144:0.1250974 145:0.12162065 156:0.11804794 
-8192 1:0.041757149 127:0.2032222 146:0.052549965 186:0.020049882 
-8192 1:0.019573664 127:0.28578121 
-161.9084655145878 23:0.10568971 24:0.1139002 54:0.10470008 58:0.12653421 60:0.13184715 86:0.0037484356 92:0.025567373 156:0.20236791 
-8192 127:0.3266071 
-250.0539478979985 28:0.083459175 85:0.012392608 86:0.0018165496 128:0.10773305 167:0.095055254 
-4939.367998797171 1:0.037581434 144:0.18014026 145:0.17513374 
-800.3004491072439 12:0.028842975 48:0.068791516 49:0.028842975 50:0.114104 51:0.06464735 81:0.057636247 86:0.004552317 89:0.081514701 98:0.114104 121:0.063441525 127:0.16527106 156:0.15360455 
-221.1324581334419 1:0.034797624 108:0.22181561 
-1532.63431238297 1:0.082415425 54:0.11572114 
-4803.128841467195 5:0.17999052 86:0.0066288124 92:0.056517352 93:0.15025515 99:0.17999052 152:0.20674434 157:0.27011133 
-5735.499513370737 1:0.012201764 12:0.03109048 31:0.048783015 49:0.03109048 62:0.025604869 125:0.15608197 
-4251.452467138826 31:0.17074055 46:0.091923203 
-7625.016373593041 1:0.028470783 12:0.05440834 20:0.15937036 22:0.10106338 33:0.10502931 46:0.045961601 49:0.05440834 53:0.066913477 91:0.080060847 105:0.10106338 112:0.13425376 
-7510.47764274124 1:0.10439287 
-3364.835719708703 1:0.0074566337 15:0.037581874 53:0.035049917 85:0.0076716142 86:0.0029987485 121:0.062686269 125:0.047691713 148:0.033488105 
-8192 22:0.15881388 105:0.15881388 
-8192 12:0.082550585 49:0.082550585 86:0.00054287688 148:0.048500014 186:0.031111886 
-3412.306452148902 53:0.32713256 86:0.0069970798 92:0.11931441 148:0.62511129 
-8192 53:0.26765391 92:0.09762088 148:0.51145469 
-8192 85:0.04957043 86:0.0024220661 127:0.35173072 
-539.9904592872457 22:0.15881388 86:0.0044981227 105:0.15881388 183:0.24870395 
-8192 85:0.018411874 86:0.0053977473 153:0.20082163 
-1356.623386035504 12:0.099748623 49:0.099748623 53:0.12267471 85:0.02685065 86:0.0026239049 113:0.12612355 
-8192 148:0.40185726 
-8192 5:0.17099099 86:0.001574343 89:0.028190501 92:0.017897161 99:0.17099099 152:0.13093808 167:0.08238122 
-1715.834488568622 103:0.23650181 
-8192 22:0.14822629 105:0.14822629 
-3326.334905437462 85:0.024785215 86:0.0024220661 89:0.065055001 101:0.14920585 110:0.13646135 119:0.17072954 
-8192 1:0.0075464727 15:0.114104 
-1549.847852641081 39:0.036065831 43:0.091940106 148:0.02992554 150:0.071284374 186:0.0095983479 
-319.0402233147544 5:0.13153153 12:0.092075652 49:0.092075652 85:0.024785215 86:0.001211033 99:0.13153153 130:0.09657986 
-8192 1:0.052196436 22:0.074113143 105:0.074113143 
-3057.521711547409 46:0.1263944 53:0.18401206 119:0.2774355 
-283.6452928044391 1:0.08541235 91:0.16012169 125:0.18209563 
-1631.674625596082 12:0.19949725 22:0.18528286 49:0.19949725 105:0.18528286 112:0.2461319 
-7566.340688652177 47:0.19707579 
-8052.936639027848 86:0.0010857538 89:0.058325174 164:0.13632621 
-8192 85:0.058583235 86:0.0028624417 155:0.47869514 
-1222.223605268992 51:0.28240684 91:0.18540407 179:0.28525249 
-1098.169057421001 1:0.010799263 11:0.10946105 46:0.069734844 77:0.096162348 186:0.031111886 
-2332.943482402853 33:0.42011723 76:0.42720465 
-8192 53:0.10514975 54:0.07852506 86:0.0044981227 92:0.03835106 159:0.27216853 
-8192 113:0.12612355 
-8192 1:0.10439287 
-8192 1:0.022369901 113:0.21621181 
-661.0234870513276 5:0.23584965 16:0.13256072 48:0.098443031 74:0.13460172 99:0.23584965 114:0.10120312 115:0.15306786 122:0.14537326 152:0.13545319 
-1068.354686581006 46:0.15556234 139:0.31354327 141:0.31354327 155:0.40504974 
-8192 39:0.29479896 46:0.087926542 86:0.0041069816 92:0.046688247 127:0.19880432 156:0.36954139 
-6084.575226132977 89:0.093968335 112:0.16408793 113:0.16816474 
-4491.512365106434 1:0.10439287 
-3941.005856692947 1:0.0031634204 29:0.038376864 48:0.028836848 79:0.058841034 81:0.048321298 85:0.0065092484 86:0.00031804908 89:0.034170304 148:0.028414149 152:0.039678206 
-7983.352390536429 88:0.26442424 122:0.28105496 
-8192 1:0.044739802 23:0.31706914 159:0.27216853 
-8192 46:0.087926542 53:0.12800839 86:0.0013689939 92:0.046688247 148:0.36691315 
-8192 20:0.019587419 22:0.012421197 39:0.037879197 46:0.045191295 48:0.015948871 54:0.01228325 71:0.028013029 85:0.010800261 86:0.00052771272 89:0.037797319 105:0.012421197 148:0.015715088 157:0.028671035 166:0.04461096 
-3765.776770553796 52:0.13779928 53:0.11323819 85:0.024785215 86:0.0024220661 95:0.19738905 96:0.19902595 
-4304.1133073841 52:0.1557731 53:0.12800839 83:0.15734005 
-8192 92:0.063166452 148:0.33094127 152:0.4621344 
-8192 43:0.130945 86:0.00095414724 92:0.032540293 148:0.25572735 
-207.7990210300593 22:0.1307879 77:0.16404165 105:0.1307879 174:0.48883347 
-8192 1:0.027633407 53:0.086593912 91:0.10360816 103:0.107817 115:0.13055788 148:0.16547064 
-8192 15:0.085321012 29:0.10268404 43:0.11678878 86:0.00085099619 92:0.029022424 103:0.099075084 148:0.22808115 
-332.4757150996291 156:4.249726 
-1006.232483526402 12:0.088665443 49:0.088665443 85:0.011933622 86:0.00058308998 87:0.073693253 88:0.073451178 167:0.091534689 
-8192 153:0.50205407 
-3292.37725850612 29:0.31660913 149:0.47876831 
-8192 29:0.2234888 92:0.031583226 148:0.082735318 159:0.11206939 
-8192 1:0.010988723 29:0.066654553 31:0.065899862 46:0.035479131 76:0.082443002 91:0.061801356 
-8192 92:0.089485807 148:0.46883347 
-8192 153:1.1714595 
-8192 22:0.15881388 105:0.15881388 
-8192 1:0.015658931 5:0.085495497 91:0.088066932 99:0.085495497 139:0.10190156 141:0.10190156 
-8192 43:0.20577071 53:0.28039933 92:0.051134747 148:0.40185726 
-8192 92:0.046688247 148:0.24460876 153:0.15279906 
-8192 12:0.040575711 46:0.034276449 49:0.040575711 52:0.060725105 53:0.049901576 85:0.010922298 86:0.0010673512 108:0.067672558 148:0.04767798 183:0.059014496 
