svm_type c_svc
kernel_type rbf
gamma 0.125
nr_class 2
total_sv 156
rho 35.8789
label 1 -1
nr_sv 60 96
SV
2048 10:0.22792062 54:0.13741886 
339.1940289165976 130:0.83702546 132:1.4529751 
1967.740751688263 10:0.11763645 115:0.14319252 119:0.14319252 125:0.12922916 135:0.15247258 
2048 10:0.16961535 52:0.083320493 134:0.10928491 166:0.092853044 186:0.020982435 
2048 10:0.072934599 77:0.055774162 134:0.093985022 135:0.094533002 
175.4899355521288 129:0.47838085 134:0.46992511 186:0.09022447 
2048 85:0.023867244 86:0.00116618 134:0.17404634 135:0.17506111 
882.7857346191488 135:0.36358847 
2048 113:0.1441412 132:0.20756787 158:0.22006141 
2048 54:0.07852506 132:0.1556759 
2048 1:0.023198416 54:0.081433396 131:0.19683099 132:0.16144168 
477.7309408884252 52:0.1990434 54:0.12215009 113:0.33632948 132:0.48432503 166:0.22181561 
332.66679690006 52:0.27559855 86:0.0024220661 113:0.23284348 118:0.28347663 132:0.33530195 
2048 3:0.18571601 92:0.03977147 
2048 46:0.044940232 62:0.087625553 85:0.014320346 86:0.001399416 130:0.11160339 132:0.096865007 186:0.040099764 
1172.564341202082 12:0.1595978 49:0.1595978 191:0.35104311 
2048 12:0.21763336 49:0.21763336 54:0.19988197 
2048 15:0.35076416 54:0.24430019 186:0.10024941 
1309.188327957144 54:0.081433396 110:0.13140723 113:0.11210983 131:0.19683099 186:0.03341647 
2048 54:0.19988197 
2048 46:0.1348207 186:0.030074823 
2048 12:0.11969835 49:0.11969835 54:0.10993508 130:0.12555382 
47.77587157843197 131:0.93784178 
20.41222283145774 10:0.12574931 46:0.069734844 54:0.075817299 129:0.16495891 133:0.14595281 134:0.16204314 135:0.16298793 186:0.062223772 
201.2822799405826 1:0.019573664 62:0.24644687 131:0.3321523 
14.55069079677725 113:0.27517866 130:0.11413983 132:0.19813297 180:0.28928449 186:0.041011123 
2048 46:0.080892418 117:0.15565314 
1044.049983169537 62:0.093884521 134:0.67132159 135:0.22507858 
2048 15:0.26307312 134:0.39160426 
99.44833971146247 136:2.199073 137:2.4544858 
95.01931760934455 22:0.15881388 105:0.15881388 136:0.31415329 137:0.35064083 
1720.289930270151 5:0.16284857 89:0.080544288 99:0.16284857 112:0.070323399 136:0.10471776 137:0.11688028 
2048 39:0.1695094 
667.1341672394157 77:0.082020827 124:0.11946099 136:0.12935724 137:0.14438152 138:0.14974392 
198.7906913851198 39:0.37668757 136:0.48868289 137:0.54544129 138:0.56569924 
908.4271703815112 9:0.2814005 43:0.25418735 53:0.17318782 114:0.17264062 129:0.562801 132:0.25640737 
2048 85:0.0103938 86:0.0010157051 129:0.077158202 136:0.14187568 137:0.15835392 186:0.058209335 
2048 39:0.053812509 85:0.010228819 86:0.00099958283 136:0.069811842 137:0.077920185 166:0.12675177 
2048 136:0.15166021 137:0.16927488 138:0.17556183 
605.7536322433638 1:0.030307608 39:0.10936091 137:0.15835392 
2048 1:0.052196436 
483.6385290176127 1:0.034797624 136:0.24434145 137:0.27272065 
2048 10:0.12155766 85:0.02148052 86:0.0020991239 132:0.14529751 
143.2394198587071 10:0.13506407 54:0.081433396 134:0.34809267 135:0.17506111 
1651.183464827685 52:0.25591294 56:0.21842111 85:0.046029685 86:0.0022490614 132:0.31135181 
2048 15:0.2104585 129:0.31892057 
2048 113:0.11210983 129:0.17717809 186:0.066832941 
2048 52:0.1990434 92:0.059657204 132:0.24216252 
780.0292520182805 10:0.40519221 134:0.52213901 
32.82130897769467 83:0.12478694 85:0.022221227 86:0.0021715075 134:0.16204314 135:0.32597587 
2048 92:0.067114355 113:0.18918533 132:0.27243283 
2048 85:0.019527745 86:0.00095414724 129:0.14496389 131:0.16104354 186:0.027340748 
2030.672381223907 76:0.1566417 113:0.10089884 132:0.14529751 186:0.030074823 
2048 5:0.13153153 12:0.092075652 49:0.092075652 85:0.024785215 86:0.001211033 99:0.13153153 130:0.09657986 
829.8125835507673 85:0.024785215 86:0.001211033 110:0.13646135 113:0.11642174 129:0.18399263 130:0.19315972 
2048 1:0.0071176958 52:0.081426846 54:0.049970493 117:0.088439282 132:0.099066484 
2048 85:0.035800866 86:0.0017492699 
2048 85:0.014645809 86:0.00071561043 130:0.11413983 186:0.020505561 
2048 1:0.0089479605 10:0.10419228 85:0.018411874 86:0.00089962454 113:0.086484723 132:0.12454072 
2048 10:0.19193315 103:0.19293569 
-978.4125593126557 85:0.080551949 86:0.0039358574 117:0.48641605 
-100.341163362112 52:0.14331125 114:0.11739562 117:0.15565314 186:0.036089788 
-351.9393436950036 115:0.34145908 118:0.28347663 191:0.40504974 
-2048 1:0.016483085 10:0.19193315 54:0.11572114 
-713.3616220964959 15:0.28698886 86:0.0028624417 134:0.85440929 135:0.42969546 
-2048 54:0.061075047 85:0.017900433 86:0.0017492699 129:0.13288357 134:0.13053475 135:0.13129584 186:0.050124706 
-605.1042082177332 46:0.25278881 132:0.54486566 
-1090.221703873377 85:0.046029685 86:0.0022490614 113:0.21621181 129:0.34170061 132:0.31135181 
-2048 1:0.020205072 54:0.070925861 131:0.34286689 132:0.14061049 166:0.12879616 
-2048 10:0.17365381 86:0.005997497 113:0.1441412 129:0.2278004 132:0.20756787 
-1006.142763160196 92:0.082602283 113:0.23284348 130:0.19315972 132:0.33530195 
-2048 1:0.069595248 130:0.27900849 132:0.48432503 
-362.2552217406595 16:0.076885218 43:0.0864237 85:0.012888312 86:0.00062973718 191:0.10531293 
-22.82245133356127 1:0.026098218 6:0.26517745 10:0.15194708 54:0.09161257 103:0.15274076 
-2048 15:0.06442607 52:0.073117984 86:0.0032129448 
-1000.662873970925 1:0.013049109 52:0.14928255 53:0.12267471 54:0.09161257 76:0.19580213 85:0.02685065 86:0.0013119525 166:0.1663617 
-511.0078572070551 15:0.16615144 46:0.10643739 86:0.0033144062 
-66.65327236174876 1:0.0065245545 21:0.065889053 25:0.12980682 46:0.042131468 76:0.097901065 77:0.058098086 109:0.080329619 
-20.17352870634833 46:0.192601 52:0.17060863 
-956.8798635188454 12:0.1841513 49:0.1841513 112:0.075732891 186:0.092537918 
-1653.72793005859 86:0.0028624417 113:0.27517866 
-39.7635896760634 85:0.020137987 86:0.0039358574 102:0.090301063 110:0.11087485 113:0.094592665 
-727.5522849005296 39:0.077049729 43:0.098208749 46:0.091923203 77:0.06337973 85:0.014645809 86:0.0014312209 136:0.099957864 137:0.11156754 164:0.089851368 
-575.3802376983117 31:0.069560965 76:0.087023169 135:0.087530557 148:0.052092607 186:0.016708235 
-15.82676620995677 76:0.42720465 77:0.25351892 148:0.25572735 
-2048 158:0.17115887 
-2048 62:0.093884521 
-1860.186382791107 186:0.11278059 
-189.2821195367718 136:0.8796292 137:0.98179433 
-17.57063439449569 53:0.10904419 76:0.17404634 85:0.023867244 86:0.00116618 139:0.15096528 141:0.15096528 
-21.65229874467134 5:0.56996998 12:0.39899449 49:0.39899449 99:0.56996998 
-18.1550568004916 119:0.2219484 152:0.19640712 
-264.5884030026838 62:0.32859582 186:0.15037412 
-2048 1:0.019573664 5:0.21373874 99:0.21373874 
-104.6929479334601 22:0.076668769 62:0.13597069 105:0.076668769 110:0.12234466 119:0.15306786 
-47.75031771834413 45:0.074861715 62:0.069178068 110:0.12449106 
-876.5999495462232 15:0.28698886 54:0.19988197 85:0.058583235 86:0.0028624417 
-1918.66515786577 15:0.28698886 54:0.19988197 85:0.058583235 86:0.0028624417 
-2048 86:0.0011245307 92:0.03835106 136:0.31415329 137:0.35064083 138:0.1818319 
-37.30918272360979 20:0.21913425 23:0.2774355 76:0.29370319 
-347.2518991854572 9:0.47838085 136:0.4398146 137:0.49089716 
-868.2133403529374 86:0.00068449694 92:0.023344123 114:0.06380197 136:0.09561187 137:0.10671677 138:0.22136057 186:0.03922803 
-365.1917508410658 112:0.13425376 158:0.21005862 
-58.42329194564454 34:0.1287778 86:0.0022490614 92:0.01917553 136:0.078538322 137:0.087660208 
-207.3786009274363 46:0.087926542 62:0.08572065 85:0.028018069 86:0.0013689939 
-1354.92107120597 110:0.18673658 
-2048 10:0.15194708 86:0.0039358574 92:0.044742903 134:0.19580213 135:0.19694375 
-1119.581705353931 56:0.31633403 86:0.0021715075 92:0.03702861 129:0.16495891 130:0.17317768 132:0.15030777 
-48.41105197466221 22:0.11702075 101:0.20417643 105:0.11702075 130:0.13216191 158:0.24322577 186:0.047486563 
-535.2654194412272 114:0.19565937 129:0.31892057 191:0.35104311 
-1494.749865872657 52:0.35827812 54:0.21987017 132:0.43589253 
-1497.727995862863 85:0.028018069 86:0.0013689939 129:0.20799167 186:0.03922803 
-400.0026957224371 12:0.19949725 49:0.19949725 
-212.4056125493476 10:0.48623066 11:0.21162471 
-105.3999889752456 43:0.288079 
-1080.13414614249 52:0.10236518 86:0.0026988736 166:0.1140766 
-348.7501282566559 15:0.35076416 77:0.30985646 
-2048 15:0.16615144 52:0.18856743 
-443.2497198061711 1:0.025054289 5:0.1367928 9:0.19135234 43:0.1728474 46:0.080892418 99:0.1367928 
-156.2641289312236 1:0.021598525 5:0.11792482 46:0.069734844 86:0.0010857538 99:0.11792482 
-395.4115242418738 10:0.22101394 48:0.086510543 53:0.08921797 54:0.13325465 85:0.019527745 86:0.00095414724 
-47.4321190664262 1:0.0081345095 5:0.088826491 12:0.12436192 13:0.11038249 46:0.026263772 49:0.12436192 86:0.00040892025 99:0.088826491 147:0.098922362 
-76.26832204044879 10:0.11956492 54:0.07208858 85:0.01056419 86:0.001032356 87:0.065236651 88:0.065022354 103:0.060094723 111:0.12758454 119:0.072769967 186:0.014790897 
-1373.743482842914 10:0.15194708 86:0.0026239049 92:0.044742903 113:0.12612355 134:0.19580213 186:0.037593529 
-16.39678529027939 1:0.021232449 10:0.12361796 48:0.048387253 53:0.049901576 54:0.03726613 74:0.1984805 76:0.079648324 77:0.047266239 80:0.078326942 
-3.263453362489278 83:0.30156843 85:0.053701299 86:0.0026239049 110:0.29566626 113:0.25224711 
-2048 12:0.14082159 49:0.14082159 
-8.505259657758122 43:0.1440395 56:0.10192985 180:0.21214196 
-1381.124836045494 89:0.084571502 125:0.2003052 131:0.26572184 
-209.4246895896777 1:0.023027839 3:0.22122054 53:0.043296956 86:0.00092608409 92:0.031583226 93:0.041983057 186:0.026536609 
-2048 46:0.080892418 86:0.0025189487 134:0.18797004 135:0.189066 
-67.5689579460395 3:0.45584838 86:0.0028624417 92:0.09762088 
-1543.255785829389 103:0.23650181 
-2048 10:0.3315209 54:0.19988197 134:0.42720465 
-2048 130:0.13950424 186:0.050124706 
-2048 129:0.19135234 132:0.17435701 186:0.072179576 
-2048 54:0.079952788 113:0.055035733 132:0.15850637 
-2048 54:0.15705012 86:0.0044981227 132:0.31135181 
-2048 12:0.12599826 49:0.12599826 
-2048 3:0.11396209 86:0.0014312209 92:0.02440522 
-1315.737259722458 1:0.013049109 10:0.15194708 39:0.28251567 
-1201.752509386974 39:0.14125784 85:0.02685065 86:0.0013119525 119:0.184957 
-33.36067353388838 33:0.42011723 76:0.42720465 
-2048 113:0.12612355 
-280.4825633076621 1:0.018155282 89:0.12256739 103:0.053127219 130:0.036392411 134:0.068105089 135:0.068502175 189:0.05459238 
-25.98585737635879 5:0.022498815 12:0.062999131 49:0.062999131 50:0.083075722 85:0.0042395763 86:0.0020715039 87:0.026180498 89:0.033383488 97:0.023175508 98:0.083075722 99:0.022498815 100:0.041870124 135:0.031096382 167:0.032518903 186:0.029679102 
-143.8920102719786 2:0.21298386 3:0.19285893 129:0.18399263 
-27.81737666910369 5:0.18998999 99:0.18998999 156:0.23609589 
-32.49909953202714 22:0.06539395 76:0.023035545 85:0.0031589 86:0.0003086947 87:0.019507038 89:0.041456619 95:0.025157427 96:0.025366053 105:0.06539395 110:0.017392133 129:0.093800167 130:0.061545989 183:0.10240751 186:0.0044227681 
-334.9548035366338 12:0.099748623 46:0.084262936 49:0.099748623 85:0.02685065 86:0.0013119525 
-637.4230761118159 85:0.035800866 86:0.0017492699 115:0.24660933 
-2048 86:0.00087463497 92:0.029828602 136:0.12217072 137:0.13636032 
-453.8764052500003 124:0.16246695 
-84.07228106895995 1:0.03296617 12:0.062999131 49:0.062999131 90:0.14413041 91:0.092702034 191:0.27713929 
-187.1220060044499 10:0.088944632 12:0.058389438 22:0.054229129 49:0.058389438 54:0.05362687 85:0.015717453 86:0.0015359443 105:0.054229129 111:0.094910449 119:0.10826751 
-2032.316851165348 12:0.092075652 49:0.092075652 
